{"fc1.weight": [[-0.06768221408128738, -0.2652111351490021, -0.43511927127838135, -0.8061159253120422, 0.10303757339715958, -0.3256169855594635, 0.912367045879364, -0.6334259510040283], [0.23596979677677155, 0.20694921910762787, -0.2367771565914154, -0.1172088012099266, 0.5443512797355652, 0.04388090968132019, -2.0609350204467773, -0.3862331211566925], [-0.1271512508392334, -0.7552976608276367, 0.04953763633966446, 0.19982831180095673, 0.01921783946454525, 0.44880548119544983, -0.9261441826820374, -0.37939801812171936], [-0.3606904447078705, 0.08581870049238205, 0.09529069066047668, -2.0320301055908203, 0.017703725025057793, -0.39715322852134705, 0.6850011944770813, -0.6252368092536926], [-0.15721186995506287, 0.05683024227619171, 0.470460444688797, -1.8804278373718262, -0.022403402253985405, -0.010448426939547062, 0.022800298407673836, -0.2641088664531708], [-0.28051406145095825, 0.08760559558868408, -0.3699289560317993, -0.45160648226737976, -0.28643280267715454, -0.037467893213033676, -1.8366202116012573, -0.5044925212860107], [-0.09308822453022003, 0.21974630653858185, 0.02646556869149208, -0.3561045527458191, 0.09369009733200073, -0.05223529413342476, -2.896474599838257, 0.9357160329818726], [-0.45857149362564087, -0.48190680146217346, 0.389251708984375, -0.08772483468055725, 0.13857263326644897, 0.1607152223587036, -1.1317347288131714, -0.09428111463785172], [0.2630460262298584, -0.46628302335739136, 0.2422947883605957, -0.6893342137336731, -0.31176942586898804, -0.09567923843860626, -1.4815433025360107, 0.37143129110336304], [-0.6916127800941467, -0.15833668410778046, -0.2660275399684906, -0.42425984144210815, 0.2545972466468811, -0.06688709557056427, -0.8911424875259399, -0.42821183800697327], [-0.26634910702705383, 0.18226255476474762, -0.03622141852974892, 0.11284687370061874, 0.3079736828804016, 0.013795347884297371, 3.121403217315674, -0.3179948627948761], [0.07267797738313675, 0.07775229215621948, -0.09607703238725662, -0.3879755735397339, -0.7360193133354187, 0.26138851046562195, 2.553650140762329, 0.10177053511142731], [-0.5113493800163269, -0.011998115107417107, 0.0020197839476168156, 0.2328995019197464, 0.12559349834918976, 0.03378044813871384, -1.4810643196105957, 0.9578243494033813], [-0.2035883367061615, -0.6512315273284912, 0.5161609053611755, -0.46245068311691284, 0.05280493199825287, -0.2712068557739258, -1.425349473953247, -0.319222092628479], [0.1872347742319107, 0.16781015694141388, 0.2846316397190094, 0.09670288860797882, -0.602392852306366, -0.326127290725708, -1.5373585224151611, 0.560850203037262], [-0.9746915698051453, -0.15820100903511047, -0.018909409642219543, -0.3289608359336853, 0.5572214126586914, 0.0886266678571701, -2.3331406116485596, 0.33721923828125], [-0.2933920919895172, -0.13212096691131592, -0.09489060938358307, -0.012038513086736202, -0.0922088548541069, 0.12031439691781998, 3.190983295440674, -0.5698147416114807], [0.6596128344535828, 0.033472202718257904, -0.04946846142411232, -0.1425260603427887, -0.10623408854007721, -0.3648240864276886, -1.6074192523956299, 0.2364908903837204], [-0.4606313407421112, -0.5095862150192261, 0.37251073122024536, -0.22071652114391327, 0.7090982794761658, -0.06804461777210236, -2.3674826622009277, 0.4558415412902832], [0.07746309787034988, 0.07169470936059952, 0.002650666981935501, -0.08603886514902115, -0.04495086520910263, 0.00947394035756588, -2.9971563816070557, -0.34606337547302246], [0.21429285407066345, 0.5322771072387695, -0.13084885478019714, -1.445682168006897, -0.4262358248233795, -0.18196098506450653, 1.5568645000457764, 0.13385862112045288], [-0.31145358085632324, -0.7303010821342468, 0.2518400549888611, -0.24291664361953735, 0.40554872155189514, -0.10439945012331009, -1.3338685035705566, -0.12667706608772278], [-1.0591254234313965, 0.041564151644706726, 0.45722508430480957, -0.10537433624267578, -0.0026574376970529556, -0.023184282705187798, -1.3050745725631714, 0.16420678794384003], [-0.5828247666358948, -0.2275862693786621, 0.17931315302848816, 0.09216774255037308, 0.1745709478855133, 0.007503507658839226, -1.7104542255401611, 0.07002869993448257], [0.08900055289268494, -1.1321417093276978, 0.16229242086410522, -0.03648858144879341, -0.3287879228591919, 0.01424415223300457, -2.581918239593506, 0.3308686316013336], [-0.5075916647911072, 0.4325442612171173, 0.1386524885892868, -0.11017721891403198, -0.25307589769363403, -0.28198859095573425, -1.5928064584732056, 0.3346097767353058], [-0.014834335073828697, 0.23000569641590118, -0.2586517930030823, -1.4175947904586792, 0.1378210186958313, -0.30954843759536743, -2.212293863296509, 0.34299421310424805], [-0.6420824527740479, -0.9971382021903992, 0.14293034374713898, 0.3295820653438568, 0.052067264914512634, 0.15529648959636688, -0.28553056716918945, 0.2829393446445465], [0.4892449676990509, 0.5265030264854431, -0.049122247844934464, 0.14291433990001678, -0.6995993256568909, -0.1933017373085022, -0.07316029071807861, -0.6284370422363281], [-0.43156924843788147, 0.17303811013698578, 0.04164617881178856, 0.43071258068084717, -0.5902950763702393, 0.014841407537460327, -0.2436918318271637, 0.09389913082122803], [-0.8124727606773376, -1.1297740936279297, 0.2755488157272339, -0.4002339839935303, -0.021939212456345558, 0.289239764213562, 0.5322028994560242, -0.16254305839538574], [0.26238858699798584, 0.4205515384674072, -0.06544170528650284, -0.7931081652641296, -0.024598918855190277, 0.13574887812137604, -2.3808040618896484, -0.038024578243494034], [0.2633134126663208, -0.21485579013824463, -0.05169236287474632, -0.23965461552143097, 0.15800876915454865, -0.466699481010437, -0.3813583254814148, 0.3686564564704895], [0.3404887318611145, -0.6149177551269531, -0.07212046533823013, -1.5503571033477783, -0.4867962598800659, -0.12698876857757568, -0.4550023376941681, -0.06592423468828201], [-0.531848669052124, 0.31726834177970886, 0.09222979843616486, -0.03307713568210602, 0.05211716517806053, 0.20085376501083374, -1.0585267543792725, 0.2863839566707611], [-0.07315105944871902, -0.6468749642372131, -0.08204304426908493, -0.8545995950698853, 0.5550251007080078, 0.3591614067554474, -0.6015321016311646, -0.28671354055404663], [0.22214022278785706, 0.1934780776500702, -0.03558792173862457, 0.08469658344984055, -0.27617335319519043, 0.1000719740986824, -1.6365320682525635, -0.235835999250412], [0.07697021961212158, 0.3431449234485626, 0.08671397715806961, 0.2956772446632385, 0.4667421877384186, -0.12279350310564041, -2.772948741912842, -0.04641038179397583], [-0.1671644151210785, 0.2925736606121063, -0.2764664888381958, -0.2659217417240143, 0.3790723979473114, -0.14187949895858765, -1.1239278316497803, 0.058579035103321075], [0.5781359076499939, -0.27190086245536804, 0.01355423778295517, -0.35315102338790894, 0.6786183714866638, -0.1587705910205841, 2.2766342163085938, 0.042192161083221436], [0.17020972073078156, -0.08270540088415146, 0.013829679228365421, -0.5341585278511047, -0.4621007740497589, 0.27413952350616455, -2.650705575942993, -0.5601139068603516], [-0.43388351798057556, 0.06544819474220276, 0.029528893530368805, -0.528211236000061, -0.6866488456726074, -0.41655081510543823, 1.3683781623840332, -0.5809621214866638], [-0.36838406324386597, -0.030976280570030212, 0.16072238981723785, 0.7674590349197388, -0.24388796091079712, -0.024657612666487694, 1.9012587070465088, -0.11161097884178162], [-0.18287192285060883, 0.4235909581184387, 0.15136933326721191, 0.7829208970069885, -0.7043848633766174, -0.12096579372882843, 0.9684794545173645, 0.16140365600585938], [0.13350659608840942, 0.17426249384880066, -0.3275372087955475, 0.225549578666687, -0.10638631135225296, 0.20682761073112488, -2.610410213470459, -0.019777072593569756], [0.6650170683860779, -0.05337247997522354, 0.017923571169376373, -0.15517063438892365, 0.43530765175819397, 0.02141866460442543, 2.7775444984436035, -0.19051389396190643], [0.29125601053237915, -0.4388471841812134, -0.09654657542705536, -0.4069754183292389, 0.047984495759010315, -0.0794958770275116, -1.5571860074996948, -0.28322485089302063], [0.7230052351951599, 0.0863543450832367, 0.15534386038780212, -1.3319395780563354, 0.2524179518222809, -0.044263698160648346, -0.5303897261619568, 0.2799719274044037], [0.6397567987442017, -0.1833951771259308, -0.05999227613210678, -0.17377915978431702, -0.9850028157234192, 0.1278233677148819, 0.9032837748527527, 0.13227340579032898], [0.15764093399047852, 0.3934116065502167, 0.13533908128738403, -0.5384751558303833, 0.007962578907608986, -0.1068325862288475, 1.408879041671753, 0.43011462688446045], [-0.030091427266597748, -0.13611990213394165, -0.13797642290592194, 0.8920297622680664, -0.8147345185279846, -0.18788044154644012, -0.5874347686767578, -0.01983768492937088], [0.5226531028747559, -1.5695208311080933, -0.20402997732162476, -1.056941032409668, 0.1677829623222351, 0.1250658631324768, -0.08535011857748032, 0.18924731016159058], [0.5119301080703735, -0.8809220194816589, 0.0900205746293068, 0.019319642335176468, 0.19361141324043274, 0.11609876900911331, -2.1280875205993652, 0.042588360607624054], [-0.3871978223323822, -0.40213948488235474, 0.005268198903650045, 0.15244139730930328, -0.22571653127670288, -0.27570077776908875, -0.5715887546539307, 0.6370830535888672], [-0.5375226140022278, 0.2641133964061737, -0.011585935950279236, 0.09343845397233963, -0.014742963016033173, -0.4427194893360138, -0.13099046051502228, 0.21416369080543518], [-0.8278992772102356, 0.12322256714105606, 0.09597668051719666, -0.08192954957485199, 0.3225030303001404, 0.3695194721221924, -0.2991350293159485, -0.4166141748428345], [-0.6799613237380981, 0.26555532217025757, -0.07301747798919678, -0.18082977831363678, -0.48379912972450256, 0.07449494302272797, 1.4860258102416992, 0.3495194911956787], [-0.18261288106441498, -0.5756663084030151, -0.09062915295362473, 0.7311071753501892, -0.05571654066443443, -0.18763428926467896, 1.9687995910644531, -0.17694254219532013], [-0.306852787733078, -0.404246062040329, -0.0915033370256424, 0.8235408663749695, 0.08607456088066101, -0.1398191750049591, 0.9425368309020996, 0.26982229948043823], [0.46166640520095825, -0.6819419860839844, 0.22079603374004364, 0.6267597675323486, -0.7556673884391785, 0.04361853003501892, -0.09188087284564972, -0.2732893228530884], [0.036529719829559326, 0.15703977644443512, -0.053393054753541946, -0.21892565488815308, 0.11289471387863159, -0.040698613971471786, 1.8624200820922852, 0.2488284707069397], [-0.3397957384586334, -1.4799273014068604, 0.12666675448417664, -0.22380682826042175, 0.4446288049221039, 0.06384744495153427, -1.9845234155654907, 0.08319289237260818], [0.5157217383384705, 0.3738164007663727, -0.19076387584209442, -0.5077430009841919, 0.8048080205917358, 0.18184341490268707, 0.9257962703704834, -0.5521312952041626], [-0.09773235768079758, 0.23856161534786224, 0.12870796024799347, -0.6126419901847839, -1.5888296365737915, 0.04576444625854492, 1.3542723655700684, -0.40105512738227844], [-0.2093326896429062, -0.5858438611030579, -0.12617485225200653, 0.7009211778640747, 0.22352632880210876, -0.30943986773490906, 1.422867774963379, -0.39393576979637146], [-0.36421847343444824, 0.38545215129852295, 0.2630813717842102, -1.9213505983352661, -0.2227391004562378, -0.36445894837379456, -1.2744169235229492, 0.12468284368515015], [-0.09055447578430176, 0.6022012829780579, 0.03983526676893234, 0.05849539488554001, -1.5040158033370972, -0.35732102394104004, 1.393149733543396, -0.059335410594940186], [0.22403718531131744, 0.05167009308934212, -0.006603176239877939, 0.11557237803936005, -0.1497207134962082, -0.006359580438584089, -3.2519145011901855, -0.06962046772241592], [-0.38018879294395447, 0.718913197517395, 0.23570267856121063, -0.07521185278892517, 0.25541412830352783, -0.2672695517539978, -1.437121033668518, 0.016930842772126198], [-0.7019904851913452, -0.2252022624015808, -0.00838912557810545, -2.198190450668335, 0.7455044984817505, -0.08310620486736298, 0.4169083833694458, 0.1268898993730545], [0.083039291203022, 0.1267687976360321, -0.3308703601360321, -0.21860374510288239, -1.2837743759155273, 0.07849884033203125, -0.27260175347328186, -0.7767367362976074], [-1.5927989482879639, 0.28979551792144775, 0.008985944092273712, -1.5067224502563477, 0.10010369122028351, 0.2604663670063019, -2.416869878768921, -0.57905513048172], [-0.24234360456466675, -0.3217248022556305, 0.3233979046344757, -1.3172879219055176, -0.33542898297309875, 0.11148583889007568, -3.607426643371582, -0.43856245279312134], [-0.5359861254692078, 0.5236247777938843, -0.07118493318557739, 0.32480159401893616, -0.8703076243400574, -0.02820710837841034, 1.0136048793792725, -0.2160760462284088], [0.2193700522184372, -0.5487355589866638, 0.31251952052116394, 0.2156953513622284, -0.8860616683959961, -0.04774537682533264, -2.3128929138183594, -0.1600250005722046], [0.03869073465466499, -0.030996715649962425, 0.00962531566619873, -0.03289263695478439, -0.07063029706478119, -0.007872182875871658, -6.557918071746826, -0.04285174235701561], [0.061655107885599136, -0.695776641368866, -0.09845051169395447, 0.11510075628757477, -0.23773369193077087, 0.4660826623439789, 0.13233304023742676, -0.722350537776947], [-1.1772509813308716, 0.5503736138343811, -0.38389015197753906, -0.37209945917129517, -0.24656493961811066, -0.1281578093767166, -2.9262609481811523, 0.3835913836956024], [-0.08104465156793594, 0.49673688411712646, -0.030499231070280075, -0.4886738061904907, 0.5429977178573608, 0.1308666616678238, -1.1482048034667969, -0.6941819787025452], [0.08696747571229935, 0.41559550166130066, -0.23536211252212524, -0.2804405987262726, 0.2901328206062317, -0.05494198203086853, 0.7913401126861572, 0.6176621913909912], [-0.530144453048706, -0.17350029945373535, -0.2061428427696228, 0.5561032891273499, 0.3197833299636841, 0.31790199875831604, -1.2444515228271484, -0.4857833981513977], [-0.701789379119873, -0.05746037885546684, 0.13200989365577698, -0.58122718334198, 0.2748432755470276, 0.1044403687119484, -0.9603360891342163, 0.19714677333831787], [-0.3556595742702484, -0.8766111135482788, 0.0661873072385788, 0.22275018692016602, 0.27704891562461853, -0.025259200483560562, -1.2479784488677979, -0.1882837563753128], [-0.21960888803005219, -0.25411859154701233, -0.07910317182540894, 0.19834181666374207, -0.36983534693717957, 0.05221027508378029, -1.5059280395507812, -0.066680409014225], [0.20566046237945557, 0.01829543523490429, -0.15603870153427124, 0.39734113216400146, -0.39003729820251465, -0.07653236389160156, 1.3931609392166138, -0.06343549489974976], [-0.11784239858388901, -0.09097707271575928, 0.010009592399001122, 0.06189166009426117, 0.06801191717386246, 0.007251151371747255, -0.4240856468677521, 0.8256726264953613], [0.42735302448272705, -0.5455326437950134, -0.2091396450996399, 0.2730347514152527, -0.3031480014324188, 0.286048948764801, -0.9002034068107605, -0.10680500417947769], [0.18196971714496613, -0.6452960968017578, -0.33382678031921387, 0.22282494604587555, -0.5370209217071533, 0.006174321286380291, 1.2576152086257935, 0.4536171555519104], [0.23560620844364166, 0.0861874520778656, 0.10146389156579971, -0.19771014153957367, 0.10678896307945251, -0.11673971265554428, -0.8632451891899109, -0.08312887698411942], [-0.7803266644477844, 0.42516639828681946, -0.21811619400978088, -0.2342594414949417, 0.28355368971824646, -0.4276743233203888, -0.5469340682029724, -0.10013365000486374], [-0.07480037212371826, 0.031132541596889496, -0.42623457312583923, -0.19048428535461426, 0.00997441541403532, 0.02162398025393486, -1.5997145175933838, 0.44753244519233704], [-0.3129653036594391, 0.28051334619522095, 0.05130377039313316, -0.03600878268480301, 0.6719045042991638, -0.22487568855285645, 1.1370158195495605, -0.3895470201969147], [-0.3037845194339752, -0.03626374527812004, 0.09377755969762802, 0.5856502056121826, -0.2695622146129608, 0.24941444396972656, 1.3838342428207397, -0.3209178149700165], [0.5973489880561829, -0.3579656183719635, 0.03342178836464882, -0.8914481401443481, -1.2432855367660522, -0.2824140787124634, -2.114265203475952, 0.021879935637116432], [0.1328062117099762, 0.09147610515356064, -0.22356437146663666, 0.10657522827386856, -0.007707246113568544, -0.012828659266233444, 0.6921520233154297, -0.7615833282470703], [0.36193862557411194, -0.49483340978622437, 0.017559684813022614, -3.346259355545044, 0.396722674369812, -0.18532416224479675, 0.3660884499549866, -0.23601727187633514], [0.3230745494365692, 0.05678514018654823, -0.0013668538304045796, 0.37428849935531616, -0.863650381565094, -0.20536327362060547, 0.8708575963973999, 0.4762255847454071], [0.06607414036989212, -1.3540599346160889, 0.16865579783916473, -0.4503506124019623, -0.03302541747689247, 0.34618765115737915, -1.8473910093307495, 0.10311228781938553], [0.20568540692329407, 0.08925335109233856, -0.0069104512222111225, -0.08260960131883621, 0.1014300212264061, -0.0008659084560349584, -1.6737810373306274, -1.5605145692825317], [-0.3377718925476074, -0.059694331139326096, 0.25265902280807495, 0.022103633731603622, -0.6900438070297241, -0.31379586458206177, -1.6923110485076904, -0.12442707270383835], [-0.21583987772464752, 0.26449185609817505, 0.24161364138126373, -0.015891121700406075, -0.19464991986751556, -0.0007898728363215923, -2.9879510402679443, -0.6862900853157043], [0.26392945647239685, -0.46780675649642944, -0.1128210723400116, -0.7486171126365662, -0.28297877311706543, 0.10952602326869965, 0.19577156007289886, 0.7936391830444336], [0.22685982286930084, 0.10065090656280518, -0.23708756268024445, -0.16652554273605347, -0.3756943345069885, -0.13151367008686066, -2.5998055934906006, -0.1760992407798767], [-0.24936391413211823, -0.4597548842430115, 0.032482657581567764, -0.1851133406162262, 0.35044339299201965, 0.46149080991744995, -0.36481767892837524, 0.14008066058158875], [0.028616134077310562, 0.21163176000118256, 0.046671051532030106, 0.7762374877929688, 0.20734360814094543, -0.07670382410287857, 1.8983625173568726, 0.45393940806388855], [0.0759715661406517, 0.16886748373508453, -0.007208993658423424, -0.421850323677063, -0.9883800745010376, 0.01646503247320652, -2.511972665786743, 0.1288657933473587], [0.07077674567699432, -0.33827629685401917, 0.011696879751980305, 0.001330579281784594, 0.49662548303604126, 0.24932299554347992, -2.804145097732544, 0.3502329885959625], [0.28729453682899475, -0.09471271187067032, 0.19969485700130463, -0.33155253529548645, -0.6597962379455566, 0.30276191234588623, -1.6448583602905273, 0.22906959056854248], [-0.027525166049599648, -0.1875438541173935, 0.018469782546162605, -0.09296172112226486, -0.9957806468009949, 0.30855417251586914, -0.3829917013645172, 0.33472394943237305], [0.21587207913398743, -0.08282016217708588, -0.04063325747847557, 0.940021276473999, -0.39938610792160034, 0.07061699777841568, -3.663571357727051, 0.1249079555273056], [-0.9134177565574646, -0.8581615686416626, -0.08306150883436203, 0.18512806296348572, -0.08654680848121643, 0.2528136074542999, -0.19603078067302704, -0.0050479574128985405], [-0.5888628959655762, -1.207813024520874, 0.3554455637931824, -0.8889657855033875, -0.27259790897369385, 0.3068019449710846, -1.6542026996612549, 0.02067212574183941], [0.09039755910634995, -0.023188944905996323, 0.022054478526115417, -4.249133586883545, 0.2567591071128845, 0.06944699585437775, 0.14879338443279266, -0.0703936368227005], [0.5329857468605042, 0.20426706969738007, 0.056577522307634354, 0.22530634701251984, -0.7182256579399109, -0.028532203286886215, 0.8391229510307312, 0.2557811737060547], [-0.04128529876470566, 0.18271347880363464, 0.17565669119358063, -1.2865040302276611, -0.1681622564792633, -0.2621564269065857, -3.359196901321411, -0.4556662142276764], [-0.4954257309436798, -1.0216412544250488, -0.043372832238674164, -0.703752875328064, 0.5032570362091064, -0.5039960741996765, -1.1184738874435425, -0.08049707114696503], [-0.8022520542144775, 0.4183224141597748, -0.12397020310163498, -0.6341249346733093, 0.07462125271558762, 0.04430241882801056, -1.912776231765747, -0.5050303339958191], [-0.25260797142982483, 0.13317237794399261, -0.028460891917347908, -0.02595989592373371, -0.6478434801101685, -0.3080023527145386, -0.6502648591995239, 0.6737458109855652], [0.3542821407318115, -0.4376845061779022, 0.19666112959384918, -1.2753653526306152, -0.14666201174259186, -0.17754334211349487, -3.503892421722412, -0.12523603439331055], [0.16196982562541962, -0.5665028095245361, 0.0979585200548172, 0.3541211187839508, 0.3505626916885376, 0.01690605655312538, 1.4779983758926392, -0.32164233922958374], [-0.4618605673313141, -0.09495113044977188, -0.32513564825057983, -1.4331306219100952, -0.06802145391702652, 0.029195206239819527, -1.7660938501358032, -0.040903154760599136], [0.13787145912647247, 0.03020591288805008, 0.25953659415245056, 0.28688910603523254, -0.4734039902687073, 0.08422616124153137, 0.3940178155899048, -0.5210456252098083], [-0.16890168190002441, -0.08676224946975708, -0.033896464854478836, 0.08784463256597519, 0.028317954391241074, 0.19546712934970856, -1.2642238140106201, -0.032950304448604584], [-0.3568449318408966, -0.16477873921394348, -0.12873651087284088, -0.07752138376235962, -0.8890483379364014, 0.1581995189189911, -1.1643258333206177, 0.16974900662899017], [0.6433390974998474, -0.12555554509162903, 0.37406933307647705, -1.5009844303131104, -1.1349772214889526, 0.24339354038238525, -2.3861517906188965, -0.10831666737794876], [-0.08459082990884781, 0.13763965666294098, 0.0067856707610189915, 0.20898349583148956, 0.47131475806236267, 0.07139407098293304, -1.540672779083252, 0.6863328814506531], [-0.029651042073965073, -0.0024712304584681988, 0.026603560894727707, -0.0407877154648304, -0.039160892367362976, 0.01852256990969181, 3.0958826541900635, -0.3685661554336548], [0.19004520773887634, -0.08121300488710403, -0.06413798034191132, 0.11191703379154205, 0.039493024349212646, -0.07232644408941269, -4.545195579528809, -0.8089125752449036]], "fc1.bias": [-0.15713061392307281, -0.20822927355766296, -0.2372768372297287, -0.21048535406589508, -0.7121689319610596, 0.507595419883728, -0.3696231544017792, 0.15724427998065948, 0.3011815845966339, 0.5244247317314148, -0.05731368809938431, -0.1774687021970749, -0.7922961711883545, -0.8812444806098938, -0.5213709473609924, 0.03434162586927414, -0.1017000675201416, -0.21214579045772552, -0.4548133909702301, 0.5330728888511658, 0.2278575748205185, 0.5301111340522766, -0.1932213008403778, 0.40852299332618713, 0.18600256741046906, 0.31762856245040894, -0.27170658111572266, 0.22959153354167938, -0.3392004370689392, 0.35483765602111816, -0.41611534357070923, 0.18769033253192902, 0.038887858390808105, 0.8620070219039917, 0.16630981862545013, 0.12029474973678589, 0.36623629927635193, -0.07611170411109924, 0.6742774844169617, -0.48864415287971497, 0.28741398453712463, -0.19998304545879364, -0.16118286550045013, -0.2914125323295593, -0.09958340972661972, -0.32499775290489197, 0.40459752082824707, -0.034870002418756485, -0.09343323111534119, -0.25528445839881897, -0.2744385898113251, 0.27700504660606384, -0.10416516661643982, 0.07564599066972733, -0.15566369891166687, -0.15132679045200348, 0.05074111744761467, -0.16046664118766785, -0.16910332441329956, -0.292105495929718, 0.24249713122844696, 0.3325759172439575, -0.6525425910949707, 0.40432244539260864, -0.7570949792861938, -0.07693954557180405, 0.007847853936254978, 0.7640717625617981, -0.44394630193710327, 0.5125429034233093, -0.2642922103404999, -0.29339686036109924, -0.0549444854259491, 0.2817386984825134, -0.4409443140029907, 0.34725257754325867, -0.5264856219291687, -0.30974525213241577, -0.4789958894252777, -0.48780208826065063, -0.3073362708091736, 0.2464340478181839, 0.21292723715305328, 0.6924839615821838, 0.18487048149108887, -0.4258204996585846, -0.12001902610063553, -0.6671574115753174, -0.025894630700349808, -0.4024425745010376, 0.15499240159988403, -0.2187841683626175, 0.037566348910331726, 0.287045419216156, -0.1341274082660675, -0.11094650626182556, -0.19999586045742035, -0.10628445446491241, -0.931480348110199, 0.3559298813343048, -0.8196368217468262, -0.22431984543800354, -0.07819909602403641, -0.6217402815818787, -0.6711663603782654, 0.5287806987762451, -0.2778545916080475, -0.5752532482147217, -0.24918434023857117, -0.2503913640975952, 0.5512044429779053, 0.4320012331008911, 0.3908485174179077, -0.41147148609161377, 0.4028142988681793, 0.0759466215968132, 0.32391998171806335, 0.0671609565615654, 0.30799955129623413, -0.32949432730674744, 0.25576573610305786, -0.55467689037323, 0.5570178031921387, 0.46344447135925293, -0.34007295966148376, 0.614623486995697, -0.09614486247301102, -0.48914363980293274], "fc2.weight": [[-0.038357604295015335, 0.0473453626036644, -0.04159565269947052, -0.006781877018511295, -0.07620514929294586, -0.04630790650844574, -0.09862015396356583, -0.023223640397191048, -0.12394258379936218, -0.06758961081504822, -0.011517935432493687, -0.06850495934486389, -0.014585842378437519, -0.08096176385879517, -0.025022298097610474, 0.04456711560487747, -0.039816245436668396, -0.054712265729904175, -0.0567157082259655, -0.01564028300344944, -0.029575981199741364, 0.03236239776015282, -0.06394383311271667, -0.10648541152477264, 0.0035364751238375902, -0.004104049876332283, -0.020167499780654907, -0.01395326480269432, -0.05929900333285332, -0.08112692087888718, -0.006847906857728958, -0.02194897271692753, 0.04248784855008125, 0.030932186171412468, -0.002852966543287039, 0.03477873653173447, -0.10725484788417816, -0.08028145134449005, -0.07369934767484665, -0.11398028582334518, 0.04830838367342949, 0.03078521229326725, -0.129297137260437, 0.004547682125121355, 0.027622051537036896, -0.015803301706910133, 0.004118585493415594, -0.02824198640882969, -0.03192279860377312, -0.037599049508571625, -0.012496115639805794, -0.05379209294915199, 0.0031940529588609934, 0.06406921148300171, -0.08585464209318161, -0.017565462738275528, 0.020519256591796875, 0.01113340724259615, 0.007280948106199503, -0.021252868697047234, -0.10975081473588943, -0.13656237721443176, 0.0053541637025773525, -0.01794022135436535, -0.04819300398230553, 0.02281465008854866, -0.07190066576004028, -0.0010701173450797796, -0.05155019834637642, -0.05725348740816116, -0.05893690511584282, -0.04679295793175697, -0.00936216115951538, -0.10001610964536667, -0.07420375198125839, -0.009832313284277916, 0.04632442444562912, -0.07149038463830948, 0.020448634400963783, -0.02034718729555607, -0.10025656968355179, -0.12674985826015472, -0.012689968571066856, -0.02530718967318535, -0.014394333586096764, -0.019342124462127686, 0.015286270529031754, 0.08691351860761642, -0.10730599611997604, 0.02598574385046959, -0.014840580523014069, -0.02764098532497883, -0.05238961800932884, -0.05162085220217705, -0.03543915972113609, -0.07321556657552719, 0.03639667108654976, 0.04035314917564392, -0.09479114413261414, -0.023114774376153946, -0.0383138544857502, 0.04634702578186989, 0.0039250198751688, -0.047525569796562195, -0.05324387177824974, -0.07115696370601654, -0.0025110917631536722, 0.0048616668209433556, 0.06354689598083496, -0.07948131859302521, -0.09663847088813782, -0.08192114531993866, -0.09403733909130096, -0.1265517622232437, 0.037236034870147705, -0.033994849771261215, -0.06502479314804077, -0.02165061980485916, -0.016723863780498505, -0.05781108886003494, 0.04392104968428612, 0.07925578951835632, 0.03216403350234032, 0.008870266377925873, -0.015695780515670776, 0.02317935787141323, -0.07863055169582367, -0.024615658447146416], [-1.8126246929168701, -0.7147146463394165, 0.4504265785217285, 0.27017584443092346, -0.29594385623931885, -0.07155498117208481, 0.11506768316030502, -0.19442251324653625, -0.18212410807609558, -0.30099207162857056, -0.09058742970228195, -0.2072037011384964, -0.04289483651518822, -0.5149204134941101, -0.39533016085624695, 0.22362372279167175, 0.3596416711807251, -0.13066090643405914, 0.4522795081138611, -0.11112765222787857, 0.1979777067899704, -0.1722078174352646, -0.32421091198921204, -0.07994253188371658, 0.019816257059574127, -0.28199440240859985, 0.013744371011853218, 0.08896701782941818, 0.8020550608634949, 0.14351221919059753, 0.5008891820907593, 0.4718438684940338, -0.10547326505184174, 0.5544017553329468, 0.3038952350616455, 0.15380859375, 0.3546362519264221, 0.16713052988052368, 0.3447011113166809, -0.15108837187290192, 0.3424336314201355, -0.33502325415611267, 0.5809468626976013, -0.3522586524486542, 0.1703653633594513, 0.10664040595293045, 0.008440451696515083, -0.12085702270269394, 0.04552071914076805, 0.009789622388780117, -1.0875437259674072, -0.039289843291044235, 0.1403333693742752, -0.18486154079437256, -1.6633367538452148, -0.05274827778339386, -0.006856970954686403, -0.1485130488872528, -0.26882314682006836, -0.6110502481460571, -0.04664645716547966, 0.35086944699287415, -0.04412496089935303, -0.045596834272146225, -0.08674866706132889, -1.6132546663284302, -0.05079285800457001, 0.2886267304420471, -1.0224488973617554, -0.11806413531303406, -1.0864145755767822, 0.7277072072029114, -0.7911829948425293, -0.573401927947998, -0.6869912147521973, -0.42822951078414917, -0.37131646275520325, 0.18326473236083984, -0.562545657157898, -0.2394292652606964, -0.198238343000412, 0.3969854414463043, 0.014985363930463791, 0.1720956414937973, -0.15186746418476105, 0.07540788501501083, 0.04458335041999817, -0.6070427298545837, -0.1542874276638031, -1.179624319076538, -0.035909492522478104, 0.55021071434021, 0.2649601697921753, -1.4265732765197754, -0.06737729161977768, 0.14420855045318604, -0.4013287127017975, 0.5938439965248108, -2.478719472885132, 0.3223446011543274, -1.2514947652816772, -0.1826387643814087, -1.0211492776870728, -0.40767380595207214, -0.44910573959350586, 0.31499263644218445, 0.28994858264923096, 0.20317243039608002, -0.18983961641788483, -0.27425798773765564, 0.48730388283729553, -0.6661657094955444, 0.4202467203140259, -0.1391124725341797, 0.6823720335960388, 0.16413068771362305, -1.2191121578216553, -0.06311643123626709, 0.45586520433425903, 0.2176756113767624, -0.3552132248878479, -0.7852616906166077, 0.29244276881217957, -0.2698630094528198, -0.13978752493858337, 0.14996100962162018, 0.19253037869930267, -0.4526463747024536], [-0.04880237951874733, 0.024528123438358307, 0.04026190936565399, 0.07489253580570221, 0.014536391012370586, -0.09116754680871964, 0.003408657154068351, -0.07141987234354019, -0.02896694466471672, 0.04735514521598816, 0.03531264513731003, 0.03800254315137863, -0.03132571652531624, -0.08694402128458023, 0.020755089819431305, -0.029116513207554817, 0.019081519916653633, -0.08311078697443008, 0.06588282436132431, -0.014064822345972061, -0.0877688005566597, -0.030565030872821808, 0.027231190353631973, -0.018141821026802063, 0.016207188367843628, 0.046235937625169754, -0.041596703231334686, 0.025345759466290474, -0.04571712389588356, 0.013952457346022129, -0.03687260299921036, -0.005402245558798313, 0.05739375948905945, 0.023580294102430344, -0.05876023694872856, 0.028363686054944992, -0.07337965816259384, -0.019410891458392143, -0.07664499431848526, -0.05080495402216911, -0.04246500879526138, -0.032716333866119385, -0.034346554428339005, -0.019874626770615578, -0.036339495331048965, -0.027824247255921364, -0.09266851842403412, 0.040392663329839706, -0.09056711196899414, -0.039706576615571976, -0.03170659765601158, -0.06263110786676407, -0.0804232582449913, -0.06976473331451416, -0.015453851781785488, 0.015622337348759174, -0.006339940242469311, -0.10752441734075546, -0.003855324350297451, 0.07755298912525177, -0.033533137291669846, -0.03491324931383133, -0.0789107084274292, -0.06609079241752625, 0.043600715696811676, -0.01605493761599064, 0.02117430604994297, 0.04807066544890404, 0.0009044830221682787, 0.03309435397386551, 0.005024082027375698, -0.06169756129384041, -0.02812858670949936, -0.09939121454954147, -0.015311649069190025, -0.038261689245700836, 0.025521064177155495, 0.033783309161663055, 0.033910997211933136, -0.02910144068300724, 0.03540193289518356, 0.055198583751916885, -0.10150060057640076, 0.018949726596474648, -0.005509137641638517, -0.059214357286691666, -0.024433627724647522, -0.09344485402107239, -0.09694263339042664, 0.04661783203482628, 0.04233521595597267, -0.096286341547966, 0.05368204414844513, 0.062077976763248444, -0.08979485929012299, -0.02939230389893055, 0.0337834358215332, 0.020233310759067535, -0.05358506366610527, 0.06040404364466667, -0.014826742932200432, 0.060081735253334045, -0.09461551904678345, -0.08334140479564667, -0.08442439138889313, 0.02350945770740509, -0.024908149614930153, 0.05037539824843407, 0.004337800666689873, 0.05413875728845596, -0.038968443870544434, -0.008784453384578228, -0.04379291459918022, -0.06330189108848572, 0.023182855919003487, 0.05856003239750862, 0.0015842349966987967, -0.05195891857147217, -0.018345996737480164, -0.052104830741882324, -0.08354107290506363, -0.037653978914022446, 0.0162602998316288, -0.022362342104315758, -0.03861990571022034, -0.043001074343919754, -0.11252789944410324, -0.043487548828125], [-0.1205124631524086, -0.1007859855890274, -0.11144803464412689, 0.02202307991683483, -0.05553534999489784, -0.05707891285419464, 0.06056666001677513, 0.021114302799105644, -0.11023934185504913, 0.044833313673734665, -0.11048851907253265, -0.07359843701124191, 0.016386069357395172, -0.04880784451961517, -0.03849327191710472, 0.013452325016260147, -0.08993860334157944, 0.06060846522450447, -0.09538773447275162, -0.04758492857217789, 0.04006887227296829, 0.0006402877625077963, -0.06843770295381546, -0.1146739274263382, -0.007873757742345333, -0.06351973861455917, -0.13199128210544586, -0.06933239847421646, 0.056097425520420074, -0.15017765760421753, -0.0851065069437027, -0.01334445085376501, 0.030382918193936348, -0.058029040694236755, -0.0972532108426094, 0.009193292818963528, -0.059193264693021774, -0.11819887906312943, -0.018825771287083626, 0.04724791646003723, 0.04713277518749237, -0.08039450645446777, -0.020517250522971153, -0.0049610803835093975, -0.14150795340538025, -0.07160311937332153, -0.10825765132904053, -0.1008252426981926, -0.041847649961709976, -0.07877141237258911, -0.1556057333946228, -0.006880154367536306, -0.07734046131372452, -0.09811635315418243, -0.06391039490699768, -0.07300294935703278, -0.08127088844776154, -0.08515024930238724, 0.04726741462945938, -0.020755378529429436, -0.08481013774871826, 0.05153641104698181, -0.007074914872646332, 0.06682363152503967, 0.054844945669174194, -0.025205563753843307, 0.030012937262654305, -0.13234113156795502, -0.12848107516765594, -0.11728613078594208, -0.041156064718961716, 0.015350093133747578, -0.07498068362474442, -0.11540164053440094, 0.03554541617631912, -0.015772072598338127, -0.05751684680581093, -0.027840707451105118, 0.06194848194718361, -0.07027213275432587, -0.0226956307888031, -0.07959309965372086, -0.049443136900663376, -0.09260457754135132, 0.03747420385479927, 0.004851947072893381, -0.08150267601013184, 0.03605592995882034, -0.13341456651687622, -0.04693273454904556, -0.0696730986237526, -0.008914966136217117, -0.022900445386767387, 0.009022314101457596, 0.03138262405991554, 0.07799447327852249, -0.007322435267269611, -0.08081396669149399, 0.011666152626276016, -0.06590402126312256, 0.03659117966890335, 0.05486046150326729, -0.052627768367528915, -0.007478781975805759, -0.0006603744113817811, -0.06907125562429428, 0.007833032868802547, 0.002036303747445345, -0.011592604219913483, -0.11128678172826767, 0.007116823922842741, -0.026813020929694176, 0.06574571132659912, -0.03853717818856239, -0.0515875443816185, -0.13052721321582794, -0.009184961207211018, 0.032578907907009125, -0.07550350576639175, 0.030714310705661774, -0.11369311809539795, -0.05501589551568031, -0.09119021892547607, -0.10579083114862442, 0.030884891748428345, -0.09042657911777496, -0.05579216033220291, -0.0029575733933597803], [-0.40800783038139343, -0.6508216857910156, 0.24854877591133118, 0.5961086750030518, -0.30787694454193115, 0.2895674407482147, -1.333703875541687, 0.19017091393470764, -1.4129642248153687, -0.2122485637664795, 0.0308217890560627, -0.4339098334312439, -1.1386910676956177, 0.18857918679714203, 0.11024601012468338, -0.406991571187973, 0.16557161509990692, -0.38611599802970886, -2.38423490524292, 0.26301059126853943, -0.45076820254325867, 0.60587477684021, -0.0973023921251297, 0.049906522035598755, -0.6484955549240112, 0.5000370144844055, -0.42787250876426697, -0.48716822266578674, -0.6372028589248657, 0.07396844774484634, 0.2208254635334015, 0.1296391636133194, 0.5040355324745178, 0.5522303581237793, -0.014902711845934391, 0.2035430371761322, -0.07445114105939865, -0.32081738114356995, -0.29704728722572327, -0.050343357026576996, 0.39843204617500305, 0.2666160762310028, 0.13447806239128113, 0.2618121802806854, -0.47925248742103577, -0.3876436650753021, -0.3443587124347687, -2.8936548233032227, -0.4146406948566437, -1.641003966331482, 0.7167028188705444, 0.49044257402420044, 0.17839102447032928, -0.6422861814498901, 0.18182243406772614, 0.27669304609298706, -0.4367198348045349, 0.14316537976264954, -0.8116658329963684, -1.092973232269287, -0.2477518618106842, -0.23807404935359955, 0.03144388645887375, -0.028029872104525566, 0.21046067774295807, -0.44043150544166565, 0.030451638624072075, 0.3726338744163513, 0.11725125461816788, 0.3280523419380188, -0.9563847780227661, -1.4643795490264893, -0.6145331263542175, -0.19023007154464722, 0.10628076642751694, -0.3633763790130615, 0.11637694388628006, -0.2808208465576172, -0.0650915652513504, 0.47730958461761475, 0.11513985693454742, 0.10811097919940948, -0.18778258562088013, 0.3221602737903595, -0.3189564347267151, 0.8011858463287354, -0.4192999005317688, 0.0485052652657032, -0.0917939618229866, -0.2574508488178253, -0.5307639837265015, 0.16499532759189606, 0.038182999938726425, 0.729669988155365, -0.33022886514663696, 0.6434834599494934, -1.1601234674453735, 0.4977974593639374, -0.9038758873939514, 0.08699850738048553, -1.097464680671692, -0.9147655963897705, -0.5516825914382935, -0.176851287484169, 0.24837324023246765, -0.1748248189687729, 0.0585256926715374, 0.03547556325793266, 0.498534619808197, -1.3103352785110474, 0.40032485127449036, 0.35661613941192627, -0.5509925484657288, -0.845693051815033, -0.11682785302400589, 0.32491394877433777, -0.544244647026062, -1.498238444328308, 0.16014364361763, 0.16471876204013824, -0.7137851715087891, -0.655207633972168, 0.10560110956430435, 0.30030137300491333, -0.27441534399986267, 0.04733981564640999, 0.09730135649442673, -1.2324343919754028], [-0.07267273217439651, -0.11759516596794128, -0.04162420332431793, 0.05162326246500015, 0.006482077296823263, -0.1352004110813141, -0.15140105783939362, 0.048441387712955475, -0.184037446975708, -0.10245402902364731, -0.032858915627002716, -0.1443459540605545, -0.11429563164710999, 0.07605166733264923, -0.17626738548278809, 0.1072368174791336, 0.007102250587195158, -0.10615593940019608, -0.12101706862449646, -0.08759105950593948, -0.1749241054058075, -0.008122187107801437, -0.15696200728416443, -0.058658093214035034, -0.06455584615468979, -0.2212686687707901, -0.08171802759170532, 0.05413540452718735, -0.021544886752963066, 0.04986691102385521, 0.04394381120800972, -0.1549513339996338, -0.14028967916965485, -0.026371126994490623, -0.0816231444478035, -0.060102805495262146, 0.004023937974125147, -0.1661599725484848, -0.005814139731228352, -0.10980550944805145, -0.01115531474351883, 0.07459098845720291, 0.041247572749853134, -0.02174769714474678, -0.05590429529547691, -0.16466200351715088, -0.05560746043920517, -0.07351616024971008, -0.08416847139596939, -0.1346924602985382, -0.08229672163724899, -0.12163672596216202, -0.009763773530721664, -0.04325393959879875, -0.10979294776916504, 0.05556359514594078, 0.05220929533243179, 0.029143797233700752, -0.0044531868770718575, 0.09836876392364502, -0.12794271111488342, 0.03024950996041298, -0.00535597326233983, 0.07540030777454376, -0.09618252515792847, 0.040455564856529236, -0.010061927139759064, -0.028412876650691032, -0.026760287582874298, -0.07951605319976807, -0.07896185666322708, -0.09470231831073761, 0.010550148785114288, -0.009871156886219978, -0.015312870033085346, -0.08285479247570038, -0.004932465963065624, 0.009367596358060837, -0.12236902862787247, -0.05065154656767845, 0.03598431870341301, -0.11683151870965958, 0.05468107387423515, -0.0718684047460556, -0.13388237357139587, -0.1107085794210434, -0.04608975350856781, 0.012278642505407333, -0.08793462812900543, 0.08549635112285614, -0.091345876455307, -0.04443384334445, 0.00917264074087143, -0.14665943384170532, -0.024484815075993538, 0.06689325720071793, -0.05211155116558075, 0.16393756866455078, -0.038930147886276245, 0.04632256552577019, 0.15948201715946198, -0.06629066914319992, -0.04359564930200577, -0.003672882216051221, -0.2068600207567215, -0.01896180585026741, -0.1023748368024826, 0.019301192834973335, -0.0052231005392968655, -0.015542864799499512, 0.16372093558311462, -0.019084801897406578, 0.04397629573941231, -0.14362506568431854, 0.03826574608683586, -0.05145217850804329, -0.0942612811923027, -0.03760598227381706, -0.026539912447333336, -0.0021664989180862904, -0.010205913335084915, -0.005526132881641388, -0.021953925490379333, -0.0500233918428421, 0.08666139841079712, -0.09599925577640533, -0.03976591303944588, -0.06404446065425873], [-0.07397373765707016, 0.08644305914640427, -0.1056816577911377, 0.035145845264196396, -0.04330187290906906, -0.09295082837343216, -0.006176188122481108, -0.07808808982372284, 0.02555827982723713, 0.04132528603076935, -0.0019235637737438083, 0.024747246876358986, -0.031064609065651894, 0.005412498023360968, -0.08297182619571686, 0.0023085365537554026, -0.024481361731886864, -0.0014494500355795026, -0.03434204310178757, 0.01989811286330223, -0.03813546895980835, -0.04086402431130409, 0.0839485451579094, 0.04888376221060753, -0.00529945082962513, -0.012697132304310799, 0.0258557740598917, -0.01808837428689003, -0.0504562146961689, 0.014760367572307587, -0.018845288082957268, -0.11176968365907669, 0.061749715358018875, 0.026822790503501892, -0.13036330044269562, -0.01732608862221241, -0.0995173379778862, -0.10072711110115051, 0.0367271713912487, -0.04403906688094139, -0.0671839565038681, -0.04183873161673546, -0.014724025502800941, 0.033190738409757614, -0.059656623750925064, -0.10972610116004944, -0.009942554868757725, 0.018548373132944107, -0.05239345505833626, 0.08008576929569244, -0.06142653524875641, 0.07587074488401413, -0.08576422184705734, -0.0011870188172906637, -0.06516052037477493, 0.03662753477692604, -0.024171603843569756, 0.036475084722042084, -0.04120573773980141, -0.0643632560968399, -0.09199777990579605, -0.06889825314283371, 0.010090267285704613, -0.03459465503692627, -0.0546056292951107, -0.028537120670080185, -0.058346524834632874, 0.07257217168807983, -0.07196911424398422, 0.04470156505703926, -0.10622250288724899, 0.06878892332315445, -0.09881000965833664, -0.01415859255939722, 0.04633146524429321, 0.05970478802919388, 0.058648500591516495, 0.013655598275363445, -0.008460966870188713, -0.04372943565249443, -0.07235012203454971, 0.028416158631443977, -0.004653426818549633, -0.11654568463563919, -0.030666805803775787, 0.05008235573768616, -0.09610814601182938, -0.03639525920152664, -0.087735615670681, -0.08346060663461685, -0.056023404002189636, 0.016741152852773666, 0.0033604942727833986, 0.03176365792751312, -0.07065055519342422, -0.060210153460502625, -0.0941949337720871, -0.10108238458633423, -0.07749828696250916, -0.0668625608086586, -0.10886382311582565, -0.0427025742828846, -0.024923190474510193, -0.04113907366991043, 0.029560670256614685, 0.004610995762050152, -0.08468890935182571, 0.024083510041236877, -0.06883445382118225, 0.015893761068582535, 0.04635506123304367, 0.022996310144662857, -0.02473178133368492, 0.019403770565986633, -0.08111413568258286, -0.07901208102703094, -0.11952263116836548, -0.07469526678323746, -0.004511015955358744, -0.10847534239292145, -0.008416651748120785, 0.02926688827574253, -0.02504616044461727, 0.024875381961464882, -0.059621695429086685, -0.08318240940570831, -0.07415544986724854, 0.023525748401880264], [0.07393340766429901, -0.017033180221915245, 0.059804752469062805, -0.06439822912216187, 0.06463164836168289, -0.09096283465623856, 0.02619895525276661, -0.005466391332447529, -0.009434464387595654, 0.060588300228118896, -0.08027375489473343, 0.0301531869918108, -0.018951576203107834, -0.09540769457817078, -0.06883388012647629, 0.024143043905496597, 0.030854104086756706, -0.05512293800711632, -0.03550015389919281, -0.0920938029885292, 0.016168490052223206, -0.10033150762319565, -0.08969281613826752, 0.06429514288902283, -0.10273530334234238, 0.06975999474525452, -0.06256885826587677, -0.021218901500105858, -0.05317802354693413, 0.03609612211585045, 0.013150244019925594, -0.013464824296534061, -0.044818513095378876, -0.04615098983049393, 0.051023416221141815, 0.0018621834460645914, -0.024311501532793045, -0.06172658130526543, -0.03917114809155464, -0.10461270064115524, -0.07914280891418457, -0.03578159958124161, -0.012812325730919838, -0.018105385825037956, -0.006923821289092302, -0.051564641296863556, -0.01529223844408989, -0.06986495852470398, 0.001947418786585331, 0.02959468401968479, 0.03575396165251732, -0.10198891907930374, 0.025904176756739616, -0.09441477060317993, 0.07159645110368729, 0.011944951489567757, -0.07835173606872559, 0.03507043421268463, -0.12651565670967102, -0.04113829880952835, -0.11694210022687912, 0.02221311442553997, -0.0033016176894307137, -0.06024077534675598, -0.04349873214960098, -0.08615631610155106, 0.05594443902373314, -0.09292051941156387, 0.028392596170306206, -0.04579247534275055, 0.044687364250421524, -0.05653282254934311, 0.031757380813360214, -0.014365541748702526, -0.10471968352794647, -0.02868693694472313, -0.04338672012090683, -0.0377117358148098, 0.06033087521791458, 0.012646515853703022, -0.04473483934998512, -0.09033599495887756, 0.013570236973464489, -0.06801074743270874, -0.025694265961647034, -0.01545143872499466, -0.10977502167224884, 0.01388762891292572, -0.09446318447589874, -0.0032828915864229202, -0.08835312724113464, -0.04873046278953552, -0.07885738462209702, 0.055351123213768005, -0.026308827102184296, -0.03913414105772972, 0.00440817978233099, 0.03346284478902817, 0.02578931674361229, 0.020405715331435204, -0.07907481491565704, -0.0006983998464420438, -0.0763934925198555, -0.027843698859214783, 0.009175830520689487, 0.047563906759023666, -0.09236074239015579, 0.0443771667778492, 0.046534471213817596, -0.017878664657473564, -0.03489724174141884, -0.023820599541068077, -0.026165973395109177, -0.08533816784620285, 0.012329205870628357, -0.05947878211736679, 0.03283229470252991, 0.0509507991373539, -0.003811696544289589, 0.04329076409339905, -0.010743211023509502, 0.045012883841991425, -0.012949392199516296, -0.09345562756061554, -0.04361773282289505, 0.0045756809413433075, -0.08675247430801392, 0.042792439460754395], [-1.8073153495788574, 0.18641972541809082, 0.03090156428515911, -0.04707823693752289, -0.5820571184158325, -1.9010071754455566, -0.4755968749523163, 0.15176665782928467, -0.219328373670578, -1.0863635540008545, -0.6360181570053101, 0.1470763385295868, -1.4119142293930054, -0.2575841546058655, -0.3847370445728302, -1.509985089302063, 0.024559300392866135, 0.4756493866443634, -0.3627585470676422, 0.33590400218963623, -0.3800458610057831, 0.08800956606864929, 0.20304082334041595, -0.030426278710365295, -0.09564504772424698, 0.07613915205001831, 0.6629270911216736, -0.12939728796482086, 0.003470012452453375, -0.13351519405841827, 0.1227143257856369, -0.92626953125, 0.23770585656166077, 0.205320805311203, -0.42129260301589966, -0.4851287305355072, 0.1716490536928177, 0.31833693385124207, 0.325425922870636, -0.005892270710319281, -0.62986820936203, -0.8088819980621338, -0.2706296145915985, -0.057692062109708786, -0.13950476050376892, -0.3575119078159332, 0.46548059582710266, -0.17802618443965912, -0.49000924825668335, -0.293830007314682, -1.1879472732543945, 0.11796668916940689, -0.3819933235645294, -0.5095146298408508, -0.03981463983654976, 0.023059889674186707, -0.5580605268478394, 0.1925627887248993, -0.47964563965797424, -0.5093991160392761, -0.12738190591335297, 0.5452000498771667, -1.1956634521484375, -0.45831236243247986, -0.9471966624259949, 0.24749284982681274, -0.1985832303762436, 0.5131472945213318, 0.2910350561141968, -0.16482137143611908, 0.06689221411943436, -0.036041487008333206, -0.7838121652603149, -0.0010198287200182676, 0.37826764583587646, 0.6141830086708069, -0.20513425767421722, 1.0730937719345093, -0.6833688020706177, -0.5514083504676819, -0.4041653871536255, -0.22430729866027832, 0.22014304995536804, -0.17832961678504944, 0.29097694158554077, -1.037026047706604, -1.369109869003296, 0.03564240783452988, 0.1781070977449417, 0.09198042750358582, -0.37218472361564636, -0.20827624201774597, 0.029011009261012077, 0.13325253129005432, -0.13021309673786163, 0.8358254432678223, -0.1754012107849121, -0.09344229102134705, -0.21199649572372437, 0.13931643962860107, 0.6209213733673096, 0.5143736004829407, -0.05957668274641037, -0.8673271536827087, -0.32736504077911377, -0.4541282057762146, -1.0497767925262451, 0.651584267616272, -0.4655173420906067, -0.1772245317697525, -1.4309779405593872, 1.032898187637329, 0.0033587089274078608, -0.12470080703496933, 0.1926065981388092, -0.1491948962211609, 0.22727492451667786, -0.2933070659637451, 0.2631318271160126, -0.1415095031261444, 0.05834553390741348, -1.0642168521881104, -0.4556208550930023, -0.43643274903297424, 1.441771388053894, 0.08882252126932144, -0.31377920508384705, 0.0018580816686153412], [-0.42421412467956543, -0.0012936689890921116, 0.27495646476745605, 0.2892797589302063, 0.5458939671516418, -0.48822450637817383, 0.033624906092882156, 0.20334963500499725, 0.017483755946159363, -0.8136244416236877, -0.2056867629289627, 0.4175335764884949, 0.6196073889732361, 0.5839638113975525, -0.7997359037399292, 0.1295691281557083, -0.584100604057312, -0.005869732704013586, 0.20326049625873566, 0.020085429772734642, -0.05580678582191467, 0.03511505573987961, 0.5220192670822144, 0.11269162595272064, 0.029264872893691063, -1.088084101676941, 0.054110825061798096, -0.24422885477542877, -0.3834914267063141, -0.3751411437988281, 0.44027870893478394, 0.03595203906297684, -0.10134147852659225, 0.12632492184638977, 0.13892988860607147, -0.43066468834877014, -0.1489589959383011, -0.036512747406959534, -0.3283160924911499, 0.20702679455280304, -0.4087373614311218, 0.7546470761299133, -0.06495988368988037, -0.9170069694519043, -0.6974101662635803, -0.2354459911584854, -0.31887298822402954, 0.1611301451921463, 0.07404583692550659, -0.42456912994384766, -0.011697792448103428, 0.6128088235855103, 0.12979057431221008, -0.526382565498352, -0.10464882105588913, 0.28654903173446655, 0.33240583539009094, -0.3889603614807129, -2.0141255855560303, -0.1218937486410141, -1.0313074588775635, 0.2816395163536072, -0.7050803303718567, -0.4748654365539551, -0.4577579200267792, 0.005522811319679022, 0.3344328999519348, -0.25965291261672974, -0.02571972645819187, -1.0804132223129272, -0.05439222976565361, -0.2783780097961426, -0.18410739302635193, -0.1650559902191162, 0.3526476323604584, -0.3908153176307678, -0.5400114059448242, 0.0892455205321312, 0.41665682196617126, -0.3017938435077667, -0.4487537443637848, 0.32018575072288513, 0.23161008954048157, -0.7359038591384888, -0.21174617111682892, 0.058288224041461945, -0.4700680375099182, -0.1276986449956894, -0.03416367247700691, -0.3593747615814209, -0.37876075506210327, 0.1476057916879654, -0.172684907913208, 0.2374476194381714, -1.0995467901229858, 0.7767365574836731, 0.19984276592731476, 0.29132527112960815, -1.260892629623413, -0.161100372672081, -0.6249336004257202, 0.04193719103932381, -0.09280017763376236, 0.0758817046880722, -1.2977043390274048, 0.02314700186252594, 0.2283240407705307, 0.44166460633277893, 0.23126481473445892, 0.1608620584011078, -0.14310021698474884, 0.768688976764679, 0.07571765780448914, -0.11098409444093704, 0.13036027550697327, -0.122551329433918, -0.6146671772003174, -0.32583123445510864, 0.10830847918987274, 0.01851324923336506, -0.08587746322154999, 0.17255906760692596, -0.2767013907432556, -0.042961686849594116, 0.35261139273643494, -0.3293238878250122, -0.08206675946712494, -0.5102440118789673], [-0.04242568835616112, 0.005958180408924818, 0.05337723717093468, -0.006043728906661272, -0.057615917176008224, -0.02046334184706211, -0.07471931725740433, -0.09487275034189224, -0.05868496745824814, -0.03829142823815346, -0.01617709919810295, 0.051266178488731384, 0.029581423848867416, -0.10953192412853241, -0.0013462582137435675, -0.09251727163791656, 0.055299483239650726, -0.021008359268307686, 0.0052783796563744545, -0.018485959619283676, 0.023724565282464027, -0.010186580941081047, -0.10045301914215088, -0.08558183163404465, -0.040786903351545334, -0.04887886345386505, 0.01217401959002018, -0.04175490885972977, -0.0297161266207695, -0.08006062358617783, 0.1033850833773613, 0.068513423204422, -0.09697810560464859, -0.11579467356204987, -0.027569526806473732, -0.010027277283370495, -0.02196989580988884, -0.08310145884752274, -0.15509523451328278, -0.16901849210262299, -0.07323337346315384, 0.040466152131557465, -0.07703980058431625, -0.09400573372840881, 0.05611062049865723, -0.06359782814979553, -0.08921092003583908, -0.011300855316221714, 0.055225394666194916, -0.13843084871768951, -0.08264090120792389, 0.007535104639828205, -0.14449691772460938, -0.12147033214569092, -0.08604845404624939, 0.013083608821034431, -0.04472384974360466, -0.12173782289028168, -0.07368361949920654, 0.05707482621073723, 0.0222653578966856, -0.02635348215699196, -0.001038951799273491, -0.007825047709047794, 0.04695459455251694, -0.11616077274084091, -0.010271433740854263, -0.003448903327807784, -0.10080094635486603, -0.04238592088222504, -0.08817006647586823, 0.05707879364490509, 0.013967808336019516, -0.029843540862202644, -0.08835866302251816, -0.06981604546308517, 0.0721626803278923, 0.025820696726441383, -0.05637967586517334, -0.11085458844900131, -0.07232525944709778, -0.06844958662986755, -0.0648159310221672, 0.0029980819672346115, -0.00021493413078133017, -0.035144202411174774, -0.0046934401616454124, 0.024534225463867188, -0.0770423486828804, 0.0002999125572387129, -0.05100676044821739, 0.051529865711927414, -0.005309539847075939, 0.01022101379930973, -0.022817501798272133, 0.07534905523061752, 0.00813204888254404, -0.013994339853525162, -0.0865669772028923, -0.020901842042803764, -0.05840367451310158, -0.0022939813788980246, 0.06769171357154846, -0.03290846571326256, -0.14547835290431976, -0.05955259129405022, 0.040932632982730865, -0.018306193873286247, 0.05671360716223717, -0.04780874028801918, -0.023340484127402306, -0.030925145372748375, -0.036995869129896164, -0.12287458032369614, -0.09071339666843414, -0.00655441265553236, -0.12504439055919647, -0.010024231858551502, -0.003064844524487853, 0.013929072767496109, -0.06437184661626816, -0.11985918879508972, -0.1114078238606453, 0.04960457235574722, -0.08257266879081726, -0.05924762785434723, -0.014544797129929066, 0.016839507967233658], [-0.04606590420007706, -0.06383416801691055, 0.08464561402797699, -0.08791589736938477, -0.08359845727682114, -0.038769617676734924, -0.023524785414338112, 0.05730029195547104, -0.1371523141860962, 0.009350718930363655, -0.1672099530696869, -0.1562950164079666, 0.005874209105968475, -0.02521616406738758, 0.01344790868461132, -0.057559460401535034, -0.14206846058368683, 0.025751177221536636, -0.05343020707368851, 0.0148265790194273, -0.05421070754528046, 0.0006367822643369436, 0.011011455208063126, -0.09350760281085968, -0.08193185925483704, 0.060741592198610306, 0.17426715791225433, -0.03619290515780449, -0.13463494181632996, -0.07167090475559235, 0.13634081184864044, -0.13212764263153076, 0.029438821598887444, -0.06982282549142838, -0.07553408294916153, 0.027686577290296555, -0.09113389998674393, -0.010857260785996914, 0.0012241718359291553, -0.09467002749443054, -0.052428361028432846, -0.18207548558712006, -0.01617453806102276, 0.011659865267574787, -0.021675147116184235, -0.18916161358356476, 0.03681674227118492, -0.00016983863315545022, -0.216047003865242, 0.015404054895043373, -0.041198331862688065, -0.09826038777828217, -0.03209339454770088, -0.04281448572874069, -0.057400595396757126, -0.0066649275831878185, -0.07123736292123795, -0.07664687186479568, 0.06586827337741852, 0.04545383155345917, -0.05606100335717201, 0.05924272909760475, -0.007400722708553076, -0.0069730537943542, -0.08276552706956863, -0.05393794924020767, -0.03174204379320145, -0.05910971015691757, -0.03550276905298233, -0.05111585184931755, -0.06716283410787582, 0.05186634510755539, 0.04913504049181938, -0.042154133319854736, -0.0214792899787426, -0.028530316427350044, -0.06436088681221008, 0.031534675508737564, -0.0015554992714896798, -0.015433798544108868, -0.13063648343086243, 0.0009800938423722982, 0.015071968547999859, 0.013862716034054756, -0.05437915772199631, -0.04806853085756302, -0.015514147467911243, -0.03979051113128662, -0.1513838768005371, -0.0048685017973184586, -0.016301488503813744, -0.1029626727104187, -0.04435866326093674, -0.09600251913070679, -0.11614570021629333, -0.1297108232975006, 0.01477135345339775, 0.024253124371170998, -0.045009512454271317, -0.0824592113494873, 0.1530941128730774, 0.07445313036441803, -0.09726949036121368, -0.1398772895336151, 0.044269487261772156, -0.07394696772098541, -0.07826770097017288, 0.03662436455488205, -0.03958959877490997, 0.09615899622440338, -0.12109433114528656, -0.010283397510647774, -0.015244519338011742, -0.09750507026910782, 0.008495623245835304, 0.0006673417519778013, -0.025235021486878395, 0.014410573057830334, -0.02149050310254097, -0.10934070497751236, 0.0476493202149868, 0.007039963733404875, -0.127838134765625, -0.009377765469253063, -0.013529536314308643, -0.21162542700767517, -0.02378418855369091, -0.007051319349557161], [0.48203665018081665, -0.9239847660064697, 0.22129939496517181, -1.8973053693771362, 0.12717323005199432, -1.8239303827285767, -0.016192791983485222, -0.5023002028465271, -0.07413212954998016, 0.11592140048742294, 0.17030037939548492, 0.28166651725769043, 0.14832590520381927, -0.39888888597488403, -0.48217400908470154, 0.01851845718920231, 0.8152141571044922, -0.12860286235809326, -0.02381342090666294, 0.899379551410675, -0.12858131527900696, -0.09899690747261047, -0.26926425099372864, 0.17318803071975708, -0.26832568645477295, 0.1305852234363556, -0.23986151814460754, 0.01228197943419218, 0.81879061460495, -0.14975561201572418, -0.47749876976013184, 0.10376995801925659, 0.10505937784910202, 0.678159773349762, 0.03683999180793762, -0.5992441773414612, -0.49385154247283936, 0.018352359533309937, -0.03089662455022335, 0.020437682047486305, -3.5044620037078857, -1.4829227924346924, -0.44932931661605835, 0.07035631686449051, 0.007001079618930817, -0.2084319144487381, 0.10636036098003387, -0.4022068679332733, -0.1291121393442154, 0.2870796322822571, 0.03413862735033035, 0.11035695672035217, -0.6503860354423523, -0.11775753647089005, 0.06573820859193802, 0.4397662878036499, 0.17369207739830017, 0.4071788787841797, 0.126114159822464, -0.8213353157043457, 0.13754726946353912, -0.12532244622707367, -3.8975718021392822, -0.2460058182477951, 0.49658510088920593, 0.06710425019264221, 0.3834185004234314, 0.1924712359905243, 0.20114241540431976, -0.40776047110557556, -0.6697003841400146, -0.8324957489967346, -0.6914810538291931, 0.10566994547843933, -1.459587574005127, 0.21692147850990295, 0.695228636264801, -0.21819037199020386, -1.2129168510437012, 0.11325737088918686, -0.2959466278553009, -0.08330038189888, -0.7481664419174194, 0.15681815147399902, 0.23684607446193695, 0.13118724524974823, 0.16426557302474976, 0.0035804174840450287, 0.017425330355763435, 0.25347891449928284, 0.13573604822158813, -0.2210167497396469, -0.28829726576805115, -0.05112360790371895, -0.6014037132263184, -0.37420475482940674, 0.23415526747703552, -0.46639546751976013, -0.43973928689956665, 0.18217989802360535, -0.9907541275024414, 0.12066403031349182, 0.283267080783844, 0.6751213669776917, 0.12822215259075165, -0.25712865591049194, -0.08609216660261154, 0.2606683075428009, 0.4719235897064209, 0.13706599175930023, -0.18495987355709076, 1.114205241203308, -0.8333366513252258, 0.076056569814682, 0.48536521196365356, -0.7347392439842224, -1.6205295324325562, -0.15561886131763458, -0.19274811446666718, -0.5895802974700928, -0.2789897322654724, 0.6193690299987793, -0.10531607270240784, 0.09920506924390793, -0.7249873876571655, -0.05258475989103317, -0.5930320024490356, -2.0242252349853516], [-0.17852303385734558, -0.1738806962966919, -0.4082617461681366, -0.24546611309051514, 0.5869050621986389, 0.32160863280296326, 0.7552979588508606, 0.14783623814582825, -0.2501712143421173, 0.21277989447116852, -0.07335905730724335, -0.48226848244667053, 0.2588237524032593, 0.07052435725927353, -0.324567586183548, -0.20169119536876678, 0.16580840945243835, -0.020461317151784897, 0.24573013186454773, 0.4696924686431885, -0.6564115881919861, 0.04318651184439659, -0.17832615971565247, 0.3378088176250458, -0.8995389342308044, 0.48752743005752563, 0.35503315925598145, -0.46510663628578186, -0.5084993839263916, 0.3917127251625061, 0.15926623344421387, -0.2987455129623413, 0.023808464407920837, -0.766781210899353, 0.10018043965101242, -0.17341932654380798, 0.22726383805274963, 0.5231947302818298, 0.2568138837814331, -0.9593014121055603, 0.020576462149620056, -0.6282174587249756, 0.12393561005592346, -0.0671619176864624, -0.6598780155181885, -0.18583521246910095, -0.9244920611381531, 0.17943337559700012, 0.48284730315208435, -0.41324540972709656, -0.06927076727151871, 0.3693998456001282, 0.7899762988090515, 0.0814221128821373, 0.29044732451438904, 0.20660500228405, -0.14816513657569885, -0.7347794771194458, -0.029451237991452217, -0.011657367460429668, -1.1835172176361084, -0.02273796871304512, 0.04424615949392319, 0.058564431965351105, 0.012041542679071426, 0.53827303647995, -0.5590354800224304, 0.26820752024650574, 0.2868598699569702, 0.3164258897304535, -0.07981602102518082, 0.543593168258667, -0.31211015582084656, 0.3488802909851074, -0.366338849067688, -0.4821820557117462, -0.13742250204086304, 0.09394888579845428, 0.13220344483852386, 0.4438958764076233, -0.21327918767929077, -0.052183110266923904, 0.285354882478714, 0.26119834184646606, -0.6905776262283325, -0.6087029576301575, -0.7485679388046265, -0.14581981301307678, 0.04351363331079483, 0.48877835273742676, -0.7927172780036926, 0.12792709469795227, 0.09629857540130615, -0.23871581256389618, 0.1473531275987625, -1.491248369216919, -0.11613983660936356, -0.5599608421325684, -0.08559561520814896, 0.023164210841059685, -0.08429314196109772, -0.6106608510017395, -0.6455389261245728, -0.5561763048171997, -0.025339871644973755, -0.22807586193084717, -0.06223386153578758, -1.2733534574508667, -0.4530542492866516, -0.2889457941055298, -0.6177947521209717, -0.20415084064006805, 0.27836570143699646, 0.1444837749004364, -0.1796739101409912, 0.5090053677558899, 0.4356515407562256, -0.06801164895296097, -0.05348149687051773, 0.06418187916278839, 0.3623143136501312, 0.06590733677148819, 0.19254276156425476, -0.03029555268585682, -0.5535076260566711, 0.040093302726745605, -0.28062957525253296, -0.9012264013290405], [-0.6096784472465515, -1.1543115377426147, -0.022353332489728928, -1.2374565601348877, 0.276094526052475, 0.2639819085597992, -1.9973067045211792, -0.11291291564702988, -0.46720170974731445, -1.3642284870147705, -0.22678308188915253, -0.08596538752317429, -0.44668543338775635, -0.3888304829597473, -0.5067237019538879, -0.24018912017345428, 0.18130691349506378, 0.7850112915039062, -0.4867298901081085, 0.019785461947321892, -1.0640274286270142, -0.09161093086004257, -0.281441330909729, -0.03651552274823189, 0.2607373595237732, -1.5620622634887695, -0.36940798163414, 0.45508232712745667, 0.2288462072610855, 0.42187944054603577, -0.42870163917541504, -0.2104460746049881, 0.10070201754570007, 0.23669345676898956, -0.24105209112167358, -0.22585907578468323, 0.3529532253742218, -0.25014248490333557, -0.5095812082290649, -0.1223553940653801, 0.14705514907836914, -1.828202724456787, 0.1851314902305603, -0.24752584099769592, 0.2273157835006714, -0.03681841492652893, -0.5492039918899536, 0.15822860598564148, 0.14442360401153564, -0.966821014881134, -1.2679494619369507, 0.23374488949775696, 0.24384674429893494, -1.9005277156829834, 1.331041693687439, -0.16289515793323517, 0.3606475293636322, -1.690775990486145, -0.0004982631071470678, 0.33431512117385864, -0.6840143799781799, 0.568035900592804, -0.19944727420806885, 0.6358540654182434, -1.790028691291809, -0.209428071975708, -1.3758182525634766, 0.4472475051879883, -0.009683948941528797, -1.2467106580734253, -0.04093645140528679, -1.6850003004074097, 0.22031036019325256, 0.09263730049133301, -0.10815862566232681, 0.4578792452812195, 0.22319935262203217, -0.49761733412742615, -0.09822636842727661, -0.10477659851312637, -1.052334189414978, -0.32816076278686523, -0.2780575454235077, 0.40051525831222534, 0.004909112583845854, 0.20056138932704926, 0.24883456528186798, -0.6920350193977356, 0.0809420719742775, -0.34133949875831604, -0.09387750923633575, -0.4051874577999115, 0.2934652268886566, -0.3017643094062805, -0.4897465705871582, 0.107074074447155, -0.2928811311721802, 0.003249534871429205, -0.6411367058753967, -0.10125228762626648, 0.0403442457318306, 0.06507161259651184, -0.6979511976242065, -0.07652390003204346, -0.14793333411216736, -0.044976986944675446, -0.06401528418064117, -0.2848409414291382, -0.2791464030742645, -0.4819149076938629, 0.14035697281360626, -0.1628469079732895, 0.20416828989982605, -0.011506541632115841, 0.3002583682537079, -0.6664084792137146, -0.30520370602607727, -1.0699037313461304, -0.5223340392112732, -0.027750011533498764, -0.11369705945253372, 0.22892193496227264, 0.13719502091407776, 0.10122191905975342, 0.5182037949562073, 0.06654717773199081, 0.10235554724931717, -1.7410961389541626], [0.0055066305212676525, -0.047008126974105835, -0.06306176632642746, 0.011804572306573391, -0.03999362513422966, -0.04992426931858063, -0.02979505993425846, -0.027845947071909904, -0.08798057585954666, -0.02369566448032856, -0.024664463475346565, -0.005342968739569187, -0.06471238285303116, -0.06681815534830093, -0.07287071645259857, -0.10845944285392761, -0.06796765327453613, -0.04507753625512123, -0.07489088922739029, 0.04051380977034569, 0.05972898751497269, -0.07077982276678085, -0.10578429698944092, -0.030217818915843964, -0.0700930804014206, 0.02716965228319168, -0.03742866590619087, -0.015102935023605824, -0.16101346909999847, 0.025454774498939514, -0.06308303773403168, -0.1331489235162735, 0.018061719834804535, -0.03202299028635025, -0.08975083380937576, 0.017699871212244034, -0.05903024598956108, -0.017628060653805733, 0.04168826341629028, 0.056704744696617126, 0.035290565341711044, -0.12408026307821274, 0.05005830153822899, -0.004550065379589796, -0.03233865275979042, -0.13584716618061066, -0.08190229535102844, -0.031386226415634155, -0.05349411442875862, 0.013356868177652359, 0.038322389125823975, -0.10820312798023224, -0.1906486600637436, -0.037651706486940384, -0.07996676117181778, 0.04028850421309471, 0.03950904309749603, 0.008304127492010593, -0.05472496896982193, 0.06404736638069153, -0.03742725029587746, 0.02206033654510975, 0.04859134182333946, -0.05594519153237343, -0.06673648953437805, -0.09399431943893433, 0.06544109433889389, -0.15438081324100494, -0.07011531293392181, -0.07240767031908035, 0.05285096541047096, 0.074463851749897, 0.02119254693388939, -0.02209782600402832, 0.001608529593795538, 0.019127579405903816, 0.07411321252584457, 0.02369726449251175, -0.02189670130610466, -0.049510758370161057, -0.0725974515080452, -0.1283564418554306, -0.025497619062662125, 0.03767691180109978, -0.06341169029474258, 0.03165964409708977, -0.07461253553628922, -0.09801134467124939, -0.0808105617761612, 0.06812312453985214, 0.011457511223852634, 0.014002196490764618, -0.01928265579044819, 0.0026831310242414474, -0.1068703904747963, 0.010552906431257725, 0.014095609076321125, -0.05796106904745102, 0.053417425602674484, -0.1431582123041153, -0.009870249778032303, 0.017066793516278267, -0.052854131907224655, -0.07398875802755356, 0.06010449677705765, -0.09695478528738022, -0.05971603840589523, 0.004537250846624374, -0.04716389253735542, -0.0387917086482048, 0.023366685956716537, -0.050757721066474915, -0.0180568415671587, 0.00027941621374338865, -0.12092315405607224, -0.026638241484761238, -0.10503749549388885, -0.03521939367055893, -0.04519041255116463, -0.02449817955493927, -0.0021149078384041786, 0.06522494554519653, -0.053912997245788574, -0.11348984390497208, -0.05824992060661316, -0.09353159368038177, -0.07931040972471237, 0.06945386528968811], [-1.0212103128433228, -0.2490728795528412, -0.12246840447187424, -0.12290812283754349, -0.20573654770851135, 0.40193232893943787, 0.22724810242652893, 0.4492439329624176, -0.08381178975105286, 0.1323503702878952, -0.06735428422689438, -0.07617831975221634, -0.15643998980522156, 0.835643470287323, -0.22599732875823975, 0.005926523357629776, -0.12964652478694916, 0.20427919924259186, -0.7370491623878479, 0.7968243360519409, -1.2544351816177368, 0.502468466758728, 0.16215382516384125, 0.2095930129289627, -0.15075799822807312, -0.5200941562652588, 0.23050463199615479, 0.008584005758166313, -0.6483328342437744, 0.07725504040718079, -0.4192536175251007, 0.1899431198835373, -0.5148063898086548, -1.1193711757659912, -0.01909933052957058, 0.18503327667713165, 0.15620216727256775, 0.12727569043636322, 0.006717226468026638, 0.16856950521469116, -0.06962188333272934, 0.18032599985599518, -0.02782377600669861, -0.7223741412162781, 0.0009795307414606214, 0.035990726202726364, 0.3381030261516571, -0.5376789569854736, -0.09085544943809509, -0.31740880012512207, -0.21779625117778778, -0.3647068440914154, 0.2802751660346985, -0.17112389206886292, 0.18888303637504578, -0.09918088465929031, -0.07472200691699982, -0.6258257031440735, -0.34471583366394043, 0.285250186920166, -0.022506164386868477, -0.18223251402378082, -0.004945976659655571, -0.9696986675262451, -0.20195162296295166, 0.7813047170639038, -2.0400545597076416, 0.5328812003135681, -0.26441946625709534, 0.15474404394626617, 0.06810839474201202, 0.4869006872177124, 0.07455820590257645, -0.15720562636852264, 0.36980772018432617, 1.0402294397354126, 0.24879813194274902, -0.42962169647216797, -0.028439179062843323, -0.1368737518787384, -0.2105528861284256, 0.11814828217029572, -0.22555449604988098, 0.04775843396782875, 0.16099180281162262, -0.14377054572105408, -0.19753454625606537, -0.11923044174909592, 0.05372268334031105, -1.066799283027649, -0.05427869036793709, 0.0069339824840426445, 0.13561135530471802, 0.486880362033844, 0.12615349888801575, -0.13428224623203278, -0.6129853129386902, 0.055681243538856506, -2.2393648624420166, -0.49043235182762146, -0.7852181196212769, 0.22181132435798645, 0.1240532174706459, -0.11474329978227615, -0.4488109350204468, 0.1936718076467514, 0.07486768066883087, 0.05934101343154907, -0.06633781641721725, 0.24918220937252045, -0.05686906352639198, 1.0030752420425415, -0.9951257109642029, -0.36084601283073425, -0.7897176146507263, 0.2718721330165863, -0.010275948792696, -0.11163560301065445, -0.2420315146446228, 0.4775300621986389, -0.32227957248687744, -0.20560501515865326, 0.19098302721977234, 0.1867123395204544, 0.40485692024230957, 0.1991887092590332, -0.16113527119159698, -0.6901121139526367], [-0.11007723212242126, -0.05389609560370445, -0.007075577508658171, 0.0706588625907898, -0.06984777748584747, 0.02382255345582962, -0.07775814831256866, 0.024006200954318047, 0.044932443648576736, -0.021851202473044395, -0.024529501795768738, -0.01821877621114254, -0.022375015541911125, 0.0834609642624855, -0.07555796951055527, -0.09505197405815125, -0.10104140639305115, 0.01107589527964592, 0.011500773951411247, 0.01008991152048111, -0.037424810230731964, 0.0031722732819616795, -0.03892429918050766, 0.0064202663488686085, -0.09888557344675064, -0.041898857802152634, 0.05219255015254021, 0.033567000180482864, -0.043986883014440536, -0.005554589442908764, -0.027511419728398323, -0.12856397032737732, -0.05332450196146965, 0.06370942294597626, 0.050174418836832047, 0.008535998873412609, -0.03140880540013313, -0.009420580230653286, -0.05271017551422119, 0.01986842416226864, -0.09783834964036942, 0.02158469893038273, -0.08888772875070572, 0.019550850614905357, -0.036913029849529266, -0.07055670022964478, -0.0881449356675148, -0.08779413998126984, -0.09567400813102722, -0.004718555603176355, -0.08849477022886276, -0.09922348707914352, 0.055853091180324554, -0.06286663562059402, 0.038490477949380875, 0.09427617490291595, -0.09077135473489761, -0.062153592705726624, 0.012214260175824165, -0.01693093776702881, 0.01191662810742855, -0.019791515544056892, 0.024158865213394165, 0.035690661519765854, -0.043234243988990784, -0.06387288868427277, 0.04517145827412605, 0.052122581750154495, -0.007072847336530685, -0.08071159571409225, -0.048922888934612274, -0.022349556908011436, 0.042229194194078445, -0.0394153855741024, 0.009394463151693344, -0.04790473356842995, 0.017364975064992905, -0.027180517092347145, 0.06647542119026184, 0.03165159374475479, -0.08531565219163895, -0.09102821350097656, 0.002612429903820157, -0.07479747384786606, 0.027172120288014412, -0.00025975072639994323, 0.0018443359294906259, 0.05436226353049278, -0.07912296056747437, -0.10339977592229843, 0.014746055006980896, 0.036722976714372635, 0.06514979898929596, -0.11622931063175201, 0.005540124606341124, 0.019146351143717766, -0.11043939739465714, 0.053904931992292404, 0.014383341185748577, -0.08524641394615173, -0.06888467818498611, -0.04601627588272095, -0.035852592438459396, -0.019360296428203583, -0.06404463201761246, -0.002648087916895747, -0.0631706491112709, 0.03077508695423603, 0.04924048110842705, 0.026026813313364983, -0.03719692677259445, -0.07886111736297607, -0.06089266017079353, -0.02837580256164074, -0.0594106949865818, 0.06670153141021729, -0.0002072229835903272, 0.06470847874879837, -0.10186626017093658, -0.03406732529401779, -0.10115424543619156, 0.099591463804245, 0.0014257717411965132, -0.10556603223085403, 0.07678838819265366, -0.08413659781217575, -0.12613387405872345, 0.025516269728541374], [0.010986956767737865, -0.003463918808847666, 0.024709878489375114, -0.03960340842604637, 0.014824246987700462, 0.0817149430513382, -0.018171299248933792, 0.029187927022576332, -0.059133827686309814, 0.032179269939661026, -0.039811745285987854, -0.02272411435842514, 0.011854908429086208, -0.012738126330077648, -0.04246081784367561, -0.029509060084819794, -0.055653493851423264, -0.016402067616581917, 0.011359916999936104, 0.011681480333209038, -0.07102679461240768, -0.013360481709241867, -0.03041626326739788, -0.017916323617100716, 0.05822153389453888, 0.02377399615943432, 0.03304345905780792, 0.05217074230313301, 0.0071407947689294815, -0.05719532445073128, 0.05288638547062874, -0.11791437864303589, -0.01999419368803501, -0.030698262155056, -0.04463139921426773, -0.15245728194713593, 0.0016791833331808448, 0.017671944573521614, -0.05473358556628227, -0.10286542773246765, -0.09208039939403534, 0.05202770605683327, -0.08372638374567032, -0.1142035573720932, -0.11980220675468445, -0.05897936224937439, 0.012841513380408287, -0.13276024162769318, -0.061733368784189224, -0.07477004826068878, -0.05063726752996445, -0.042328014969825745, 0.021001311019062996, -0.016477549448609352, -0.10199067741632462, 0.010202496312558651, -0.03336772695183754, -0.05025114864110947, -0.08839020878076553, 0.03322853520512581, 0.0024089780636131763, 0.06165323406457901, 0.01934453845024109, -0.039135631173849106, 0.06617417186498642, -0.0008041051914915442, -0.012912420555949211, 0.016044994816184044, 0.03647547960281372, 0.04204650968313217, -0.03970514237880707, -0.07093635201454163, -0.007651402149349451, -0.08178010582923889, -0.10827045887708664, -0.12661442160606384, -0.0994696393609047, -0.02175901085138321, -0.05946695804595947, -0.043093062937259674, 0.021642016246914864, -0.010166605934500694, -0.026906795799732208, -0.060724373906850815, 0.04862779751420021, 0.04202552139759064, -0.0935392752289772, -0.013981973752379417, -0.11258795112371445, 0.022738762199878693, -0.0470961257815361, 0.02030564472079277, -0.035933781415224075, -0.08323588967323303, 0.014713790267705917, -0.08433452993631363, -0.021166551858186722, -0.12850487232208252, -0.06685590744018555, -0.11481667309999466, -0.01752536930143833, 0.0051093315705657005, 0.012183978222310543, 0.07478901743888855, 0.08451008796691895, 0.025014933198690414, 0.023640209808945656, -0.0005284973885864019, 0.026814326643943787, -0.10965435206890106, -0.047863636165857315, -0.002748161321505904, -0.08268144726753235, 0.03657417371869087, -0.0069808862172067165, -0.0673481673002243, 0.0018684930400922894, -0.09241029620170593, 0.05660547316074371, -0.10313843935728073, 0.04437592253088951, -0.029220469295978546, -0.05998675897717476, -0.0054135071113705635, -0.08643803000450134, -0.06208602711558342, -0.017856601625680923, 0.0018267984269186854], [-0.2478501945734024, 0.2823687195777893, -0.9063898324966431, -0.06496226787567139, 0.14109396934509277, -0.5107496976852417, -0.10297704488039017, 0.36532062292099, -0.2353808432817459, -0.29758593440055847, -0.6220352649688721, -0.26960375905036926, -1.5161519050598145, 0.053010400384664536, -0.4130091369152069, -0.022146740928292274, -1.175519585609436, 0.12423419952392578, -0.31720295548439026, -0.26236492395401, 0.18502652645111084, -0.009166995994746685, 0.024582698941230774, 0.3370526432991028, 0.047581177204847336, 0.1973687708377838, 0.2973637878894806, 0.5569559335708618, -0.3544282913208008, 0.09459627419710159, -0.16346432268619537, -1.1816133260726929, 0.09781938791275024, 0.12037928402423859, 0.45671963691711426, -0.6801868677139282, -0.18477341532707214, 0.39176145195961, 0.2443666011095047, -0.7143729329109192, -0.8831160664558411, -0.20866243541240692, -0.06976766139268875, 0.052600134164094925, -0.5318950414657593, -0.7559311985969543, 0.15601864457130432, -0.2714298963546753, -1.0114158391952515, -0.39816755056381226, 0.2899594306945801, 0.7393907308578491, 0.04514417424798012, -0.0730719119310379, 0.07279650866985321, -0.3853030800819397, -0.35731035470962524, -0.3213008642196655, -0.2210056185722351, -0.8840357661247253, 0.08287312090396881, -0.044359538704156876, -1.3904184103012085, -0.3341468572616577, -0.39726486802101135, 0.07398805767297745, 0.04622450843453407, 0.5770286917686462, 0.3395238220691681, 0.18132466077804565, -0.7007260322570801, 0.036156002432107925, -0.010420751757919788, -0.21171504259109497, 0.12804754078388214, -0.41050365567207336, -0.2742830812931061, 0.6449121832847595, 0.008778889663517475, -0.2730939984321594, -0.9471999406814575, 0.8807024359703064, 0.11511505395174026, 0.12609253823757172, -0.07929385453462601, 0.27584415674209595, -0.7119159698486328, -0.3152469992637634, 0.1843196451663971, 0.5338008999824524, -0.006282696034759283, -0.26201844215393066, -0.4496077001094818, -0.022484062239527702, -1.1220976114273071, 1.2752931118011475, -0.16676485538482666, -0.15388520061969757, -0.701723575592041, 0.2331591546535492, -0.46543970704078674, -0.06923703104257584, 0.13531731069087982, -0.8661268949508667, -0.057352472096681595, -0.310241162776947, -0.2308669239282608, -0.1979018896818161, -0.563862681388855, 0.6547057628631592, -0.6167219281196594, 1.08132803440094, 0.7593634724617004, -0.10280761122703552, 0.1998540163040161, 0.06311145424842834, 0.13675689697265625, 0.06467118859291077, -0.09457762539386749, 0.013395490124821663, 0.05334349721670151, -0.8163201808929443, -0.14761964976787567, 0.5122518539428711, 0.5240890383720398, 0.17019864916801453, -0.3137277364730835, -0.33932241797447205], [-0.05232526734471321, -0.08660194277763367, -0.24790030717849731, 0.01662306673824787, 0.1368575096130371, -0.18218596279621124, -0.292188435792923, -0.17516499757766724, -0.14107286930084229, -0.030050400644540787, 0.0650397390127182, 0.023712171241641045, -0.1553654670715332, 0.41523075103759766, -0.316276878118515, -0.6542712450027466, 0.0679551288485527, 0.1781814694404602, -0.31417980790138245, 0.27657145261764526, 0.16044752299785614, 0.18222178518772125, 0.2722857594490051, 0.10240298509597778, -0.4208270013332367, -0.12745791673660278, 0.27198752760887146, -0.5671373009681702, -0.11875498294830322, -0.048411790281534195, -0.3028602600097656, 0.025925403460860252, 0.03404359519481659, 1.0458658933639526, -0.24308976531028748, -0.43898501992225647, 0.01463520061224699, -0.07248684763908386, 0.010640701279044151, 0.32612285017967224, -0.4163248836994171, -0.6807639598846436, 0.10949192941188812, -0.1190451979637146, 0.01456492766737938, 0.3294134736061096, -0.05984276905655861, 0.18327045440673828, -0.015029783360660076, -0.08995402604341507, 0.25672194361686707, 0.8206077814102173, 0.2090238779783249, -0.12840047478675842, -0.01451826561242342, -0.279585599899292, -0.19525495171546936, 0.45980820059776306, 0.022500548511743546, -0.31701913475990295, 0.0805002823472023, 0.3372246325016022, -0.4834887683391571, 0.4040938913822174, -0.08005798608064651, 0.10376577824354172, 0.06545193493366241, 0.5217949151992798, 0.08884402364492416, -0.6103278398513794, -0.3965865969657898, -1.0106302499771118, -0.5197163820266724, -0.04422910884022713, -0.2680145800113678, -0.18263380229473114, -0.9301849007606506, -0.06069543957710266, -0.3945876955986023, 0.08322630077600479, 0.10789582133293152, -0.28489798307418823, 0.1961834728717804, 0.07388908416032791, 0.2033919245004654, -0.16191516816616058, 0.2769984304904938, 0.36048775911331177, -0.2208339422941208, -0.22548922896385193, 0.012425434775650501, -0.1491052508354187, 0.11343588680028915, 0.061843108385801315, -0.12614712119102478, -0.23269709944725037, -0.01376846432685852, -0.5311153531074524, -0.4939943552017212, 0.3153233528137207, -0.4330540597438812, 0.25694540143013, -0.16401585936546326, 0.015370814129710197, -0.18823304772377014, -0.22790268063545227, 0.18646089732646942, 0.03781542181968689, -0.029289251193404198, -0.3723871409893036, 0.02270311862230301, -0.19414910674095154, -0.6295617818832397, -0.16878025233745575, 0.15197667479515076, -0.3345726430416107, -0.4011220633983612, -0.2961212694644928, 0.5988786220550537, 0.14214859902858734, -0.11043480038642883, -0.03549019992351532, 0.14619135856628418, -0.2314879149198532, 0.09327670186758041, -0.014034234918653965, 0.03803953900933266, -1.0005711317062378], [0.053973738104104996, -0.07973821461200714, -0.028151102364063263, -0.045386720448732376, -0.07013951987028122, -0.023149840533733368, -0.0896097794175148, -0.05822544917464256, 0.06573943793773651, 0.041583627462387085, -0.08671681582927704, -0.07544401288032532, -0.03364231064915657, 0.04179439693689346, -0.028247976675629616, -0.024585163220763206, -0.0672306939959526, 0.04146452993154526, -0.006397529970854521, 0.016650278121232986, 0.044648412615060806, 0.059688590466976166, -0.021896084770560265, -0.054147832095623016, 0.005768792703747749, 0.017640868201851845, -0.053878698498010635, -0.06784645467996597, -0.07328034937381744, 0.06839673221111298, -0.07442338764667511, -0.08750490844249725, -0.09429182857275009, -0.0797836035490036, -0.06885387003421783, 0.021716205403208733, -0.04494544863700867, 0.00172706029843539, -0.0015249045100063086, -0.07767308503389359, -0.07242006808519363, -0.03728373348712921, -0.07307916134595871, 0.0031935719307512045, -0.015179450623691082, -0.07986900955438614, -0.05948830395936966, -0.04597824439406395, 0.00619232002645731, -0.037160079926252365, -0.06588590145111084, -0.08527540415525436, -0.03746709227561951, -0.006921196822077036, 0.01643475517630577, 0.0711037814617157, -0.04002486914396286, 0.005653103813529015, 0.05181146413087845, -0.02304064668715, -0.05514691025018692, -0.046699367463588715, -0.05331842973828316, -0.00937561597675085, 0.002687915228307247, 0.06091412156820297, 0.07001148909330368, -0.027196090668439865, 0.05274772271513939, 0.06015811488032341, 0.01268161740154028, -0.010226964019238949, 0.04025029391050339, -0.0021071552764624357, -0.06313228607177734, 0.05045782029628754, -0.07642725110054016, -0.05138628929853439, -0.07150951027870178, -0.07958277314901352, 0.06906992942094803, 0.07177851349115372, 0.021288860589265823, 0.021710526198148727, 0.003866298822686076, -0.0183135736733675, -0.0670304074883461, 0.05326391011476517, -0.033507443964481354, -0.04814871773123741, -0.012308881618082523, -0.08036770671606064, -0.08448494970798492, 0.03845313563942909, -0.01395703386515379, 0.052124690264463425, 0.06757433712482452, -0.005761468317359686, 0.02517552301287651, 0.055108293890953064, -0.0006004794267937541, -0.05332586541771889, 0.0609639510512352, -0.05747722461819649, -0.040133435279130936, -0.021765802055597305, 0.05548008903861046, 0.08613899350166321, -0.0003333288768772036, -0.03112804889678955, -0.07314353436231613, 0.01691962592303753, -0.09710313379764557, -0.0833842009305954, -0.02899574674665928, -0.045631784945726395, 0.005956466309726238, -0.05542127415537834, 0.010009967721998692, -0.0680525079369545, 0.009877261705696583, -0.049473583698272705, -0.015211577527225018, 0.06397279351949692, 0.06010843813419342, -0.0266946442425251, 0.04079272598028183, 0.006641448475420475], [-0.01750451698899269, -0.2602531313896179, -0.03916533291339874, -0.14717993140220642, -1.3937002420425415, -0.10385122150182724, 0.034554217010736465, 0.024227812886238098, -0.01460603903979063, -0.10225018858909607, -0.25192704796791077, 0.07915131747722626, -0.03429003804922104, -0.5597898960113525, 0.009451906196773052, -0.033789701759815216, -0.08640836924314499, 0.22596697509288788, 0.19152572751045227, 0.4714287221431732, -0.4871610403060913, 0.24789036810398102, -0.15285645425319672, 0.06842590868473053, 0.0430748350918293, 0.11404877156019211, 0.27446678280830383, -0.1714821457862854, 0.20738625526428223, 0.03534749895334244, -0.0541694238781929, -0.30390000343322754, 0.14386944472789764, -0.48727527260780334, 0.047446589916944504, -0.018989289179444313, 0.09837590157985687, 0.17325779795646667, -0.01325269602239132, -0.7821633219718933, 0.18073776364326477, -0.2906527817249298, -0.12401608377695084, -0.04524620249867439, -0.16827012598514557, -0.5891161561012268, -0.10251239687204361, -0.4426945447921753, 0.18687033653259277, -0.1795908659696579, -0.23206400871276855, -0.16272762417793274, 0.1849479079246521, 0.0628058984875679, 0.0210557971149683, -0.011147184297442436, -0.08550935238599777, 0.05413713678717613, -0.09683438390493393, 0.45035070180892944, 0.08472514152526855, 0.42740142345428467, -0.290746808052063, 0.39331966638565063, 0.10061001777648926, 0.10696341097354889, -0.02709408476948738, 0.8257379531860352, 0.21365928649902344, -0.13266654312610626, -0.10295421630144119, 0.8244658708572388, 0.20684199035167694, 0.00409000413492322, -0.10728482902050018, 0.9470148682594299, -0.07463542371988297, 0.44470006227493286, -0.1916927844285965, -0.05423339828848839, -0.35364675521850586, -0.1673952043056488, 0.11267978698015213, 0.2846204340457916, 0.012189861387014389, -0.18642458319664001, -0.15440291166305542, 0.26866090297698975, 0.11256580054759979, 0.16768713295459747, 0.27329641580581665, -0.15714141726493835, -0.11145319789648056, 0.269604355096817, -0.06172683835029602, -1.0290008783340454, -0.10168654471635818, 0.004105776082724333, -0.19561602175235748, 0.3326786756515503, 0.7068201899528503, -0.05380163714289665, -0.18416084349155426, -0.09312283992767334, -0.11964684724807739, 0.3114807903766632, 0.054628368467092514, 0.2279791384935379, -0.020589154213666916, 0.08321205526590347, 0.062801793217659, -0.005225110799074173, -1.6207795143127441, 0.0059468550607562065, 0.4175669550895691, 0.047994378954172134, -0.09597267955541611, 0.074146568775177, 0.19106818735599518, -0.007851934060454369, 0.46347230672836304, 0.29727408289909363, 0.12882472574710846, 0.32140108942985535, 0.19729776680469513, 0.16380172967910767, -0.16715705394744873, 0.7427167892456055], [-0.028658846393227577, -0.027724122628569603, 0.036836810410022736, 0.0281667523086071, -0.08428623527288437, -0.09097928553819656, -0.11598098278045654, 0.0723014771938324, -0.057441454380750656, 0.05459805950522423, 0.026583019644021988, 0.06583400070667267, 0.030172348022460938, 0.0680466890335083, -0.03407616540789604, -0.013376590795814991, -0.04267873987555504, -0.08633614331483841, 0.03326410800218582, -0.0684727355837822, 0.00042865026625804603, 0.011226870119571686, -0.024720076471567154, -0.0916668251156807, -0.011893540620803833, -0.036197323352098465, 0.028369303792715073, -0.004540235735476017, -0.045032743364572525, -0.10138862580060959, -0.022794922813773155, -0.06723909080028534, 0.01282456424087286, 0.06538964062929153, -0.006346625275909901, -0.037923362106084824, 0.04267295449972153, 0.05614009127020836, -0.03599359840154648, 0.028078699484467506, 0.05074141547083855, 0.03698074072599411, 0.05378149077296257, 0.05724950507283211, 0.014721754007041454, -0.024124030023813248, 0.007332796696573496, -0.02442695014178753, -0.0798349380493164, -0.02008136361837387, -0.012333391234278679, -0.03980253264307976, -0.07328034192323685, -0.06164035201072693, 0.0331965908408165, -0.04789967089891434, -0.06657258421182632, -0.07312586158514023, -0.010899449698626995, -0.006226778961718082, -0.07196898013353348, 0.03382720425724983, -0.10526929050683975, -0.09116686135530472, -0.047392476350069046, -0.02975432574748993, -0.03444795683026314, 0.025235071778297424, -0.0026226467452943325, -0.03829578682780266, 0.034359659999608994, 0.027132317423820496, -0.009606030769646168, -0.08696693181991577, -0.003477972000837326, -0.001107364660128951, 0.048158321529626846, -0.010102230124175549, 0.06981971114873886, -0.06925919651985168, -0.08199554681777954, 0.014282748103141785, -0.008659571409225464, -0.004171815235167742, -0.011562217958271503, -0.03603648394346237, 0.040086742490530014, -0.06559813767671585, -0.08796072006225586, -0.03300706297159195, -0.000991173554211855, -0.05763181671500206, -0.07555302232503891, -0.058850355446338654, -0.026824288070201874, -0.06581922620534897, -0.013034681789577007, -0.06381527334451675, -0.08975393325090408, -0.08712311834096909, -0.04172292724251747, 0.05866048485040665, 0.07842369377613068, -0.01514850091189146, -0.03494838625192642, 0.06530844420194626, 0.00044119107769802213, 0.02519049122929573, -0.0472114272415638, -0.0642242506146431, -0.017332667484879494, 0.05563177540898323, -0.08558138459920883, 0.06737776845693588, 0.02841605618596077, -0.03772057965397835, -0.02584918402135372, -0.05789979174733162, -0.10562887042760849, -0.04913807660341263, -0.09322261810302734, 0.053014665842056274, -0.04718945920467377, -0.02978753112256527, -0.06575043499469757, 0.0660952627658844, 0.05029141530394554, 0.0056698936969041824], [-0.32033658027648926, 0.20696121454238892, 0.2793124318122864, -0.005886850878596306, 0.33331233263015747, -0.39542466402053833, -1.062511682510376, -0.0711374431848526, 0.17907603085041046, -0.8231618404388428, -0.8480588793754578, -0.2993784546852112, -0.07742945104837418, -0.22363071143627167, -1.916595220565796, -0.032731395214796066, -0.7571138739585876, 0.24009773135185242, -0.5525837540626526, -0.2898707091808319, 0.26836729049682617, -0.04274410754442215, -0.4532395601272583, 0.08463456481695175, -0.4690715968608856, 0.14119240641593933, -0.2449434995651245, -0.8173215389251709, -0.2841449975967407, -0.9186500906944275, -0.08043192327022552, -0.3929368853569031, 0.07714179903268814, 0.2461782693862915, 0.3413194417953491, -0.21307790279388428, 0.07728316634893417, 0.056348297744989395, 0.6457334160804749, -0.17725099623203278, -0.5828702449798584, 0.010359969921410084, -0.825129508972168, -1.9323147535324097, -0.12136973440647125, -0.03507833555340767, 0.03789043053984642, 0.2949618101119995, -0.9849097728729248, 0.10892673581838608, -0.04319889098405838, 0.5960181951522827, -0.2252969592809677, -0.848487138748169, 0.050050973892211914, 0.0783255398273468, -0.04368969053030014, -0.45203524827957153, -0.4417666494846344, -0.7678583860397339, 0.5362123250961304, -0.1891184002161026, -1.1536513566970825, -0.3573109209537506, -0.6816831231117249, 0.39088931679725647, -0.4255855083465576, 0.1526336669921875, 0.15653514862060547, -0.27318859100341797, -0.036915913224220276, -0.07174108177423477, 0.23139871656894684, -0.4958287179470062, -0.13220147788524628, -0.5385452508926392, -0.21835124492645264, -0.22575286030769348, -0.15272188186645508, -0.09055127948522568, 0.014870661310851574, 0.734242856502533, -0.665549099445343, -0.9689661264419556, -0.8147775530815125, -0.15057414770126343, -0.10702653229236603, 0.08662720769643784, -0.034675922244787216, -0.7251901030540466, 0.0646946132183075, -0.6846520304679871, -1.1870205402374268, 0.21393050253391266, -0.17846103012561798, 0.23499423265457153, -0.8807082176208496, -0.6919203400611877, 0.4286932945251465, -0.21111418306827545, 0.4450383484363556, -0.1383141428232193, 0.14037905633449554, 0.1257932037115097, -1.7302470207214355, -0.06997588276863098, 0.0679766982793808, 0.07765129208564758, -0.06758555769920349, -0.054353389889001846, 0.01186602097004652, 0.12432290613651276, 0.4462774693965912, -1.7599538564682007, 0.1936827301979065, -0.479421466588974, -0.45313507318496704, -0.48393088579177856, 0.14298437535762787, -0.4317309558391571, -0.1191980391740799, -0.44520947337150574, -0.08808427304029465, -0.4055677354335785, -0.15228939056396484, 0.0757400318980217, -0.2636059522628784, 0.30230414867401123], [-0.02387206070125103, 0.31626805663108826, -0.04802921041846275, -0.4198451042175293, 0.8155229091644287, -0.32364028692245483, 0.05175144225358963, 0.014608005993068218, 0.22779054939746857, 0.005826341919600964, -0.18538014590740204, 0.09141287952661514, -0.02233707346022129, 0.3470548987388611, -0.1701274961233139, 0.15243463218212128, 0.016526367515325546, -0.37157344818115234, 0.0810241624712944, 0.19250361621379852, 0.3556765913963318, 0.11816143989562988, 0.2897057831287384, -0.07692496478557587, 0.4176563620567322, 0.18216538429260254, -0.0691663920879364, 0.09906681627035141, -0.18084202706813812, 0.23735736310482025, 0.7876434326171875, 0.23147310316562653, -0.03319298103451729, -0.21775195002555847, 0.006152462679892778, -0.42846834659576416, 0.3325326144695282, -0.13152197003364563, 0.27188780903816223, -0.7446696162223816, -0.2553136348724365, -0.6716249585151672, 0.036994826048612595, -0.12768563628196716, 0.22494365274906158, -0.22071203589439392, 0.32778534293174744, 0.2715417146682739, 0.21275503933429718, -0.2297229915857315, 0.03937162086367607, -0.0745532438158989, -0.140643909573555, -0.136116161942482, -0.26654303073883057, -0.07554609328508377, 0.10816542059183121, 0.30405324697494507, 0.09584979712963104, -1.6728596687316895, 0.0919310674071312, -0.6304944753646851, 0.20108486711978912, 0.03429548069834709, -0.12199915200471878, 0.4137433171272278, -0.2390238642692566, 0.304158478975296, -0.024786395952105522, -0.4411299526691437, -0.24122729897499084, -0.06592125445604324, 1.2135101556777954, 0.36813226342201233, -0.6332721710205078, 0.3960164487361908, -0.9903929233551025, 0.001983842346817255, 0.000665169907733798, -0.06764860451221466, -0.17223221063613892, 0.2463066428899765, 0.13435198366641998, 0.2162371575832367, 0.3091595768928528, -0.1968299299478531, 0.006304008420556784, -0.35292860865592957, 0.005164597183465958, -0.027629241347312927, 0.2646333575248718, -0.19508226215839386, -0.10614456981420517, -0.2655486762523651, 0.2929209768772125, 0.4094974398612976, -0.29191792011260986, 0.2312600314617157, -1.7694610357284546, -0.004814992658793926, 0.2843160927295685, -0.050090890377759933, 0.31721553206443787, 0.14134801924228668, -0.1346842646598816, 0.38089725375175476, -0.15717701613903046, -0.13914132118225098, 0.06007109582424164, -0.39400675892829895, -0.07908514887094498, -0.14436660706996918, 1.021454930305481, -0.003941579256206751, 0.621334433555603, 0.4238055348396301, -0.17834270000457764, -0.2081029713153839, -0.05649525299668312, -0.5056607723236084, -0.6159554123878479, -1.2220690250396729, 0.2076135277748108, 0.007280922960489988, 0.5646633505821228, 0.10341621190309525, -0.1286066323518753, -1.39170503616333], [-0.8573901653289795, 0.497144490480423, -0.06857818365097046, -0.46513456106185913, -0.13783571124076843, 0.4923800528049469, 1.189671516418457, -0.28291240334510803, 0.08487057685852051, 0.6010514497756958, -0.1690339595079422, 0.04720129445195198, -1.6796005964279175, -0.04378437250852585, 0.37979552149772644, -0.31967025995254517, -0.5379512310028076, -0.16405747830867767, 0.1588900238275528, 0.20570462942123413, 0.5255315899848938, -0.12251198291778564, 0.4204040765762329, -0.17326514422893524, -0.28705278038978577, 0.24859920144081116, 0.3359721004962921, -0.10302603244781494, -0.16655629873275757, 0.17511044442653656, 0.06941847503185272, -0.022628039121627808, -0.19080500304698944, 0.7235289216041565, 0.0297427698969841, 0.572124183177948, 0.40037038922309875, 0.3532208502292633, -0.07740367949008942, -0.5172550678253174, -0.02672666683793068, -0.8481506109237671, 0.06208714470267296, 0.3638383746147156, -1.9640324115753174, -0.3200387954711914, 0.26984161138534546, 0.3408241271972656, -0.26629772782325745, -0.03988078981637955, -0.04528617113828659, 0.2810429632663727, -0.06141562759876251, -0.4598991572856903, -0.28030213713645935, -0.004786775913089514, -0.803921103477478, 0.0964742973446846, -0.5132371187210083, -0.011861706152558327, -0.5725692510604858, -0.026541491970419884, -0.9455394148826599, -0.037385210394859314, -1.1433227062225342, 0.21994836628437042, 0.07541697472333908, 0.42831164598464966, -0.1636592000722885, -0.4275049865245819, 0.7386362552642822, 0.008238802663981915, -1.4151382446289062, -0.016593366861343384, 0.10218628495931625, 0.26773151755332947, -0.7654073238372803, -0.5893760323524475, -0.522408127784729, 0.5475901365280151, -1.3551968336105347, -0.6179284453392029, 0.6134707927703857, -0.11346959322690964, -0.2858050465583801, -0.5268950462341309, -0.002341121667996049, -0.1830718070268631, 0.14837191998958588, -1.73004949092865, -0.29708316922187805, 0.23028433322906494, -0.04273417592048645, 0.05663352459669113, -0.19160696864128113, 0.24057692289352417, -0.06736914068460464, -0.4781751036643982, -2.5447144508361816, -0.07507583498954773, -2.0434913635253906, 0.12132687121629715, -0.4943883717060089, -0.9039512872695923, -0.026253025978803635, 0.05018426850438118, -1.633085012435913, -0.15201181173324585, 0.011944460682570934, 0.15963950753211975, -1.4411382675170898, -0.6994587779045105, -0.1842968612909317, 0.32591626048088074, 0.16903233528137207, -0.046052150428295135, 0.5922022461891174, -0.3512805998325348, 0.17594055831432343, 0.42500561475753784, -1.2271803617477417, 0.0987643375992775, -0.15969568490982056, -1.58689546585083, -0.0018718920182436705, 0.17008277773857117, 0.3194718062877655, 1.1566290855407715], [-0.043900266289711, -0.009852297604084015, 0.020576350390911102, 0.021992525085806847, -0.028351835906505585, -0.08301060646772385, -0.06196560710668564, -0.06839483231306076, -0.10849551111459732, 0.07502778619527817, 0.007832914590835571, -0.06739064306020737, 0.055795807391405106, 0.07228413969278336, -0.026246579363942146, -0.04078171029686928, 0.04136978089809418, -0.062431078404188156, -0.0952700600028038, -0.025496261194348335, 0.047816116362810135, -0.07277699559926987, 0.029433514922857285, 0.034235090017318726, -0.04864808917045593, -0.024507220834493637, -0.07072371244430542, -0.08595085144042969, -0.054485127329826355, -0.08273009210824966, 0.05172227323055267, -0.13105465471744537, -0.06703191995620728, -0.02825738862156868, -0.016023870557546616, -0.10621391236782074, 0.029326241463422775, -0.017285343259572983, -6.108722118369769e-06, 