{"fc1.weight": [[0.0866045132279396, -0.22828567028045654, -0.1055966466665268, -0.6028361320495605, -1.3637136220932007, -0.26777592301368713, 0.32521146535873413, 0.02430148981511593], [-0.34788769483566284, -0.20153480768203735, -0.045199744403362274, -0.013348106294870377, -0.6840144991874695, 0.3066723048686981, 0.892969012260437, -0.6437333226203918], [-0.23091502487659454, -0.4871826469898224, 0.2447047084569931, -0.6511237621307373, -0.45380356907844543, -0.3650206923484802, -3.1317050457000732, 0.2954563796520233], [0.15472610294818878, -0.019567163661122322, -0.025714123621582985, 0.2024194598197937, -0.6164001226425171, -0.011930838227272034, -2.349445104598999, -1.2575148344039917], [0.22467006742954254, 0.008051141165196896, 0.040910542011260986, 0.04399636387825012, -0.1998598575592041, 0.07149476557970047, -1.9117109775543213, 0.18528339266777039], [0.08920949697494507, -0.15501797199249268, -0.07001359760761261, -0.09714256972074509, 0.5450462698936462, 0.08157074451446533, -3.5941081047058105, -0.22458966076374054], [-1.0713845491409302, -0.16803324222564697, 0.39704272150993347, -0.3540932834148407, 0.28445640206336975, 0.20675332844257355, 0.1837591975927353, 0.08214065432548523], [-1.2039504051208496, -0.5732341408729553, -0.1658008098602295, -0.13579170405864716, 0.33073776960372925, -0.006694383919239044, 2.2352864742279053, 0.07488155364990234], [-0.47216957807540894, 0.33343884348869324, 0.23470324277877808, -0.9516573548316956, 0.8545920848846436, 0.16021966934204102, -0.26656094193458557, 0.17767830193042755], [-0.3950413167476654, 0.22971363365650177, -0.09004570543766022, 0.24140551686286926, 0.006193974055349827, 0.022866645827889442, -2.1356334686279297, 0.15919053554534912], [0.06935355067253113, -0.9167948365211487, 0.14285290241241455, 0.5065761804580688, 0.33606913685798645, 0.15635627508163452, -0.944624125957489, -0.08960748463869095], [-0.28201207518577576, -0.40270137786865234, -0.0963049829006195, -0.4247875213623047, 0.11811727285385132, 0.21255695819854736, 1.0951600074768066, -1.0356290340423584], [-0.3427925109863281, -1.034077525138855, 0.35709670186042786, -0.7069321870803833, -0.42265501618385315, 0.07574103772640228, 0.22183896601200104, 0.3612273037433624], [-0.5465593338012695, -0.6775363683700562, 0.10464424639940262, 0.14008469879627228, 0.40933188796043396, 0.0780816450715065, -1.0753748416900635, -0.027659859508275986], [0.08861660212278366, 0.14586623013019562, 0.02139189839363098, 0.13359490036964417, 0.5322991609573364, -0.026649856939911842, -0.9310336112976074, -0.6401394605636597], [0.4481891095638275, 0.09315013140439987, 0.050494592636823654, 0.15322940051555634, -0.07641825824975967, 0.04317476227879524, -2.078392267227173, 0.1350749284029007], [0.1926582008600235, -0.9138185977935791, -0.25618234276771545, 0.3875401020050049, -0.8364018201828003, -0.5526798963546753, -0.46972599625587463, -0.23863813281059265], [-0.619530439376831, -0.2617812752723694, 0.2818286120891571, 0.8656839728355408, -0.49013423919677734, -0.05065483972430229, 0.2487396001815796, 0.012534275650978088], [0.5607690811157227, -0.10977357625961304, -0.11001180857419968, 0.10030151158571243, -0.215368390083313, 0.4213515818119049, -0.40631672739982605, 0.03159423917531967], [0.158909872174263, 0.3915803134441376, -0.04027295857667923, -1.9963663816452026, 0.6991224884986877, -0.12649968266487122, 1.2608981132507324, -0.057979755103588104], [-0.5967265367507935, -0.1570035070180893, 0.1991746574640274, 0.0763373076915741, 0.5508816838264465, 0.27011638879776, -0.5046343803405762, 0.2541673481464386], [-0.1989392340183258, 0.673488199710846, 0.047236114740371704, -1.0789799690246582, 0.09048508107662201, 0.20493240654468536, 0.6485176086425781, 0.22390255331993103], [-0.4466308057308197, 0.12325205653905869, -0.04541076719760895, -0.10193274170160294, 0.2605542838573456, 0.044522080570459366, -1.951435923576355, -0.07160809636116028], [0.20112788677215576, -1.227734923362732, -0.17327411472797394, -0.7395749092102051, 0.5079895853996277, -0.05345015972852707, 0.46874961256980896, -0.3665323257446289], [0.774416446685791, -1.073366641998291, 0.139058455824852, -1.1705329418182373, -0.312696248292923, -0.3485662639141083, -2.1551594734191895, -0.20399054884910583], [-0.10751499980688095, 0.64103102684021, -0.025803914293646812, -0.25681647658348083, 0.1771293729543686, 0.16805464029312134, -1.6792030334472656, -0.01652304083108902], [-0.6112812757492065, 0.029831349849700928, 0.3857611119747162, -0.06241266056895256, -0.47265732288360596, -0.029396895319223404, -2.4693048000335693, 0.41381293535232544], [0.1175437793135643, -0.47157707810401917, 0.0994291678071022, -0.13189539313316345, 0.17729228734970093, 0.15877367556095123, -2.404642105102539, -0.3613463342189789], [-0.10528663545846939, -0.20299461483955383, -0.2223806381225586, 0.31108760833740234, -0.4324601888656616, -0.06305362284183502, -0.07594836503267288, 0.15933409333229065], [0.13003191351890564, 0.06712950021028519, -0.016769781708717346, 0.23404517769813538, -0.4583517611026764, -0.009619968011975288, -2.2082033157348633, -1.127593994140625], [-0.30035561323165894, -0.25118333101272583, 0.12018628418445587, -0.13609158992767334, -1.1089370250701904, 0.3914574682712555, 2.1288881301879883, -0.2866711914539337], [-1.0499821901321411, -0.028994381427764893, -0.07417860627174377, 0.62212735414505, 0.5145055651664734, -0.12603303790092468, -2.009117364883423, 0.11881004273891449], [0.2545818090438843, 0.34568530321121216, 0.08296561986207962, -0.05671160668134689, 0.15612910687923431, 0.23004239797592163, 0.2484734058380127, 0.06902436912059784], [-0.9656021595001221, 0.46177610754966736, -0.3445647656917572, 0.351093053817749, 0.3956890404224396, 0.151108980178833, -0.6843081116676331, -0.44136685132980347], [0.38183483481407166, -0.6411288380622864, -0.04082358628511429, -0.2451280653476715, -0.26896271109580994, 0.18738409876823425, 0.8202016353607178, -0.045655135065317154], [0.04169624298810959, -0.4737303853034973, -0.11418290436267853, 0.1346179097890854, 0.41687697172164917, 0.22898080945014954, 1.626453161239624, -0.7095887660980225], [0.20162950456142426, 0.3095566928386688, -0.4646693170070648, -0.4026380777359009, 0.639025092124939, -0.432092547416687, -2.401487350463867, -0.028934136033058167], [-0.3153683841228485, 0.012621637433767319, -0.07258019596338272, 0.23516492545604706, 0.42006146907806396, -0.13392065465450287, -4.665441513061523, -0.32695817947387695], [0.41769886016845703, -0.054854169487953186, -0.22523027658462524, 0.49750271439552307, 0.4788261353969574, 0.17795725166797638, -0.3862995207309723, -0.1257513016462326], [-0.40767091512680054, 0.03696116432547569, -0.2918858528137207, 0.42218977212905884, -0.15361711382865906, -0.04035664722323418, 2.115541934967041, 0.25935250520706177], [0.013838413171470165, -0.16475078463554382, -0.09585363417863846, 0.1976136714220047, 0.40099793672561646, 0.049356427043676376, -1.643089771270752, -0.07047027349472046], [0.3788098692893982, 0.006200823001563549, -0.24856074154376984, -0.09520134329795837, -0.3654946982860565, 0.1712273359298706, 0.4650128185749054, -0.7840641736984253], [-0.020789366215467453, -0.26195040345191956, -0.09895260632038116, 0.18317383527755737, 0.3329373598098755, -0.40310946106910706, -0.14088067412376404, 0.5827546119689941], [0.0679115504026413, -0.5565499663352966, 0.07305893301963806, -0.09854505211114883, 0.053449396044015884, -0.6045287847518921, 1.7297989130020142, 0.19196490943431854], [0.18847814202308655, -0.4264899790287018, 0.12248167395591736, 0.5114867091178894, -0.12504608929157257, 0.04278603568673134, 0.09195553511381149, 0.2816106081008911], [0.2553204894065857, 0.20254874229431152, -0.09342192113399506, -0.19730651378631592, -1.590780258178711, -0.006791597697883844, 1.1689698696136475, 0.036114830523729324], [0.2625121772289276, -1.3499739170074463, 0.10446008294820786, -0.030618954449892044, 0.5295523405075073, -0.24754342436790466, -2.23697566986084, 0.2114884853363037], [0.6078012585639954, 0.14112956821918488, -0.02316838689148426, -0.4434984624385834, -0.2719172537326813, -0.36844563484191895, -1.1599996089935303, -0.3776598274707794], [-0.11206014454364777, -0.04066559672355652, 0.47910401225090027, -0.40076929330825806, 0.11435701698064804, 0.14932768046855927, -2.826054334640503, -0.01939510740339756], [0.15791405737400055, 0.08691930770874023, 0.060156114399433136, -0.4565746784210205, 0.0268290676176548, -0.1670295149087906, -0.6436652541160583, -0.5142462849617004], [0.21387694776058197, -0.18896785378456116, -0.25855886936187744, -1.5019246339797974, 0.08810513466596603, -0.07145201414823532, 0.6619982719421387, -0.15451112389564514], [0.4258459508419037, 0.08345209062099457, -0.016041114926338196, 0.3144618570804596, -1.0208436250686646, 0.16070647537708282, -4.138549327850342, 0.14064857363700867], [-0.33149632811546326, -0.2900142967700958, 0.2641552686691284, -0.35671278834342957, -0.6134734153747559, 0.7180588245391846, 0.4074336886405945, -0.19262298941612244], [0.06964710354804993, -0.8196665048599243, 0.19052210450172424, -0.723576545715332, 0.7102985978126526, -0.2011174112558365, 0.6072947978973389, 0.23798972368240356], [0.10360882431268692, -0.44779708981513977, 0.03214894235134125, -0.4120156168937683, -0.11717286705970764, 0.26711615920066833, -3.3447206020355225, 0.5618282556533813], [0.77559894323349, -0.5326170921325684, 0.15415892004966736, -0.31470999121665955, 0.42258772253990173, -0.1998649537563324, -1.5689358711242676, -0.1189362034201622], [0.011007865890860558, 0.8675588369369507, -0.03860732913017273, -0.8507623076438904, 0.28046441078186035, 0.13940387964248657, -0.812838077545166, -0.6824780106544495], [-0.44348955154418945, -0.16941961646080017, 0.01665526255965233, -0.6005883812904358, -0.2899158000946045, -0.6203739047050476, -2.950864791870117, 0.5241135954856873], [0.19801993668079376, -0.6310072541236877, -0.2377004325389862, -1.1701959371566772, 0.2116020917892456, 0.4244067072868347, -0.21592630445957184, -0.3272770047187805], [0.34350037574768066, -0.06606762856245041, -0.03482374921441078, 0.09919571876525879, -0.21006296575069427, 0.022060396149754524, -5.632761001586914, -0.028167305514216423], [-0.30118292570114136, -0.7264999747276306, 0.33461034297943115, -0.8393162488937378, 0.2293761968612671, -0.09978128969669342, -0.7223002314567566, -0.17359451949596405], [-0.15678070485591888, 0.29307621717453003, -0.038093335926532745, 0.10744911432266235, -0.6077144145965576, 0.12857216596603394, -1.6353877782821655, -0.061440661549568176], [-0.7156528830528259, 0.7034935355186462, 0.2299719750881195, 0.39945611357688904, 0.6058247089385986, -0.017857860773801804, -0.29590052366256714, 0.15622228384017944], [0.01496060099452734, 0.13963571190834045, -0.017135506495833397, 0.06473375856876373, 0.4079374074935913, 0.02952680177986622, 2.432136058807373, -0.5802772641181946], [-0.3361528515815735, -0.1821299046278, -0.09137818217277527, 0.44088995456695557, 0.41505053639411926, -0.22823594510555267, -0.851493239402771, -0.06091630086302757], [0.39628198742866516, -0.22542597353458405, -0.07582065463066101, 0.015360447578132153, -0.1780022233724594, 0.3464186191558838, -0.7500216364860535, -0.20933866500854492], [0.16270700097084045, -0.4245622158050537, 0.0332866832613945, 0.2308410257101059, 0.21827296912670135, 0.016961796209216118, -0.5705633163452148, 0.5497508645057678], [0.16975650191307068, 0.30646252632141113, 0.038004692643880844, -0.3408028781414032, -0.0011207105126231909, 0.06037602946162224, -0.1845012605190277, 0.08951210975646973], [-0.5463665127754211, -0.8942650556564331, 0.0968017429113388, -0.2618408203125, -0.5584484934806824, -0.25341710448265076, 0.7836261987686157, 0.6688114404678345], [0.0051919263787567616, 0.5290184617042542, 0.029605044052004814, 0.00045655862777493894, -0.13855427503585815, -0.42426836490631104, 0.7054269313812256, 0.5118778347969055], [-0.16076253354549408, 0.3039034307003021, 0.012906418181955814, 0.71783047914505, 0.6966583728790283, 0.04158234968781471, -1.7354764938354492, -0.1179790049791336], [0.15740783512592316, 0.14118224382400513, -0.05406816676259041, 0.0270006712526083, 0.19498105347156525, -0.20550094544887543, -0.16612277925014496, 0.17048126459121704], [0.3001236021518707, -0.18626093864440918, -0.09127168357372284, 0.5636284351348877, 0.5657603740692139, 0.07188822329044342, 0.6142265200614929, 0.2119607925415039], [-0.1193922683596611, 0.37521886825561523, 0.3564038872718811, -2.330052137374878, -0.487546443939209, 0.14711947739124298, -0.19141726195812225, -0.3105163276195526], [0.25147077441215515, 0.08993902802467346, -0.24468833208084106, -0.3794024884700775, -0.42111048102378845, -0.430912584066391, -1.1057698726654053, 0.529087483882904], [0.36523351073265076, -0.9177157878875732, 0.33271387219429016, -0.9520854353904724, -0.07718303054571152, 0.10957780480384827, -0.12250775098800659, -0.03242742270231247], [-2.2523677349090576, -0.6349865198135376, -0.24320794641971588, 0.7547502517700195, -1.4658925533294678, 0.12842942774295807, -0.30524566769599915, 0.17266526818275452], [0.48717689514160156, 0.43155547976493835, 0.026509791612625122, -0.18996022641658783, 0.12568499147891998, -0.049732692539691925, -3.3507919311523438, 0.3025675117969513], [0.3096667230129242, -0.04229210689663887, 0.12220467627048492, -0.7614015340805054, -0.5425884127616882, -0.03414333239197731, -4.523554801940918, -0.19237682223320007], [-0.28561121225357056, 0.03404616564512253, -0.010571702383458614, 0.4406435191631317, 0.056392088532447815, 0.04874503239989281, -4.206314563751221, -0.39840781688690186], [-0.40535667538642883, 0.11164569109678268, 0.12146107107400894, -0.28607580065727234, -0.12139426171779633, -0.07816796004772186, -1.003216028213501, -0.9304108619689941], [-0.9673109650611877, -1.0077550411224365, 0.403918594121933, -0.253605455160141, -0.5382393002510071, -0.37664493918418884, 0.5560178756713867, 0.1493457406759262], [0.030968327075242996, 0.05236883834004402, -0.07126668095588684, 0.13315139710903168, -0.03460141271352768, 0.015658210963010788, -1.1778414249420166, -0.31329575181007385], [-1.165378212928772, -0.09176765382289886, -0.05728871375322342, -0.22457554936408997, -0.18579675257205963, 0.2447170615196228, -0.45581045746803284, -0.547005295753479], [0.3692464232444763, 0.14467044174671173, 0.009146932512521744, -0.1522933393716812, 0.5938520431518555, -0.3654010593891144, 0.22664189338684082, -0.08611474931240082], [0.093966543674469, -0.02908366732299328, -0.009796974249184132, 0.01190097164362669, 0.011446837335824966, -0.0385812371969223, -1.85519278049469, 1.0944303274154663], [0.1534706950187683, 0.09638343006372452, -0.10018482059240341, -0.14010995626449585, 0.7298004627227783, 0.07587286084890366, -3.628084659576416, 0.23713010549545288], [-0.3523711860179901, -0.10534954816102982, -0.024476144462823868, 0.0388907827436924, 0.02398446574807167, -0.33311524987220764, -2.444868326187134, 0.03761139139533043], [-0.18951354920864105, -0.768019437789917, 0.31382840871810913, -0.3022496998310089, 0.460025817155838, 0.30476370453834534, -1.6656768321990967, 0.10695655643939972], [0.4179302155971527, -0.5151670575141907, 0.14534924924373627, 0.19869205355644226, -0.03818223997950554, -0.18684101104736328, -1.1492170095443726, -0.044870827347040176], [0.08979830145835876, -0.4654364287853241, 0.12698589265346527, 0.711746335029602, 0.2269579917192459, 0.2839210629463196, 0.7204689979553223, -0.39437535405158997], [0.00601597223430872, -0.24235016107559204, -0.14053583145141602, -0.2042660117149353, -0.1260017454624176, 0.008155100978910923, 2.904695510864258, -0.38110780715942383], [-0.7220537662506104, -0.6528012156486511, 0.06761275976896286, -0.18599003553390503, 0.8525610566139221, 0.3377605080604553, 0.6280696988105774, -0.1638307124376297], [0.01935429871082306, 0.21095912158489227, 0.03943803161382675, 0.5937235355377197, -0.17139746248722076, -0.23591625690460205, 1.5253186225891113, -0.1615961343050003], [-0.9448081254959106, 0.8764864206314087, -0.2644374668598175, -0.07439272105693817, -0.23591181635856628, -0.3510415852069855, 1.6863584518432617, 0.10383902490139008], [0.4803749620914459, 0.5658186078071594, -0.3758639097213745, -0.08020290732383728, -0.2860121428966522, 0.19183066487312317, -1.298262596130371, -0.4510914087295532], [0.4812163710594177, -0.8926976919174194, 0.2869420647621155, -0.15112823247909546, 0.2716585695743561, -0.0918610468506813, -1.3266687393188477, 0.1431819200515747], [0.2510197162628174, 0.6934416890144348, -0.07938136160373688, 0.7105199098587036, -1.3448939323425293, -0.24393922090530396, -1.5468255281448364, -0.4023430049419403], [-0.4837082028388977, 0.13296440243721008, -0.22653721272945404, 0.6582645177841187, -0.49784719944000244, 0.08733667433261871, 1.9890128374099731, -0.46107012033462524], [0.11556462943553925, -0.547846257686615, 0.03364942967891693, -0.6399691700935364, 0.17519725859165192, -0.03563905879855156, -0.7122734189033508, 0.08514580130577087], [0.23887132108211517, -0.6121922731399536, 0.10243286937475204, -0.17680218815803528, 0.45349276065826416, -0.3387659192085266, -0.8218235373497009, -0.3322536051273346], [0.521511435508728, -0.8099555969238281, 0.21893252432346344, 0.5450855493545532, -1.1349389553070068, 0.2575509250164032, 0.609607458114624, -0.300974041223526], [0.5898124575614929, -0.32403630018234253, -0.0743550956249237, 0.4234744906425476, -1.1108235120773315, 0.10992757230997086, 1.4352648258209229, -0.3413151800632477], [-0.23164395987987518, -0.16924142837524414, -0.3283221423625946, 0.037595439702272415, 0.06665757298469543, 0.19268570840358734, -3.2271101474761963, 0.33759403228759766], [-0.650187075138092, -0.1671680361032486, -0.07371265441179276, 0.15475612878799438, -0.021502917632460594, -0.5648338198661804, 1.599339246749878, 0.13821758329868317], [-0.16402563452720642, 0.35500115156173706, 0.15140986442565918, -0.5201196670532227, 0.4400175213813782, -0.0701206848025322, -1.3999435901641846, 0.04563909024000168], [0.15311884880065918, 0.24068927764892578, 0.050079330801963806, -0.26541125774383545, 0.09038073569536209, -0.39347168803215027, 1.9184694290161133, -0.023981917649507523], [0.011972752399742603, 0.010105911642313004, 0.03555229306221008, -1.016920566558838, -0.023228272795677185, 0.26169243454933167, 2.764904260635376, -0.41325515508651733], [-0.4672429859638214, 0.35922756791114807, -0.20760315656661987, 0.3451922535896301, -0.5927879214286804, 0.003237349446862936, 0.6976091861724854, 0.38337790966033936], [0.023472614586353302, 0.07336246222257614, -0.2132583111524582, 0.09580808132886887, -0.12829779088497162, 0.018969830125570297, -2.712218761444092, -0.6834362745285034], [0.15653128921985626, -0.14896683394908905, 0.004558767192065716, 0.3878483474254608, -0.5607200860977173, 0.2721630334854126, 0.45697104930877686, -0.033803511410951614], [0.17476598918437958, 0.7706548571586609, 0.15969526767730713, -0.4362044930458069, -0.4315941333770752, 0.08670729398727417, 1.5915663242340088, -0.22325821220874786], [-0.13997311890125275, -0.5719977021217346, -0.21226005256175995, 0.30524927377700806, 0.31159552931785583, -0.2486904263496399, 0.6542659401893616, -0.44294673204421997], [-0.5281720757484436, 0.43126603960990906, -0.04610113054513931, 0.5292075872421265, -0.5754467844963074, -0.1035470962524414, 0.05456722900271416, -0.21927113831043243], [-0.09180021286010742, -0.018113479018211365, 0.02244093082845211, -1.09895920753479, -0.35783305764198303, 0.1044754758477211, -0.20312081277370453, 0.019827041774988174], [-0.08609401434659958, 0.24451416730880737, 0.2718956470489502, -0.11519107967615128, 0.14907056093215942, 0.023765167221426964, -3.716578722000122, -0.10882209986448288], [-0.23524600267410278, -0.06622122973203659, 0.08565003424882889, 0.18466216325759888, -0.9454531669616699, 0.28624817728996277, -1.1571009159088135, -0.05359061807394028], [0.31032177805900574, -0.5682725310325623, -0.4343045651912689, 0.6132045388221741, -0.1391409933567047, 0.030103307217359543, -0.6884322166442871, -0.12291689962148666], [-0.1781150996685028, 0.3430270850658417, 0.24363280832767487, -0.20951952040195465, -0.7958666682243347, 0.14762119948863983, -1.492794156074524, -0.2407718300819397], [0.32742777466773987, 0.33550509810447693, 0.008061417378485203, -0.25227347016334534, -0.6839797496795654, 0.04143860191106796, -1.0852364301681519, 0.49740228056907654], [-0.6329399943351746, -0.04569149762392044, -0.6421255469322205, -0.16773125529289246, 0.36117300391197205, -0.28125280141830444, 0.7738755345344543, -0.2493172436952591], [-0.44003310799598694, 0.37179261445999146, 0.3329637348651886, 0.13160440325737, 0.24889543652534485, 0.13066768646240234, -2.372065782546997, -0.09077148884534836], [-0.010677965357899666, -0.0230815839022398, 0.04932866618037224, 0.15010923147201538, 0.1178290992975235, 0.04553522914648056, 0.4385424554347992, -0.5519471168518066], [-0.059161730110645294, -0.7022979259490967, 0.1566070169210434, -0.9063965082168579, 0.35855719447135925, 0.17746146023273468, 0.6846664547920227, -0.45766177773475647], [-0.13411903381347656, 0.4889398217201233, -0.042480677366256714, -0.2805080711841583, 0.31638044118881226, -0.06974289566278458, 0.5821747183799744, 0.8188609480857849], [0.008691119961440563, -0.4019103944301605, 0.11033688485622406, -0.056212328374385834, -0.09893372654914856, 0.020314930006861687, -1.5273029804229736, 0.22657980024814606], [0.0722268745303154, -0.48102569580078125, -0.09510500729084015, -0.7403359413146973, 0.07858840376138687, -0.17342065274715424, 0.0697702169418335, -0.7408542037010193], [-0.28355923295021057, -0.15738894045352936, -0.0028763781301677227, -0.6728980541229248, -0.19948892295360565, 0.5682238936424255, -1.7547967433929443, -0.8199429512023926]], "fc1.bias": [0.7577971816062927, 0.48608723282814026, 0.11744783818721771, -0.8238391280174255, 0.34018492698669434, 0.13941863179206848, -0.19358991086483002, 0.3032646179199219, -0.18133307993412018, 0.5333133935928345, -0.03838411346077919, -0.5883156657218933, 0.1391981840133667, 0.4177674949169159, 0.3811480402946472, 0.5385088920593262, -0.5215451121330261, -0.09121548384428024, -0.6355823278427124, -0.04845212772488594, -0.3123190402984619, -0.11434220522642136, 0.4582992196083069, 0.3115062415599823, -0.07148949056863785, -0.00962432473897934, -0.15001986920833588, 0.16227591037750244, 0.3779085874557495, -0.38318517804145813, -0.0474824495613575, 0.08540693670511246, -0.2194495052099228, -0.36480119824409485, 0.3440568745136261, -0.43936556577682495, 0.18021553754806519, 0.02668825536966324, -0.39422911405563354, -0.5727481842041016, 0.4507777690887451, -0.2827668786048889, -0.10367827862501144, -0.5443702340126038, -0.2973211109638214, 0.2340541034936905, -0.21160978078842163, -0.3539079427719116, -0.5266730785369873, -0.5038615465164185, 0.4692310690879822, 0.12569354474544525, 0.009544667787849903, -0.460223525762558, -0.11740920692682266, -0.5138140320777893, -0.5924721360206604, 0.06290216743946075, -0.17774038016796112, 0.1772715300321579, 0.24376364052295685, 0.35662561655044556, -0.5580673813819885, -0.24140658974647522, 0.49333545565605164, 0.16551977396011353, -0.15495838224887848, 0.13065779209136963, 0.04279247671365738, -0.5047534704208374, -0.5863289833068848, 0.0646393746137619, -0.06881912797689438, -0.1682358980178833, -0.37614867091178894, 0.0775112584233284, 0.234053835272789, -0.10751745849847794, 0.42356592416763306, 0.17196574807167053, -0.3056475520133972, -0.47642552852630615, 0.5610525012016296, 0.5129916667938232, -0.5824097394943237, -0.7124948501586914, -0.2403343766927719, 0.392978698015213, -0.03188310191035271, 0.19243714213371277, -0.6093688011169434, 0.046004388481378555, 0.002367882989346981, -0.4235033690929413, -0.32576984167099, -0.5316850543022156, -0.05827052518725395, -0.41863080859184265, -0.10556763410568237, 0.4835764467716217, -0.7654054164886475, -0.36802858114242554, -0.21936829388141632, -0.1770249605178833, -0.08898214250802994, -0.09577248990535736, -0.21180108189582825, -0.1256893277168274, -0.016090642660856247, 0.3689989447593689, -0.4851000905036926, -0.2501921057701111, -0.36716723442077637, 0.14709977805614471, 0.778188169002533, -0.38563433289527893, 0.3229061961174011, -0.3538695275783539, -0.13581976294517517, -0.32433822751045227, -0.544611930847168, -0.30874577164649963, 0.3345341980457306, -0.3356126844882965, -0.5322133302688599, 0.4858820140361786, -0.37643733620643616, -0.25286003947257996], "fc2.weight": [[-0.033721134066581726, -0.2215692102909088, 0.08657108247280121, -0.621509313583374, 0.09774571657180786, 0.4775317907333374, 0.02123711071908474, -0.03556353971362114, 0.1702442318201065, 0.1675165295600891, -0.11210652440786362, -0.8159769177436829, -0.1686192899942398, 0.07338649034500122, -1.3144233226776123, 0.17224733531475067, 0.08929669857025146, -0.3276804983615875, 0.07661694288253784, 0.9679771065711975, 0.12666070461273193, 0.026894690468907356, 0.2528185248374939, 0.47078800201416016, 0.7000110745429993, 0.17420916259288788, 0.2112932801246643, -0.7676138281822205, 0.013761737383902073, -0.38244667649269104, -0.4102250039577484, -0.4485182464122772, 0.10780887305736542, 0.06876189261674881, 0.2824489176273346, -0.7804932594299316, -2.463366746902466, -0.603758692741394, 0.18813200294971466, -0.22055470943450928, -0.15890176594257355, -0.1927843540906906, 0.06220077723264694, -0.211757093667984, 0.0306081622838974, 0.01808623969554901, 0.22115252912044525, 0.37373968958854675, 0.035847075283527374, -0.8235471844673157, 0.6082891225814819, 0.13005736470222473, 0.08334900438785553, -0.10625560581684113, 0.4426621198654175, 0.08392885327339172, -0.7590286731719971, 0.26064106822013855, 0.23890629410743713, -0.07582075148820877, -0.6480217576026917, 0.0925074964761734, -0.06234704330563545, 0.7279300689697266, -0.8106803297996521, 0.12665900588035583, -0.04884425550699234, 0.10749001801013947, 0.09581734240055084, -0.046376075595617294, 0.4288378357887268, -0.09438551962375641, 0.05354934185743332, 0.42067810893058777, 0.3472989499568939, 0.03109494410455227, 0.3134978711605072, 0.30941450595855713, 0.26516297459602356, -0.3986753523349762, -0.15561628341674805, -0.23258204758167267, -0.46142303943634033, -1.172776460647583, -0.026428386569023132, -0.10012860596179962, 0.534948468208313, -0.053131405264139175, 0.15284185111522675, -0.5428120493888855, 0.08250214159488678, -0.3899068534374237, 0.30172106623649597, -1.1282594203948975, -0.940751314163208, -0.5179269313812256, -0.03541210666298866, -0.02053423598408699, -1.7977259159088135, 0.2979011833667755, -1.011839747428894, -0.0751955658197403, 0.2499636709690094, 0.017068812623620033, 0.3559505343437195, 0.11277525126934052, 0.019612828269600868, -0.9460590481758118, 0.028710907325148582, -0.040599275380373, 0.21063412725925446, -0.6298391819000244, 0.11502467095851898, 0.07536912709474564, 0.3687700927257538, 0.42680424451828003, 0.3768473267555237, 0.005376796238124371, 0.3487972617149353, 0.07535232603549957, -0.3632112741470337, 0.3044615685939789, -1.560394287109375, -0.3537949025630951, -0.22927096486091614, 0.2520275413990021, -0.10425090789794922, -1.999254822731018], [-0.07572202384471893, -0.05650525167584419, -0.030289413407444954, -0.056141000241041183, 0.061929911375045776, 0.029078073799610138, -0.08620169758796692, 0.02294722944498062, -0.09943094104528427, 0.02361714094877243, -0.0770014300942421, 0.051497530192136765, 0.02221374772489071, 0.044224873185157776, -0.06957942247390747, -0.051343053579330444, 0.015976356342434883, 0.07484324276447296, -0.05912242457270622, -0.052517931908369064, -0.035980984568595886, -0.07966453582048416, -0.07906597852706909, 0.03772211819887161, 0.0118672214448452, -0.026871582493185997, 0.05396493896842003, -0.08622846007347107, -0.09459656476974487, -0.005243321415036917, -0.022326365113258362, -0.02450278401374817, -0.024067897349596024, -0.0609176829457283, 0.010484850965440273, 0.0027886738535016775, 0.039989691227674484, 0.025822240859270096, -0.011844203807413578, 0.011791551485657692, 0.0680156797170639, -0.05718421936035156, -0.07575482875108719, 0.0231778584420681, -0.09984522312879562, -0.009649782441556454, 0.0601290799677372, 0.02514660730957985, 0.04912766441702843, 0.0592520572245121, 0.021985599771142006, -0.08446520566940308, -0.03100304864346981, -0.07247989624738693, 0.02653651498258114, 0.024545494467020035, -0.0937412679195404, -0.011281918734312057, 0.07594572752714157, 0.004448872059583664, -0.027927560731768608, -0.0327746719121933, 0.014488555490970612, 0.015778301283717155, -0.09039667993783951, 0.05631708726286888, -0.07860534638166428, 0.016613870859146118, -0.07639501243829727, -0.0357917845249176, 0.027734657749533653, -0.08369244635105133, -0.033247508108615875, -0.06194180250167847, 0.08026845753192902, -0.07353505492210388, -0.029454335570335388, -0.030546998605132103, 0.020855795592069626, 0.04476494342088699, 0.0706469938158989, -0.08966538310050964, -0.09630019217729568, -0.030834918841719627, -0.01639477163553238, -0.0542701855301857, -0.09782809019088745, -0.002426873194053769, 0.02658437006175518, -0.06233258545398712, 0.05902142450213432, 0.04714392498135567, 0.06757355481386185, -0.04805901274085045, 0.04190356284379959, -0.06835140287876129, -0.02142341434955597, 0.053269971162080765, 0.03709100931882858, 0.00042731728171929717, -0.09272409230470657, 0.04356066510081291, 0.02950834296643734, 0.07749103754758835, -0.02730591781437397, 0.05788884684443474, 0.04547683894634247, 0.0004158332303632051, -0.04419616237282753, 0.017559325322508812, 0.012635020539164543, -0.0476163886487484, 0.06392407417297363, -0.00939096324145794, 0.03466774523258209, -0.001650007558055222, 0.03978953883051872, -0.061471126973629, -0.036203645169734955, -0.030564220622181892, -0.015731679275631905, -0.09696625918149948, -0.08387395739555359, 0.003271054942160845, -0.11602388322353363, -0.04179004952311516, -0.06018740311264992, 0.04454938694834709], [-0.37216201424598694, 0.09669182449579239, 0.2208438366651535, 0.34277790784835815, 0.16658782958984375, -0.030542073771357536, 0.2450941950082779, 1.417475938796997, -0.10427255928516388, -0.24746377766132355, -0.4416159987449646, 0.10662741959095001, -1.6344290971755981, 0.3393348753452301, 0.16513627767562866, 0.4483540952205658, -0.32578620314598083, 0.1455484926700592, -0.8254619240760803, -0.1837978959083557, 0.12371010333299637, -0.7358574867248535, -0.0314851850271225, -0.40646499395370483, 0.10059574246406555, -0.018800973892211914, 0.10649067908525467, 0.013804048299789429, 0.14948660135269165, 0.5371909141540527, -0.2829180955886841, -0.961381196975708, -0.176048144698143, 0.12292827665805817, -0.13280804455280304, 0.0386720709502697, -0.022878462448716164, -0.13563987612724304, 0.01879088580608368, 0.45351219177246094, -0.029942123219370842, 0.13541395962238312, -2.2344002723693848, -0.18309178948402405, 1.1226210594177246, -0.5430579781532288, 0.23215940594673157, 0.01936456747353077, -0.413826048374176, 0.03972995653748512, 0.019721703603863716, 1.276591181755066, -0.37417072057724, -0.17659632861614227, -0.7148871421813965, -0.06789157539606094, 0.1654714047908783, -0.7520771026611328, -0.08271058648824692, 0.7546197772026062, -0.10409713536500931, 0.07371409982442856, 0.358568012714386, 0.5581344366073608, 0.060439255088567734, 0.0178341306746006, 1.1602853536605835, -0.4948698580265045, -0.6029683947563171, 0.7956835627555847, 0.15919998288154602, -0.10694024711847305, -1.8736950159072876, 0.3748686909675598, -1.8229795694351196, -0.252201646566391, 0.13230127096176147, -0.15875983238220215, 0.2339225709438324, 0.14070969820022583, 0.1935897171497345, 0.15562796592712402, 0.049566738307476044, 0.007819430902600288, 0.17120149731636047, -0.22669163346290588, 0.3744211494922638, -0.1794940084218979, 0.024235546588897705, 0.07236989587545395, 0.2185421586036682, 0.006167646497488022, -0.25995126366615295, 0.20181018114089966, -0.1399504542350769, -0.024126384407281876, -0.9216277599334717, -0.028477244079113007, -0.09624608606100082, 0.2479398101568222, -0.1426132172346115, -0.16072171926498413, 0.005402060691267252, 0.8908106684684753, -0.22540514171123505, 0.3055489659309387, 0.009534536860883236, 0.11783891916275024, -2.048466444015503, -0.008937729522585869, -0.596531331539154, 0.4112183451652527, 0.0079139219596982, 0.21331137418746948, -0.30589836835861206, 0.06427440792322159, -0.39456355571746826, -0.09987763315439224, -0.06372228264808655, -1.3191344738006592, 0.6258967518806458, 0.06453999131917953, 0.1429281085729599, 0.3471388518810272, 1.0092344284057617, -0.31653928756713867, 0.009645572863519192, 0.2141706645488739], [0.949600100517273, 0.22117061913013458, -0.018614403903484344, 0.2601880729198456, -0.3644121289253235, -0.014085058122873306, 0.3203941881656647, 0.3018755614757538, -0.276579886674881, 0.4404554069042206, 0.49436870217323303, -0.08991501480340958, -1.2896959781646729, -1.9864094257354736, -0.1871354579925537, -0.035603415220975876, -0.1231217235326767, 0.8569437265396118, -0.4560776948928833, 0.6310674548149109, -0.9104061722755432, -0.9070267677307129, -0.2564380466938019, -0.05507541447877884, 0.1833614856004715, -0.579696774482727, -0.15036773681640625, -0.05323981121182442, -0.1089872494339943, 0.03455913066864014, 0.5254631042480469, 1.03969407081604, -0.2026757150888443, -0.2091626077890396, -0.46516644954681396, -0.008031141944229603, 0.34787413477897644, 0.00827693846076727, -0.3035711646080017, -0.40032604336738586, 0.03214969485998154, 0.22425305843353271, -0.942062258720398, -1.1365259885787964, -0.8862003087997437, 0.942122220993042, 0.026983700692653656, -0.0023745771031826735, -0.20508919656276703, -0.3453112840652466, 0.42832744121551514, 0.5075831413269043, -0.3267534077167511, 0.8180171847343445, -0.10158133506774902, 0.16123874485492706, 0.14479568600654602, -0.1297559142112732, -0.12564074993133545, -0.02511574700474739, -0.14708632230758667, 0.08235141634941101, -0.6002516150474548, -0.07240013778209686, -0.11427765339612961, -0.0786626860499382, -0.1063990518450737, -0.5281979441642761, 0.05278085917234421, -1.0165846347808838, -0.40184924006462097, -0.3446204662322998, -0.6030341386795044, -0.10341041535139084, -0.001369600067846477, -1.9071301221847534, -0.8165839314460754, 0.25358399748802185, 0.13460741937160492, 0.01690230332314968, 0.09720754623413086, 0.22747915983200073, 0.1180158257484436, 0.18306462466716766, -0.275952011346817, -0.41703441739082336, 0.001117293955758214, -0.5915370583534241, -0.6601704955101013, -0.3888527750968933, -0.22462037205696106, -0.012853500433266163, -0.44409677386283875, -0.013616605661809444, -0.19980934262275696, 0.040151163935661316, -1.2215033769607544, 0.3572450876235962, 0.13950492441654205, -1.4405267238616943, -0.17996744811534882, 0.4835236668586731, 0.051068246364593506, 0.8196737766265869, -0.6532604098320007, -0.3332575857639313, -0.29532590508461, -0.0636632964015007, -1.3501311540603638, 0.038572873920202255, 0.6661617159843445, 0.3613915741443634, -0.39854392409324646, 0.24468094110488892, 0.2617388367652893, 0.02200780063867569, 0.07717959582805634, -0.3641364574432373, -0.3723219335079193, 0.3654129207134247, -0.29455092549324036, -0.34995564818382263, -0.1273665726184845, 0.14460505545139313, -0.20760577917099, -1.220460057258606, 0.026457253843545914, -0.14213597774505615], [-0.04490914195775986, 0.04289829358458519, -0.1089230477809906, -0.0365530326962471, -0.05524833872914314, 0.06069541350007057, -0.010606984607875347, -0.13704845309257507, -0.09979239851236343, -0.1124955415725708, -0.07391373068094254, -0.1016460508108139, -0.03798432648181915, 0.045876696705818176, -0.06390438973903656, -0.08965455740690231, -0.09151137620210648, -0.14354130625724792, -0.027045544236898422, 0.030292218551039696, -0.11622398346662521, -0.04186286777257919, -0.01279769279062748, -0.03542628511786461, 0.02876408025622368, -0.033981744199991226, 0.011415744200348854, -0.04831503704190254, -0.12894365191459656, 0.05406725034117699, 0.004663755651563406, 0.004013418685644865, -0.0024333628825843334, -0.16194012761116028, -0.07312827557325363, 0.04085095599293709, -0.10926374793052673, -0.06035112217068672, -0.12172552198171616, -0.0337129570543766, -0.05664502829313278, -0.1160140186548233, -0.01666780561208725, -0.0757642313838005, 0.011076024733483791, -0.03263337165117264, -0.11460701376199722, -0.1550995409488678, -0.04360751435160637, -0.06604468822479248, -0.05755908414721489, -0.0645754486322403, 0.03954043239355087, 0.017845449969172478, -0.027254672721028328, -0.13037343323230743, 0.005038021132349968, -0.0901380404829979, -0.1366296112537384, -0.010165751911699772, -0.05396467074751854, 0.015713589265942574, -0.0033848010934889317, -0.08555342257022858, -0.012742122635245323, 0.0077152862213552, -0.056539516896009445, -0.050658710300922394, -0.06382696330547333, -0.06539881229400635, -0.01034429669380188, -0.0013268650509417057, -0.08763229101896286, -0.05484044924378395, -0.0608137771487236, -0.011448794975876808, -0.04665793851017952, -0.11647889018058777, 0.044017862528562546, 0.011874273419380188, -0.03666289895772934, -0.08667159080505371, -0.11681677401065826, -0.07468262314796448, -0.09245109558105469, 0.030922120437026024, -0.015448967926204205, 0.023323548957705498, -0.1586022675037384, -0.12554079294204712, -0.1053466722369194, 0.05692990496754646, -0.05445277318358421, 0.0012954839039593935, -0.05407514050602913, -0.04999752342700958, -0.007088933140039444, -0.05714629963040352, -0.01882999576628208, -0.049941614270210266, -0.1524135172367096, 0.06908952444791794, -0.10445540398359299, -0.07073504477739334, -0.08971546590328217, -0.029540160670876503, -0.05464985966682434, -0.049310971051454544, -0.13947425782680511, -0.0859515443444252, -0.023082545027136803, 0.11797479540109634, -0.09581944346427917, 0.029763322323560715, 0.02241995558142662, -0.10122416913509369, -0.10940640419721603, -0.04664279520511627, -0.09941678494215012, -0.0859019085764885, -0.0986609011888504, 0.032315801829099655, -0.08553755283355713, -0.02475941739976406, -0.033564962446689606, -0.1671396791934967, -0.11965551972389221, 0.02363533526659012], [0.7277793884277344, -0.34070712327957153, 0.1690802276134491, -0.9973597526550293, 0.13032148778438568, -0.39315950870513916, -0.032005440443754196, 0.4046820104122162, -0.13762861490249634, 0.33133286237716675, -0.27165818214416504, -0.23152095079421997, 0.18701162934303284, -0.13083608448505402, -0.2803157567977905, 0.4159593880176544, -0.16354750096797943, -0.26185640692710876, -1.0282005071640015, 0.3793447017669678, -0.16374985873699188, 0.12408670037984848, 0.1920592486858368, -0.800541341304779, 0.10567961633205414, 0.2634788155555725, 0.3059934079647064, -0.30740103125572205, 0.5184397101402283, -1.8240090608596802, 0.20058487355709076, 0.5899291634559631, 0.06721440702676773, 0.2886562943458557, -0.10418131202459335, -1.6077141761779785, -0.3590702712535858, -1.127545714378357, -0.044516488909721375, 0.23072203993797302, 0.30001771450042725, -1.7919962406158447, -0.267997682094574, 0.498976469039917, -0.03347177058458328, 0.11104224622249603, 0.37486532330513, -0.7681679129600525, -0.11864951997995377, -0.16245348751544952, 1.238342046737671, -0.13737672567367554, -0.24916338920593262, 0.45551446080207825, -0.13383471965789795, -0.07360699772834778, 0.7671242952346802, -0.1733212172985077, -0.2806249260902405, 0.15914665162563324, 0.03489366173744202, 0.3290407955646515, -0.17591097950935364, 0.06759792566299438, -0.06815654039382935, 0.20761220157146454, 0.07160596549510956, 0.09536158293485641, -0.24266289174556732, -0.7787293195724487, -0.30755332112312317, 0.13018712401390076, 0.184563547372818, 0.4659184515476227, -0.5491878986358643, 0.05382956936955452, 0.6177324056625366, 0.40158289670944214, -0.02955956570804119, -0.9529574513435364, 0.11200470477342606, 0.22361618280410767, -0.037962403148412704, 0.27879536151885986, 0.2248813360929489, -1.7218375205993652, -0.8602872490882874, -0.0017730600666254759, -0.20857207477092743, 0.06575289368629456, -1.0576175451278687, -1.257022738456726, -0.31249573826789856, -0.14468041062355042, -0.385292112827301, -0.9763704538345337, 0.09326688945293427, -1.1167632341384888, -1.639256238937378, 0.22320398688316345, -0.31546661257743835, 0.014908993616700172, 0.4077451229095459, 0.14453929662704468, -0.20790451765060425, -0.0159463994204998, -0.1679934412240982, 0.004783355165272951, -0.26656535267829895, -0.059350039809942245, -0.02492942474782467, 0.13684752583503723, 0.3487206995487213, 0.33316296339035034, 0.3227374255657196, -0.2501319646835327, 0.2790089249610901, -0.6931992769241333, 0.04745524749159813, 0.10151716321706772, 0.18780829012393951, -0.09939249604940414, -0.4405328929424286, -1.010134220123291, -0.9063671231269836, 0.26101744174957275, -1.837364912033081, -1.4557414054870605], [0.3003683090209961, 0.051092810928821564, -0.1031334325671196, -2.0377092361450195, 0.13680705428123474, -0.7884269952774048, -0.24288412928581238, -0.6107866168022156, -0.029037971049547195, -0.3868686258792877, 0.24418401718139648, -0.5891166925430298, -0.3931763768196106, -0.25042474269866943, 0.08083789795637131, 0.004262273199856281, 0.3168496787548065, 0.1624491661787033, 0.20524194836616516, -0.20771567523479462, -0.16552644968032837, -0.048396386206150055, -0.4190545380115509, 0.16244590282440186, -0.014897502027451992, 0.09135869145393372, -0.5585481524467468, 0.07393138110637665, -0.3997418284416199, 0.08238054811954498, 0.3786352872848511, -0.03036561608314514, 0.1389494687318802, -1.3393458127975464, 0.20784297585487366, 0.1170569509267807, -0.15248198807239532, -0.23011811077594757, -0.20717960596084595, -1.7108803987503052, 0.06772354990243912, -0.3698793351650238, -0.5091511011123657, 0.06540133059024811, -0.0390549898147583, -0.15680474042892456, 0.05714058876037598, 0.4681569039821625, -0.11971354484558105, 0.005342898424714804, -0.44709500670433044, 0.15443919599056244, 0.1590074896812439, -0.506437361240387, 0.20653247833251953, -0.18155385553836823, -0.6020305156707764, 0.08356548100709915, 0.042588964104652405, 0.08023785799741745, 0.07239430397748947, -0.0022508027032017708, 0.24566444754600525, -0.11991411447525024, 0.2727517783641815, 0.20303858816623688, -0.004732385743409395, 0.14881911873817444, -0.6967344284057617, 0.04825236275792122, -0.18851444125175476, 0.09343278408050537, 0.08397842198610306, -0.3155941367149353, -2.600451946258545, -0.0612257681787014, -1.328420877456665, 0.16473878920078278, 0.04694173112511635, -0.22616803646087646, -1.0155764818191528, -0.10629275441169739, 0.014000987634062767, -0.013431715779006481, -0.12261874973773956, 0.19758237898349762, 0.1959877759218216, 0.46077290177345276, -0.1168908029794693, 0.06988047063350677, 0.2412005513906479, 0.27901458740234375, 0.003421563422307372, 0.2202494889497757, -1.9138069152832031, 0.07406926155090332, 0.1902402639389038, -0.3619384169578552, -0.6334214210510254, -0.025937674567103386, 0.08815953880548477, -0.051062606275081635, 0.5037612318992615, -1.1117994785308838, 0.008278005756437778, -0.026083173230290413, 0.41457533836364746, 0.3958103358745575, -0.5291668176651001, -0.41214248538017273, 0.06509033590555191, 0.18425248563289642, 0.4618035554885864, -0.2339199036359787, 0.17894548177719116, -0.07843222469091415, 0.1771157681941986, -1.4864567518234253, 0.002073846757411957, 0.12886013090610504, 0.3993530869483948, -0.25313684344291687, 0.27136263251304626, -0.4442268908023834, -0.017119329422712326, 0.019057469442486763, -2.088061571121216, -0.0697794035077095], [-0.4250107705593109, 0.1431998312473297, -0.5765956044197083, 0.23192209005355835, 0.15478254854679108, -0.1308961808681488, -0.16354545950889587, 0.6214100122451782, -0.007240167818963528, 0.07992416620254517, 0.07038664817810059, -0.1940995305776596, -0.6344340443611145, 0.1631004959344864, 0.14059482514858246, -0.07118066400289536, -0.46162235736846924, 0.1294814497232437, -0.18847088515758514, -0.19843639433383942, 0.2224653959274292, 0.5951637029647827, -0.15917599201202393, 0.07149799913167953, -1.7198495864868164, 0.019292615354061127, -0.5796250104904175, 0.24767738580703735, 0.6096987724304199, 0.2449903041124344, 0.21145443618297577, -0.3523912727832794, 0.16621819138526917, -1.2394987344741821, -0.018411971628665924, 0.00011194512626389042, -1.0071194171905518, 0.0652143582701683, -0.06910223513841629, -2.4058406352996826, 0.14307734370231628, -0.2546321451663971, -1.5060930252075195, -1.2812103033065796, -0.06593208014965057, -2.341099739074707, -0.5444654226303101, -1.2103382349014282, 0.3797380328178406, -0.6938981413841248, -0.2743537425994873, -0.022148337215185165, 0.0542064905166626, -1.4692999124526978, -1.5905803442001343, -0.34865474700927734, -0.18810252845287323, -0.551191508769989, -1.3385974168777466, 0.1741979420185089, 0.2107589989900589, 0.03111986815929413, 0.18117475509643555, 0.05837308615446091, 0.2619274854660034, 0.09709280729293823, 0.4214753210544586, -0.04354257881641388, 0.2140834480524063, -0.05740191787481308, -0.21304574608802795, -0.48985329270362854, -0.12459558993577957, -0.30483150482177734, -0.047091830521821976, -0.03919670358300209, -1.3060574531555176, -0.2893674671649933, -0.13886800408363342, 0.1464981585741043, -0.12563875317573547, 0.04891946539282799, 0.19461047649383545, -0.0521303229033947, -1.2255967855453491, -1.7028108835220337, 0.053331535309553146, -0.934550404548645, -0.2952374517917633, -0.010757763870060444, 0.22312340140342712, 0.14166413247585297, 0.07555403560400009, 0.020130522549152374, 0.18921862542629242, -1.3127448558807373, -0.5680238604545593, -0.20392581820487976, -0.2896239161491394, -0.06957783550024033, 0.017519084736704826, 0.1616799384355545, -0.1970881074666977, -1.7875442504882812, -0.857764482498169, 0.034431830048561096, -0.0437745600938797, 0.3117564618587494, -1.5333055257797241, -0.048604611307382584, 0.31881004571914673, 0.12315857410430908, -1.0028411149978638, 0.09832517057657242, 0.24024291336536407, 0.22469466924667358, -0.10619162023067474, -0.1739375740289688, -0.003614376299083233, -0.19051752984523773, -0.25059056282043457, 0.22784323990345, 0.12112650275230408, -0.10685388743877411, -0.5677897930145264, -0.34770795702934265, 0.3765743672847748, -0.4423956573009491], [0.8412869572639465, -0.25635701417922974, 0.052079442888498306, -0.09940366446971893, 0.06011936813592911, 0.5414655804634094, -0.5368887186050415, -0.1300382912158966, -0.901364803314209, -0.5881155729293823, 0.1982751041650772, 0.14942221343517303, 0.14083470404148102, 0.00449698930606246, 0.1373104602098465, 0.19198817014694214, 0.5492494106292725, -0.356004536151886, -0.5275490880012512, 0.6754093766212463, -1.1567128896713257, -3.1215264797210693, -0.02409239672124386, -0.5821044445037842, -0.011986753903329372, -0.7063109874725342, -0.43715956807136536, 0.2883927822113037, -1.085640549659729, -0.3593592941761017, -1.1248652935028076, 0.14791548252105713, -0.28967633843421936, -1.040418267250061, 0.30729588866233826, -0.846930980682373, 0.1442500203847885, 0.15227514505386353, -0.6597827076911926, 0.15718600153923035, 0.1875973790884018, 0.14853812754154205, -0.43841320276260376, -0.3218710720539093, -0.1054433286190033, -0.9185135364532471, 0.06006108969449997, -0.42960065603256226, 0.219411700963974, -0.4774056077003479, -0.33640456199645996, 1.0548559427261353, -1.1308894157409668, -0.42339858412742615, 0.09769564121961594, 0.10307556390762329, -0.6513115763664246, 0.6900613903999329, -0.977549135684967, 0.0335746705532074, 0.04833564534783363, -0.6393629908561707, -0.48584720492362976, -0.12910735607147217, 0.08499717712402344, 0.20454299449920654, -0.1612253338098526, -0.18866212666034698, -0.9814462065696716, -0.0380946546792984, -0.18336117267608643, -0.01156175322830677, -0.16968423128128052, -1.3932403326034546, -0.8974907398223877, 0.026873884722590446, -0.08457103371620178, 0.05070799961686134, 0.25288882851600647, -0.22483056783676147, -0.6179409027099609, -1.282238245010376, 0.1942927986383438, -1.3817570209503174, -0.02675497904419899, -1.64248788356781, -0.4584888517856598, 0.044801123440265656, -0.46472030878067017, 0.25366175174713135, 0.4228539764881134, 0.22930790483951569, -0.9725611805915833, -0.34379109740257263, -0.8470779657363892, 0.5093513131141663, 0.21077662706375122, -0.4381367862224579, -1.0818299055099487, 0.32415688037872314, -0.769515335559845, 0.38760676980018616, 0.9084268808364868, -0.15880165994167328, 0.1055363267660141, -0.2598356008529663, 0.08672003448009491, -1.309256672859192, -1.1489448547363281, 0.591354250907898, 0.06804399937391281, -0.6063891053199768, -0.09412642568349838, -0.2614733576774597, 0.38544341921806335, -0.24909228086471558, -0.38468697667121887, -0.20889295637607574, -1.5092082023620605, 0.4802645742893219, -0.6798232197761536, -0.08393421024084091, 0.033756740391254425, -0.695609986782074, 0.280996710062027, 0.28756895661354065, -2.737856864929199, -1.8793855905532837], [0.12319008260965347, 0.19828078150749207, 0.3414709270000458, -2.2671749591827393, 0.23275789618492126, 0.15099021792411804, -0.42249155044555664, 0.1005396917462349, 0.01921212673187256, 0.2711794376373291, 0.3070199191570282, -0.8853715062141418, -0.3481254577636719, -0.14092350006103516, 0.05716773122549057, 0.2700415253639221, -0.3242354691028595, -0.4916045069694519, 0.22139932215213776, -0.19865557551383972, 0.26537734270095825, 0.0318918414413929, -0.0014614785322919488, -0.4517443776130676, -1.2183959484100342, 0.2725653052330017, -0.9794930219650269, -0.22182901203632355, 0.1355047971010208, -1.516678810119629, 0.6540837287902832, -0.6456796526908875, 0.22671517729759216, 0.0744866281747818, 0.01760723628103733, 0.14492584764957428, 0.12019410729408264, 0.2706710994243622, -0.06251286715269089, -0.2813683748245239, 0.2507326304912567, 0.2644309103488922, -0.26499420404434204, -0.33945438265800476, 0.2862582802772522, -0.41391897201538086, 0.715748131275177, -0.16070930659770966, -0.600495457649231, -1.3048797845840454, -0.1870158612728119, -0.03635106235742569, 0.4426368772983551, -0.6589279770851135, 0.1472512036561966, 0.9910533428192139, -0.2805750370025635, -0.8923007845878601, -0.7092838883399963, 0.22160367667675018, -0.052805718034505844, 0.14294245839118958, -0.10082218050956726, -0.15281862020492554, 0.26671889424324036, 0.32784396409988403, 0.04069186747074127, 0.116163469851017, -1.000092625617981, -0.8184052109718323, -0.12434229999780655, 0.016035228967666626, 0.22096684575080872, -1.6922136545181274, -0.6372983455657959, -1.2931593656539917, -0.5166563987731934, 0.6206857562065125, -0.797179102897644, 0.06515814363956451, -1.7388378381729126, 0.013659942895174026, 0.19293008744716644, -0.3891296088695526, -0.013874747790396214, -0.5188087821006775, 0.05172737315297127, -0.024377398192882538, 0.06856375932693481, 0.34736964106559753, -0.3791693449020386, 0.37797075510025024, -0.011824318207800388, 0.22644665837287903, 0.05790562555193901, 0.1638273149728775, 0.21792681515216827, 0.598058819770813, 0.4004259407520294, -0.36779841780662537, -0.8937863111495972, -0.5077322125434875, 0.14181965589523315, 0.07997570931911469, -0.6101845502853394, -0.6368876695632935, -0.4153393805027008, -0.3601265847682953, -0.1812543421983719, 0.31649699807167053, 0.11076048761606216, -0.5856786966323853, -0.1680516004562378, 0.057240717113018036, -0.5415904521942139, -1.2168809175491333, -0.07366770505905151, -0.23974952101707458, 0.37807998061180115, -0.11753132939338684, 0.03287706896662712, -0.5624011158943176, -0.3969978392124176, 0.3559160530567169, -0.18368951976299286, -0.12019188702106476, -1.4326143264770508, -0.21207042038440704], [0.40062421560287476, -0.24478821456432343, 0.29066115617752075, -0.7896157503128052, 0.20394687354564667, 0.06680871546268463, -0.705411434173584, 0.47183987498283386, -0.4787372648715973, 0.2373974621295929, 0.2869785726070404, -1.4594752788543701, -0.1345188319683075, 0.3445199728012085, 0.040688078850507736, 0.1787470579147339, -0.6752582788467407, 0.04078369960188866, -1.043404459953308, 0.015726672485470772, -0.3043535351753235, 0.6249448657035828, 0.20044967532157898, -0.22717836499214172, 0.19167020916938782, -0.43998000025749207, 0.4321497082710266, 0.17071932554244995, -0.012056279927492142, 0.18706108629703522, 0.6262143850326538, 0.15178047120571136, -0.119082011282444, -0.3627505898475647, 0.253661572933197, -0.1681976020336151, -0.309430330991745, -0.15728247165679932, -0.1600009799003601, -0.22242166101932526, 0.19391891360282898, -0.9904035925865173, -0.20729590952396393, -0.02607707493007183, 0.22886094450950623, -0.9756098985671997, 0.12661691009998322, -0.15533575415611267, -0.5759664177894592, -0.07550187408924103, -0.015296438708901405, -0.6895914077758789, -0.2776012420654297, -0.2583794891834259, -3.6805622577667236, -0.01866474375128746, -0.05941713601350784, -0.003711519530043006, -1.0447419881820679, -0.579801082611084, 0.21888402104377747, -0.30882203578948975, 0.232363760471344, -0.5673540234565735, 0.07720400393009186, 0.24946418404579163, 0.10078292340040207, 0.07551748305559158, 0.06173115223646164, -0.1470099836587906, 0.08992521464824677, 0.13693277537822723, 0.0777650699019432, -0.3622552156448364, -1.2771416902542114, -0.10460349172353745, 0.9944092035293579, -0.4374064803123474, 0.47911837697029114, 0.10983742028474808, -0.029418516904115677, 0.03544400632381439, 0.16089630126953125, -0.0874563455581665, 0.03640584647655487, -1.941070318222046, -0.7104690074920654, 0.025768093764781952, -0.3094242811203003, 0.098581463098526, -0.17413711547851562, 0.09849672764539719, 0.32175227999687195, -0.09510339796543121, 0.2931582033634186, -0.25275424122810364, 0.06989537924528122, -0.0013428665697574615, -0.24890750646591187, 0.22312846779823303, 0.04457005485892296, -0.6552559733390808, 0.19139394164085388, -0.8546321988105774, -0.006992972921580076, 0.27737876772880554, 0.06374001502990723, -0.9383365511894226, -0.5314328670501709, 0.04367190599441528, -0.013017918914556503, -0.40309202671051025, 0.22211907804012299, -0.3664478063583374, 0.2805035710334778, -0.04456883296370506, -0.46519413590431213, 0.4585970342159271, -0.7905482649803162, -0.6089293360710144, -0.17845509946346283, -0.06993371248245239, -0.10066945105791092, -0.7455679178237915, -0.4558219611644745, 0.12474951893091202, -0.045190729200839996, -0.3364757299423218], [-0.9445206522941589, -0.018681365996599197, 0.04167721047997475, -3.211981773376465, -0.11226213723421097, 0.18519553542137146, 0.05411278083920479, 0.17274591326713562, 0.15978889167308807, 0.29561036825180054, 0.16435876488685608, -0.5117747187614441, -0.08472611755132675, 0.2854697108268738, 0.04239426553249359, 0.1643090546131134, 0.6997358202934265, -0.5742639303207397, 0.14774255454540253, -0.19099530577659607, -0.020050598308444023, -0.22025765478610992, 0.14050474762916565, 0.44984865188598633, 0.05864664912223816, 0.04147940129041672, -0.16290763020515442, 0.2801609933376312, 0.04304511845111847, -0.3457309603691101, -0.30246564745903015, -0.34105879068374634, -0.1601291447877884, 0.11892319470643997, 0.07101904600858688, -0.8486372232437134, 0.24100333452224731, 0.0355997234582901, 0.25317081809043884, -0.08826036751270294, 0.08061733096837997, -0.04523191601037979, 0.07033336162567139, -0.47154462337493896, -0.43502387404441833, 0.13701163232326508, 0.21486614644527435, 0.4708505868911743, 0.1693708747625351, 0.6092401146888733, 0.22467106580734253, 0.2741611897945404, -0.04133220016956329, -0.46647948026657104, -0.26920679211616516, -0.1495966762304306, 0.19863346219062805, 1.4541847705841064, -0.1295236200094223, 0.783215343952179, 0.1342625617980957, 0.17012295126914978, 0.18151256442070007, -1.0140708684921265, -0.08467760682106018, 0.11920500546693802, -0.22041793167591095, -0.024472873657941818, -0.1757153570652008, -0.3969055414199829, 0.2798350155353546, -0.13416025042533875, -0.07292478531599045, 0.9725918769836426, -0.2832361161708832, 0.30494189262390137, -0.566303551197052, 0.148983433842659, 0.7108331322669983, 0.8324629068374634, -1.5529379844665527, 0.45747649669647217, 0.0408574715256691, 0.11538045853376389, -1.258715271949768, -2.0111746788024902, 0.40217262506484985, 0.8824741840362549, 0.07475296407938004, -0.26167967915534973, -0.43044963479042053, -0.11161741614341736, -0.22468151152133942, -0.7939584255218506, -0.3659103810787201, 0.29077115654945374, 0.12852512300014496, -0.1741877943277359, -0.05962909385561943, 0.10189339518547058, -0.5575477480888367, -0.3357883095741272, -0.19255436956882477, 0.2346411943435669, -1.039445161819458, 0.1684006154537201, -0.8960392475128174, -0.49401116371154785, 0.03562122583389282, 0.18517398834228516, -0.060669705271720886, -0.9114400148391724, -0.9071460962295532, -0.33107128739356995, 0.10275974124670029, 0.26963716745376587, 0.20525793731212616, 0.038562871515750885, 0.0008838049252517521, -0.7397621870040894, -0.02272680215537548, 0.01583229750394821, -0.23595517873764038, -0.44100522994995117, -0.3902909457683563, -0.10897950083017349, -1.1467911005020142, -0.02661116048693657], [-0.33296793699264526, 0.05609528347849846, -0.0306182112544775, -1.284278392791748, 0.27596789598464966, 0.06405390799045563, 0.0007464294321835041, 0.170122429728508, -0.029368232935667038, 0.3494635224342346, 0.16956284642219543, -0.5837255120277405, -0.28738006949424744, -0.02800600230693817, 0.2748441696166992, 0.3986004590988159, 0.15233998000621796, 0.04514695703983307, 0.08952118456363678, -0.40256309509277344, -0.1667606085538864, -0.5605031251907349, 0.22459951043128967, -0.1116611659526825, 0.30643731355667114, 0.3336385488510132, 0.1406678706407547, 0.020321397110819817, -0.13034407794475555, -0.10759595036506653, -0.06494750827550888, -0.031532589346170425, 0.001676669460721314, 0.20157000422477722, 0.16974328458309174, -0.0737118124961853, 0.17972244322299957, 0.31186944246292114, -0.06638520210981369, -0.5416438579559326, 0.14479219913482666, -0.043207377195358276, -0.1683872789144516, -0.057028140872716904, -0.22017793357372284, -0.7757933139801025, 0.01984313130378723, 0.08498270064592361, 0.21565908193588257, -0.5635558366775513, -0.059960782527923584, -0.3665560483932495, 0.15040937066078186, -0.3700082302093506, -2.0733249187469482, -0.31555280089378357, -0.26463884115219116, 0.5494206547737122, -0.18207477033138275, 0.6809858083724976, -0.11802218854427338, 0.23637861013412476, -0.04546545073390007, -0.49217596650123596, 0.17328733205795288, 0.23704175651073456, -1.4147711992263794, 0.11453648656606674, -0.9949859380722046, 0.08798646926879883, 0.046894144266843796, 0.12317627668380737, -0.10682472586631775, -0.4587239921092987, 0.040005192160606384, 0.13041041791439056, -0.2553292512893677, -0.07466103881597519, 0.18195964395999908, 0.01855807565152645, -0.43673041462898254, -0.5219741463661194, 0.3793362081050873, 0.2553712725639343, -0.08574087172746658, -2.867575168609619, -0.02320798859000206, 0.07672709971666336, 0.21340420842170715, 0.32264477014541626, -0.3247668743133545, -0.15579713881015778, -0.036953192204236984, 0.1002754345536232, 0.005643780808895826, 0.08219704777002335, 0.09737380594015121, 0.16535750031471252, -0.05888495594263077, -0.036467041820287704, -0.28033196926116943, -0.14392094314098358, -0.2553403973579407, 0.04891153797507286, 0.03604605048894882, -0.003114890307188034, -0.058012861758470535, -0.24425703287124634, -0.3843845725059509, 0.18155406415462494, 0.00459044985473156, -0.11835514008998871, -0.1509479284286499, 0.09856799989938736, 0.29504841566085815, 0.05120101943612099, 0.07111068814992905, -0.052432939410209656, 0.1135610044002533, -1.6519163846969604, -0.09356521815061569, -0.07038235664367676, 0.09715742617845535, -0.8151419758796692, -1.6994071006774902, 0.29268017411231995, -0.7825029492378235, 0.14398224651813507], [-0.022515662014484406, -0.3979540169239044, -0.9174403548240662, -1.9848836660385132, -0.006572351790964603, 0.10429239273071289, 1.4432685375213623, 0.40847253799438477, -0.06438615918159485, 0.25381556153297424, 0.39987024664878845, 0.31420475244522095, 0.8787199258804321, -0.06479070335626602, -0.024151088669896126, 0.008977864868938923, -0.7421825528144836, -1.6538182497024536, -0.14802975952625275, -0.6917153000831604, -0.2701683044433594, -0.06481323391199112, 0.08598297834396362, -0.33936914801597595, 0.020650196820497513, 0.07571007311344147, 0.4503238797187805, 0.4631979167461395, 0.06890653818845749, -0.6965036392211914, 0.4117799699306488, -0.12296003103256226, -0.15687349438667297, 0.0900115817785263, 0.3865715563297272, -0.640168309211731, 0.4011780619621277, -0.3325958251953125, -0.16581502556800842, -0.30774277448654175, 0.11174097657203674, -0.4028495252132416, 0.05153628811240196, -2.0855681896209717, -0.12840063869953156, -0.17477953433990479, -1.6042184829711914, 0.013573288917541504, 0.4709615707397461, -0.7633400559425354, 0.1556495875120163, 0.12805883586406708, -0.1102742999792099, -3.0944104194641113, 0.18484953045845032, -2.4762470722198486, 0.6838546395301819, 0.9817863702774048, 0.10037215799093246, 0.2740406095981598, -0.39857763051986694, 0.05058002844452858, -1.6747997999191284, -0.13293522596359253, -0.11358992755413055, 0.1126253753900528, 0.18465887010097504, 0.09140565246343613, -0.9258416295051575, -0.16450802981853485, -0.1459527462720871, 0.14205767214298248, 0.0653633177280426, -0.9447270631790161, 0.2409074902534485, -0.7063767313957214, 0.8097772002220154, -0.2122427225112915, 1.4420981407165527, 0.38915783166885376, 0.5210165977478027, -0.22662682831287384, 0.09528898447751999, 0.21830469369888306, -1.2821065187454224, -1.019413709640503, -0.2636506259441376, 0.44198381900787354, 0.14546948671340942, -1.1839966773986816, -0.5214332938194275, -0.40936294198036194, 0.09418471902608871, -0.06827927380800247, 0.3711373507976532, -0.2786523103713989, 0.1028655394911766, 0.2747240662574768, -0.10986366868019104, 0.21369294822216034, -0.24209894239902496, -0.13770058751106262, -0.12401878088712692, -0.24694643914699554, -0.43412208557128906, -1.2721974849700928, -0.8314148187637329, -1.4578343629837036, -0.004083425737917423, 0.003017181996256113, -0.20320461690425873, -2.066633462905884, -1.0101450681686401, 0.13279366493225098, 0.15865589678287506, -0.1830882728099823, 0.008353963494300842, -0.2833064794540405, 0.4364207684993744, -0.2007637470960617, -0.43237072229385376, -1.147441029548645, -0.721649706363678, -0.3040584623813629, 0.11546409130096436, 0.13555417954921722, -1.0031119585037231, -0.2813085615634918], [0.12937083840370178, -0.010181629098951817, 0.35527288913726807, 0.3833165466785431, 0.24742774665355682, 0.12896496057510376, 0.02113967388868332, 0.21103882789611816, -0.14264042675495148, -0.531411349773407, -0.05922896787524223, -0.2579045593738556, -0.05041694641113281, 0.12403012812137604, -0.29484686255455017, 0.3061244785785675, 0.4835011661052704, -0.3115939497947693, -0.7540244460105896, 1.0731596946716309, -0.3960784375667572, -0.6534870266914368, -0.30756649374961853, -0.4426043629646301, 0.5672013163566589, 0.08524200320243835, 0.2849557399749756, 0.15536656975746155, -0.8939136862754822, 0.6539900302886963, 0.09266170859336853, -0.03685065731406212, -0.12302910536527634, -1.0594793558120728, 0.03262253850698471, -0.24683831632137299, -0.5337767004966736, -1.177735447883606, 0.1091073527932167, -0.6725255250930786, -0.26926690340042114, -0.5623181462287903, 0.29090455174446106, 0.0076656942255795, 0.12233273684978485, -0.6100082993507385, 0.24730177223682404, -0.32775360345840454, 0.3014651834964752, -0.2297978550195694, 0.41117143630981445, 0.027891580015420914, -0.15788033604621887, 0.1668035089969635, 0.5265196561813354, 0.19884876906871796, -0.14313936233520508, -0.07813083380460739, 0.5233861207962036, -0.0878228172659874, 0.2917557656764984, -0.18283633887767792, 0.35125795006752014, 0.13290928304195404, -0.16686652600765228, 0.3039233088493347, 0.37898147106170654, 0.04681536182761192, -0.28896763920783997, -0.04662454500794411, 0.04014291241765022, 0.03199244290590286, 0.013752484694123268, 0.5200321078300476, 0.04586699977517128, 0.1594213843345642, 0.06791681051254272, 0.3581927418708801, 0.6768887042999268, -0.3969796299934387, -0.027878955006599426, -0.03358873724937439, -0.21919406950473785, 0.4646899998188019, 0.02840733528137207, -0.5194461345672607, 0.49899211525917053, -0.031515274196863174, -0.24693524837493896, 0.16107235848903656, -0.21262145042419434, -1.2845847606658936, -0.3709806799888611, 0.07433222234249115, -0.39577457308769226, -0.1884189397096634, 0.3917809724807739, 0.024129381403326988, 0.006313571240752935, 0.2103067934513092, -0.6038844585418701, 0.04614271968603134, 0.04437835142016411, -0.7119050621986389, -0.1567457914352417, 0.14374886453151703, -0.20218272507190704, -0.25065600872039795, -1.7920767068862915, 0.5049615502357483, -0.018564047291874886, -0.039236728101968765, -0.6964346766471863, -0.4522585868835449, 0.26426735520362854, 0.33005693554878235, 0.01984187588095665, -0.13964487612247467, -0.08811501413583755, -0.2866038978099823, -0.23352597653865814, 0.17418736219406128, -0.24427998065948486, 0.23868513107299805, -0.39082205295562744, 0.14356932044029236, -1.6462993621826172, 0.018054740503430367], [-1.4046436548233032, -0.4934270679950714, 0.6131715178489685, 0.35462117195129395, -0.023593146353960037, 0.24258442223072052, 0.431503027677536, -0.9952239394187927, 0.45409998297691345, 0.6862034797668457, 0.12374870479106903, -0.6986634135246277, 0.15749219059944153, 0.122630774974823, -0.02854178659617901, -0.144532710313797, -0.32491493225097656, 0.028018323704600334, 0.030525287613272667, 0.07173909991979599, -0.9496287107467651, 0.038665011525154114, 0.3273100256919861, -2.0248470306396484, 0.49669575691223145, 0.1451854407787323, 0.1414230614900589, 0.20055553317070007, -0.13471683859825134, 0.09335670620203018, -0.47854626178741455, -0.028337562456727028, -1.6391710042953491, -0.7395172715187073, -0.5035891532897949, -0.26909008622169495, -0.4286050796508789, 0.28522470593452454, 0.103635273873806, -0.9037662148475647, -0.14299684762954712, -0.45415592193603516, 0.25894060730934143, -0.4718809127807617, -0.795711874961853, -0.2310793250799179, 0.20001879334449768, -0.3767065107822418, 0.439608633518219, 0.010081032291054726, -0.006684492342174053, -0.27833983302116394, -1.0406405925750732, 0.17290151119232178, -0.1718170940876007, 0.17989343404769897, -1.230884313583374, -0.03610972687602043, -0.031234988942742348, 0.10200785845518112, 0.22571392357349396, -0.3179810643196106, -0.2553200423717499, -0.17725126445293427, -0.06752185523509979, -0.24206510186195374, -0.16438309848308563, -0.6138519644737244, 0.2057020366191864, -0.5408640503883362, -0.04252079129219055, -0.3269875943660736, -1.5652310848236084, 0.1055900901556015, -0.20370659232139587, 0.21341294050216675, -0.01560244057327509, -0.08576655387878418, 0.3669690191745758, 0.5550083518028259, -0.14985103905200958, 0.25769391655921936, 0.01060471124947071, -1.381191372871399, -0.18212170898914337, 0.2520129084587097, -0.22403788566589355, 0.0417662151157856, 0.38071948289871216, -0.05731012672185898, 0.07601778954267502, -0.8881585597991943, -2.284264326095581, -0.8043226599693298, -0.0896327942609787, 0.25746896862983704, 0.0661744698882103, -0.27552834153175354, -1.2972354888916016, 0.05004901438951492, 0.36185529828071594, 0.20423147082328796, -1.4960981607437134, -0.2999354302883148, -0.7543627023696899, -0.03369386866688728, -0.4927256405353546, -0.9862279891967773, -0.5900092124938965, -0.04595477879047394, -0.8208885788917542, -0.707794725894928, -0.4545288681983948, -0.33816665410995483, 0.29599902033805847, 0.2783854305744171, -0.4514150321483612, -0.12479598075151443, -1.0568395853042603, -0.474170446395874, -0.5254619717597961, 0.18487602472305298, -0.022761918604373932, 0.544783890247345, 0.17931054532527924, 0.11318060010671616, -2.107668161392212, 0.3792952597141266], [0.06158192828297615, -0.1020459234714508, -0.026013890281319618, -2.2490298748016357, 0.26592007279396057, 0.15492820739746094, 0.15385766327381134, -0.10824707895517349, -0.09252520650625229, 0.5147756338119507, 0.140348419547081, -0.8682282567024231, 0.11260213702917099, 0.18554501235485077, 0.41149649024009705, 0.6886486411094666, -0.038161344826221466, -0.1261749565601349, 0.04656899720430374, -1.0115201473236084, -0.022965824231505394, -0.09301619231700897, 0.5420638918876648, -0.31666335463523865, -0.25592583417892456, 0.25543126463890076, 0.1288141906261444, -0.3036697804927826, 0.30878013372421265, -1.4783340692520142, 0.18461310863494873, 0.33446505665779114, 0.1423511803150177, 0.10612129420042038, 0.03595373034477234, -0.1649753302335739, 0.3725050985813141, 0.16865499317646027, 0.22129130363464355, -0.13319003582000732, 0.5077700614929199, -0.14638803899288177, 0.27238729596138, 0.10350896418094635, 0.03283260390162468, 0.1832512617111206, 0.23720358312129974, -0.3348243832588196, 0.17713303864002228, -0.22961392998695374, -0.09027211368083954, 0.32057470083236694, 0.018378155305981636, -0.5214660167694092, -0.06834873557090759, -0.06333358585834503, -0.8096145987510681, 0.12855395674705505, -0.13309283554553986, 0.5682922601699829, -0.04332873597741127, 0.3150034248828888, 0.11251747608184814, -0.8148382306098938, 0.38884711265563965, 0.030858207494020462, -0.03222202509641647, 0.16492357850074768, -0.13757853209972382, 0.1966194212436676, 0.030857179313898087, 0.3185921013355255, 0.3317892253398895, -0.7762113213539124, -0.034004226326942444, 0.02297740988433361, 0.8258230686187744, 0.2786239981651306, -0.021657729521393776, -0.11810323596000671, -1.3312149047851562, -0.3960837423801422, 0.4213297665119171, -0.09130723774433136, -0.03819727152585983, -0.03246220201253891, 0.2428888976573944, 0.3423699140548706, 0.11500675231218338, 0.19124290347099304, -0.11345356702804565, -0.33507999777793884, -0.21487805247306824, 0.06284751743078232, 0.07157627493143082, 0.1485998034477234, 0.3265061676502228, -0.2845558822154999, -0.23038308322429657, -0.14545857906341553, 0.21557430922985077, -0.11018691211938858, -0.033965691924095154, 0.04180362448096275, 0.2038830816745758, -0.10315411537885666, 0.09627389162778854, -0.46582791209220886, 0.042553286999464035, 0.2919333875179291, 0.15085771679878235, -0.6612647771835327, -0.25362837314605713, -0.09410735964775085, -0.13114593923091888, 0.18260963261127472, 0.30171194672584534, 0.19615964591503143, -0.24973058700561523, 0.12698018550872803, -0.13128148019313812, 0.018630273640155792, 0.059194911271333694, -0.982853889465332, 0.11808033287525177, 0.28108957409858704, -1.0150080919265747, -0.32437556982040405], [-0.10567484050989151, -0.14915794134140015, -1.2509654760360718, -0.20162317156791687, 0.040061820298433304, 0.2998717427253723, -0.6823471188545227, -0.19763517379760742, -0.40640875697135925, -0.4187924265861511, 0.21788528561592102, -0.5602177977561951, -0.511667788028717, -0.14905038475990295, 0.15032871067523956, 0.23159869015216827, -0.09467289596796036, -0.4369280934333801, -0.39103028178215027, 0.16659197211265564, -0.9510543942451477, -1.6307036876678467, -0.18546538054943085, -0.6597107648849487, 0.584568440914154, -0.057211749255657196, -1.3444159030914307, 0.40068089962005615, -1.0996546745300293, 0.20704512298107147, -0.20828551054000854, 0.2943585515022278, -0.05113396421074867, -0.1807967573404312, 0.3021594285964966, 0.14208769798278809, -0.8354107141494751, -2.700636625289917, 0.20632530748844147, -0.3274187445640564, 0.046524785459041595, -0.027774572372436523, -0.4281657934188843, 0.14729170501232147, -0.576374888420105, -0.7926458716392517, -0.8191391229629517, -0.4874318540096283, -0.09096001833677292, -0.32021093368530273, -1.1858456134796143, 0.4070155620574951, 0.09148945659399033, 0.0847601443529129, -0.2838120758533478, 0.14705969393253326, 0.1136191263794899, -0.285940021276474, 0.21164081990718842, 0.4138381779193878, 0.03177821636199951, 0.022140048444271088, -0.771940290927887, 0.015148190781474113, -0.3229134976863861, 0.3306548297405243, -0.6693918108940125, -0.17281875014305115, -0.5589113235473633, -1.2898708581924438, -0.13298487663269043, -1.3651585578918457, -0.24741224944591522, -0.42469918727874756, -0.1475430130958557, 0.1694922298192978, 0.14665307104587555, -0.27538663148880005, 0.3932083249092102, -0.05422910302877426, -0.38840940594673157, 0.7774981260299683, 0.10146860778331757, -0.7746016979217529, 0.16798809170722961, -0.16898170113563538, -0.09834975004196167, -1.852843999862671, -0.08659503608942032, 0.11198297888040543, 0.10530808568000793, -0.49205484986305237, -0.22178366780281067, -0.35312142968177795, -0.14146935939788818, 0.15200501680374146, 0.246689572930336, -2.0950827598571777, -0.5870574712753296, 0.06915942579507828, 0.45647287368774414, 0.34504497051239014, 0.36602333188056946, 0.4869733452796936, -0.1789950132369995, -0.10913880914449692, -0.7542076110839844, -0.3598727583885193, 0.9254831671714783, 0.2616029977798462, -0.25625988841056824, -0.0005440472741611302, -1.0030992031097412, -1.0837316513061523, 0.30049440264701843, -0.056719936430454254, 0.13867877423763275, 0.46269261837005615, -0.19604593515396118, -0.13433773815631866, -0.07690650224685669, -0.0467778705060482, 0.1138555034995079, 0.11606312543153763, -0.2709004878997803, -0.0307722557336092, -0.46399497985839844, -0.53102707862854], [-0.10451988130807877, -0.027971301227808, -0.05320904776453972, 0.037107113748788834, 0.07148804515600204, 0.019525161013007164, -0.0014749544207006693, 0.02578745223581791, 0.017544694244861603, -0.04027080163359642, -0.0385269932448864, -0.06522011756896973, -0.08878841996192932, 0.017569197341799736, -0.07068335264921188, -0.059136856347322464, 0.02879464253783226, 0.01956680789589882, 0.02214752323925495, 0.04297557845711708, 0.060921669006347656, -0.053556352853775024, 0.02052154578268528, -0.08973438292741776, -0.10141144692897797, -0.05211188644170761, 0.06766631454229355, 0.03425168991088867, 0.07181017100811005, -0.016552036628127098, 0.02737988345324993, -0.03505435585975647, -0.04001769423484802, -0.00409333361312747, -0.09035641700029373, -0.05054771527647972, -0.10856632143259048, -0.08524718135595322, -0.05105580762028694, 0.06201695650815964, -0.07819019258022308, -0.07412407547235489, -0.10204458981752396, -0.05537498742341995, -0.02894292213022709, -0.0249871127307415, -0.09347187727689743, 0.04548634588718414, -0.03764261305332184, -0.10794594883918762, -0.02093261107802391, 0.05815639719367027, -0.005825927015393972, -0.05064060911536217, -0.08756577223539352, -0.08466270565986633, 0.05297783762216568, 0.035141125321388245, -0.06594160199165344, -0.09065292775630951, 0.01668902300298214, -0.055821750313043594, -0.10620936751365662, -0.04631463438272476, -0.11455918848514557, 0.06325557827949524, 0.027295684441924095, -0.053835179656744, -0.007384863216429949, -0.05554363131523132, -0.006966675166040659, 0.0014034402556717396, 0.015884559601545334, 0.03040946088731289, 0.07457099854946136, -0.02357547916471958, -0.029718691483139992, -0.026899972930550575, -0.11853133887052536, -0.07056284695863724, 0.05469943955540657, 0.03762279450893402, -0.07833337783813477, -0.04956487938761711, 0.004567523952573538, -0.10104314237833023, -0.03203060105443001, -0.09170250594615936, -0.04409546032547951, -0.025661170482635498, -0.023309683427214622, -0.08385338634252548, 0.046837203204631805, -0.06593848764896393, -0.08543646335601807, -0.0394534096121788, -0.01961018331348896, -0.06820372492074966, -0.08785981684923172, -0.1148412749171257, -0.11857811361551285, 0.05214741826057434, 0.0752846747636795, -0.0686764195561409, -0.017312631011009216, -0.0876481682062149, 0.04477706551551819, -0.11665607988834381, 0.04236834868788719, 0.00663770129904151, -0.04831744730472565, -0.05322914570569992, 0.02118372917175293, 0.03741305321455002, -0.08842550218105316, -0.10907243937253952, 0.03268550708889961, 0.014369058422744274, 0.0645236000418663, 0.056118790060281754, -0.027645787224173546, -0.0804065689444542, 0.053885046392679214, -0.0262204147875309, 0.007245419546961784, -0.05957280099391937, 0.01987643726170063, 0.006750460248440504], [-0.021773720160126686, -0.06370612233877182, -0.10888651758432388, -0.042816467583179474, -0.053285133093595505, -0.04048030823469162, -0.08409931510686874, -0.018384957686066628, 0.0051894886419177055, -0.06453899294137955, -0.08891186118125916, -0.05491593852639198, 0.03075772151350975, 0.001141918241046369, -0.10683252662420273, -0.061439625918865204, -0.0835256278514862, 0.003979993984103203, 0.025882389396429062, 0.04093912988901138, -0.04719087854027748, -0.07687000185251236, -0.02658609114587307, -0.013731987215578556, -0.09434429556131363, -0.018283246085047722, 0.021304085850715637, -0.0051328749395906925, -0.12199287116527557, -0.13200661540031433, -0.08411858975887299, -0.01856176368892193, 0.0212875846773386, -0.08807684481143951, 0.017472464591264725, 0.04018183797597885, -0.08530421555042267, 0.005136849824339151, 0.019839148968458176, -0.05495617538690567, -0.06532326340675354, -0.056642625480890274, -0.023662948980927467, -0.1273547261953354, -0.03548092395067215, 0.018095597624778748, -0.0650346428155899, 0.002417865442112088, -0.009774979203939438, -0.09920147061347961, -0.0304119810461998, -0.0669654905796051, -0.09060971438884735, 0.0034260244574397802, 0.026905952021479607, 0.02195998653769493, -0.12786103785037994, 0.014440439641475677, 0.002791216131299734, -0.05855763331055641, -0.055544573813676834, -0.03403782099485397, -0.11489066481590271, -0.04021980240941048, -0.0356132872402668, -0.07348759472370148, -0.06608548760414124, 0.039410289376974106, -0.010618944652378559, -0.027634143829345703, -0.0534808486700058, -0.10017833113670349, 0.017541566863656044, -0.06322634220123291, -0.08421146869659424, 0.04946844279766083, 0.025133060291409492, -0.06962025165557861, 0.007925973273813725, -0.12884923815727234, -0.10761304944753647, -0.054164670407772064, -0.03473658114671707, -0.05528553947806358, 0.04075454920530319, -0.109815314412117, -0.14460988342761993, -0.0102425841614604, -0.04375918582081795, -0.061297111213207245, 0.06411539763212204, 0.053711049258708954, 0.0032761520706117153, -0.045972030609846115, -0.0728432908654213, 0.028748057782649994, 0.04429367557168007, 0.024196067824959755, -0.03279528766870499, -0.060428887605667114, -0.005664062686264515, -0.09962107241153717, -0.05806250870227814, -0.06270810961723328, 0.026062270626425743, 0.0030818930827081203, -0.038943156599998474, 0.025459149852395058, -0.007826820947229862, 0.06572923064231873, -0.03005395084619522, -0.07988908141851425, -0.08370696008205414, 0.018852435052394867, 0.001415236503817141, 0.005320855416357517, -0.06527744978666306, 0.05701075494289398, -0.024136491119861603, 0.03218663111329079, -0.06123347952961922, -0.10134067386388779, -0.0009347251616418362, 0.03483591601252556, -0.013618002645671368, -0.08242688328027725, -0.09874429553747177, 0.07408762723207474], [0.0024784738197922707, 0.20914490520954132, 0.1523222178220749, -0.00800824910402298, 0.398843914270401, 0.15258046984672546, 0.012178517878055573, 0.5179414749145508, -0.24965867400169373, 0.4425068497657776, 0.2848862111568451, -0.09348223358392715, -0.2016328126192093, 0.6929376125335693, 0.5985637307167053, 0.9317173957824707, -0.195411816239357, 0.0714646726846695, -0.45458734035491943, -0.49064743518829346, -0.301422119140625, -0.9385684132575989, 0.37836530804634094, 0.09215105324983597, 0.3366588354110718, -0.08069851994514465, 0.039350785315036774, 0.08789245784282684, 0.20527710020542145, -0.04049023985862732, -0.3253084123134613, -0.2510055601596832, -0.1941297948360443, 0.17689628899097443, 0.2429186850786209, 0.08476850390434265, 0.15538504719734192, 0.0733230784535408, 0.2410021275281906, -0.27156078815460205, 0.42396262288093567, 0.19285368919372559, 0.05878296494483948, -0.36018574237823486, -0.1128699854016304, 0.5061091780662537, 0.12094642966985703, 0.01778908632695675, -0.11700674891471863, -0.18616114556789398, 0.1948823183774948, 0.0807708203792572, -0.04530424252152443, -0.3284231126308441, -0.43040838837623596, 0.2259235829114914, 0.026922080665826797, 0.036970581859350204, -0.20291143655776978, 0.8669617772102356, 0.03079311177134514, 0.10830262303352356, 0.07183274626731873, 0.08512870222330093, 0.43121227622032166, 0.3671368658542633, -0.8310517072677612, -0.025601189583539963, -0.5311321020126343, -0.269827276468277, 0.07667554914951324, 0.24864815175533295, 0.0962711051106453, 0.0585789680480957, -0.3213495910167694, 0.02390604093670845, 1.1707855463027954, -0.12373201549053192, 0.6606599688529968, 0.09534257650375366, -0.012635883875191212, 0.0459890179336071, 0.5410566329956055, 0.12341856211423874, 0.137459859251976, -1.7362136840820312, -0.2966737449169159, 0.14523592591285706, 0.20681504905223846, 0.46028926968574524, -0.07014719396829605, 0.13189581036567688, -0.06728597730398178, 0.07593940198421478, -0.07545967400074005, -0.07564810663461685, 0.1370118409395218, -0.04648901894688606, 0.15016357600688934, 0.185277059674263, -0.2916111648082733, -0.14184755086898804, -0.02678445354104042, -0.040237247943878174, -0.16444958746433258, 0.011545930057764053, 0.11031361669301987, -0.1922018975019455, -0.44036322832107544, 0.28769928216934204, -0.274354487657547, 0.09362209588289261, -0.01976720429956913, 0.27352121472358704, 0.24072842299938202, 0.1540347784757614, -0.05313066393136978, 0.004275537561625242, -0.09626606851816177, -0.8375874161720276, 0.009727372787892818, 0.15786243975162506, 0.3047381639480591, -0.38471144437789917, -1.6004462242126465, 0.46101149916648865, -0.18671061098575592, -0.10559842735528946], [-1.1645764112472534, 0.14386224746704102, 0.9308075308799744, -1.2807981967926025, 0.016497347503900528, 0.04262806102633476, -0.111577607691288, 0.47548243403434753, 0.08467444777488708, 0.045103032141923904, -0.21295350790023804, 0.05446390435099602, 0.009677731432020664, -0.09346594661474228, 0.19074925780296326, 0.21126653254032135, -1.8144114017486572, -0.582158625125885, 0.5140964388847351, -2.125821590423584, -0.3218100368976593, -0.28071099519729614, -0.17893777787685394, -0.10448899120092392, 0.025190269574522972, -0.03144576773047447, -0.04710102453827858, 0.09781075268983841, 0.003733620047569275, -0.009735534898936749, -0.13735949993133545, -0.18514780700206757, 0.16070912778377533, 0.060534682124853134, 0.1898566335439682, -0.17785772681236267, -0.3528437614440918, -0.22040700912475586, 0.12315720319747925, 0.02670547552406788, -0.012773136608302593, 0.18131564557552338, -0.5844671726226807, -0.06785242259502411, -0.01851699687540531, -0.0607755146920681, 0.1485486924648285, -0.7750422358512878, 0.1469147801399231, -0.26988840103149414, -0.1797606348991394, -0.018095651641488075, 0.08175240457057953, -1.116287112236023, -1.373117208480835, -0.5892608761787415, 0.020372893661260605, 0.003344557713717222, -0.3376571238040924, -0.013155804015696049, 0.19046981632709503, 0.11272627115249634, -0.9067750573158264, -0.3455522358417511, 0.23309865593910217, 0.22243690490722656, 0.5449582934379578, 0.11737481504678726, -2.6818151473999023, -0.215355783700943, -0.3395003378391266, 0.02408004365861416, 0.224786639213562, 0.5191037058830261, -0.6722121834754944, -0.033030204474925995, -1.1306041479110718, -0.26247578859329224, 0.5024498701095581, -0.04789268597960472, -1.035256266593933, -1.1862835884094238, 0.21995900571346283, 0.2692178189754486, -0.8450250625610352, -4.844942092895508, -0.4256231486797333, 0.42017191648483276, 0.07147717475891113, -0.37533530592918396, -0.19846102595329285, 0.02572147361934185, 0.05507906153798103, -0.27860143780708313, -0.821118175983429, 0.07630180567502975, 0.00579143688082695, -0.40590351819992065, -0.018003268167376518, 0.07565105706453323, -0.29008471965789795, -0.25341594219207764, 0.05352233722805977, -0.16809886693954468, 0.6724565625190735, -0.18250875174999237, 0.31308525800704956, -0.10734529793262482, -0.1838172823190689, 0.19956615567207336, 0.11055590957403183, -0.4830843508243561, -0.9055477380752563, 0.13115496933460236, 0.2327137589454651, 0.34141483902931213, 0.13150201737880707, 0.29264286160469055, -0.16410982608795166, -1.2237783670425415, -0.2013717144727707, -0.23170684278011322, 0.09816049784421921, -0.4563683867454529, -1.505141019821167, 0.006442568264901638, -1.0216953754425049, -0.1028837338089943], [0.2633255124092102, -0.10920252650976181, -0.12149003148078918, -0.46648702025413513, 0.2301456481218338, 0.17129798233509064, -0.607652485370636, 0.06244341656565666, -0.6854506134986877, -0.04380565509200096, -0.6412186026573181, 0.589216947555542, 0.3780668079853058, -0.20498093962669373, 0.10016224533319473, 0.21944499015808105, -0.37637269496917725, -0.06021304056048393, 0.41629090905189514, -0.2622653543949127, 0.7077882289886475, -0.11020178347826004, -0.018116924911737442, -1.1354671716690063, -0.18408022820949554, -0.4611866772174835, 0.09597593545913696, 0.1118159219622612, 0.0804818645119667, -0.20387595891952515, -1.0401946306228638, -0.7281252145767212, -0.2589140832424164, -0.42376264929771423, 0.03322767838835716, -0.710667073726654, -0.24758803844451904, 0.02734968438744545, -0.1318100392818451, 0.07761682569980621, 0.07471392303705215, 0.18201543390750885, 0.020394325256347656, -0.13465087115764618, 0.1339477300643921, 0.46823254227638245, 0.08091612905263901, -0.7262477874755859, -0.3523798882961273, -0.45634087920188904, -0.030133698135614395, -0.13629093766212463, 0.07583372294902802, -0.5646957755088806, -0.5416582822799683, 0.06069152429699898, -0.3646374046802521, -0.1318730115890503, -0.40412870049476624, 0.9292978048324585, -0.012272659689188004, -0.2311084121465683, 0.12209655344486237, 0.3336954712867737, -0.12646526098251343, 0.016584137454628944, 0.3084818720817566, -0.10418572276830673, -0.8636139035224915, -0.1175779402256012, -0.19881097972393036, 0.07016156613826752, -0.18182645738124847, -1.7281858921051025, -0.5670076012611389, -0.21092502772808075, 0.6645585894584656, 0.2155231237411499, 0.442831426858902, -0.20703072845935822, -0.11256732046604156, -1.1598048210144043, 0.12499678879976273, 0.5768231153488159, -0.11227387189865112, -0.30256423354148865, -1.2259259223937988, 0.05589279532432556, -0.6854555010795593, 0.38956043124198914, -1.365037441253662, -0.27272674441337585, 0.41085341572761536, 0.1116524264216423, -0.36654341220855713, -0.2938674986362457, 0.028135744854807854, 0.17793720960617065, 0.08835165947675705, 0.3475331664085388, -1.0444484949111938, 0.25277382135391235, -0.1552034169435501, 0.45086967945098877, -0.2361801415681839, 0.039316993206739426, -0.14094097912311554, -1.2073602676391602, -0.061245907098054886, 0.316217839717865, 0.07351412624120712, 0.11965610831975937, -0.12090963125228882, 0.227378711104393, 0.2628340423107147, -0.8833110332489014, 0.07632512599229813, 0.10423146933317184, -1.3965930938720703, -0.3847236633300781, -0.02126355841755867, -0.15848121047019958, -0.20933221280574799, -0.8769370317459106, 0.1722022145986557, 0.20431725680828094, -0.5382533669471741, -0.8688485026359558], [-0.14216801524162292, -3.39705753326416, -0.27533531188964844, 0.11478187888860703, -0.09936345368623734, 0.57927006483078, -0.8263870477676392, -1.0374232530593872, -0.7006489038467407, -0.166251078248024, 0.142053484916687, -1.68192458152771, -0.023426299914717674, -0.6105003356933594, 0.11695495992898941, -0.13097357749938965, -2.383415937423706, -0.764412522315979, -0.10469188541173935, 0.6453956365585327, -0.6088035702705383, -0.30572062730789185, 0.15285229682922363, -1.0796085596084595, 0.6821626424789429, -0.16188180446624756, -0.9564344882965088, 0.10370341688394547, -1.7365726232528687, 0.0016146153211593628, -0.8341020345687866, 0.5189324021339417, -1.8214471340179443, -3.4358737468719482, 0.07611338794231415, -0.20598949491977692, 0.48741498589515686, 0.3798062801361084, -1.164434790611267, -1.1690908670425415, 0.020011337473988533, -0.10869468748569489, -2.2269089221954346, -2.1253974437713623, -0.9370044469833374, -1.3425253629684448, -0.04748757183551788, 0.04825757071375847, 0.43381577730178833, 0.23765148222446442, 0.7448245286941528, -0.1394924521446228, -1.8172882795333862, -1.1495046615600586, 0.03418666124343872, 0.26898103952407837, -0.4799729585647583, -0.48739758133888245, -0.3037208020687103, -0.2070533186197281, -0.030698388814926147, -1.0977851152420044, -0.029363825917243958, 0.005486145615577698, 0.1047932580113411, -0.613578736782074, -0.552675724029541, -0.5383636951446533, 0.15115106105804443, -0.5683498382568359, 0.18252888321876526, -0.05589601397514343, -2.674555778503418, 0.1929386705160141, -0.19206279516220093, 0.8005855679512024, 0.04806219041347504, -0.5704081654548645, 0.710289716720581, 0.25392135977745056, 0.17409630119800568, -0.3210217356681824, -0.037722501903772354, -0.5854876637458801, 0.08666902035474777, -0.2586214244365692, -0.724196195602417, -0.04808194935321808, 0.6313509345054626, 0.10305112600326538, 0.10776658356189728, -0.39798277616500854, -2.2182695865631104, -0.3331010639667511, 0.0823657289147377, -0.1543847769498825, -0.0698685348033905, -0.15741679072380066, -0.8320932984352112, 0.22648891806602478, -1.255537748336792, 0.2945604920387268, -1.0533902645111084, -0.15498417615890503, -0.42488977313041687, 0.4141908586025238, -0.05771291255950928, -1.019952416419983, -0.7244204878807068, 0.18868203461170197, -0.9261202812194824, -0.29436323046684265, 0.09410116076469421, -0.09008936583995819, 0.8562109470367432, 0.038522183895111084, -0.1562938243150711, -0.8831174969673157, -0.3336833715438843, -0.4192800521850586, -2.2194104194641113, -0.16635780036449432, 0.042718589305877686, 0.312752366065979, -0.5221748352050781, -0.10780954360961914, -0.8720718026161194, -0.6410203576087952], [-1.008009910583496, -0.19167956709861755, 1.066077709197998, -0.03154003247618675, 0.03669273108243942, 0.5742853283882141, -0.2923230528831482, -0.6424045562744141, 0.0937909185886383, 0.24251890182495117, 0.1089852973818779, -0.3072817623615265, -0.17521993815898895, 0.012495411559939384, -0.09116680175065994, 0.2030031681060791, -0.9059122800827026, -0.7827405333518982, -0.4090849757194519, -0.30824118852615356, -0.6499730944633484, 0.010044628754258156, 0.10782288759946823, 0.17421618103981018, -0.5180612802505493, 0.18914058804512024, 0.1225888803601265, 0.11966491490602493, -0.4702051281929016, 0.225333571434021, -0.6015638709068298, 0.07164787501096725, -0.27703750133514404, -0.3448275625705719, -0.02167971059679985, 0.4558922052383423, -1.177644968032837, 0.8365832567214966, -1.517096996307373, -0.03469601646065712, 0.0128382733091712, -1.3234515190124512, -0.28386563062667847, -0.5152885317802429, -0.5119166374206543, -0.4465709328651428, 0.22059324383735657, 0.5215948224067688, 0.2530025839805603, 0.08051634579896927, -0.2016521841287613, 0.3125218152999878, -0.12750957906246185, -1.7605658769607544, 0.20218773186206818, -0.18842387199401855, -1.2107564210891724, -0.7444901466369629, 0.06299909204244614, 0.8866195678710938, 0.23701278865337372, 0.013898403383791447, -0.3987959921360016, -0.40233784914016724, -0.0386151447892189, 0.15774881839752197, 0.048004887998104095, -0.09823893755674362, -0.858022928237915, 0.10527573525905609, 0.03442680090665817, -0.5864468812942505, -0.4444563388824463, 0.3509329557418823, -0.6868225336074829, 0.13966237008571625, 0.20087648928165436, 0.7128667831420898, 0.8805422186851501, 0.3163470923900604, 0.3741316795349121, -1.3039470911026, -0.10968488454818726, 0.1467796415090561, -0.10226303339004517, 0.2797034680843353, -0.38964807987213135, 0.7431652545928955, 0.27718597650527954, 0.018744194880127907, -0.25775524973869324, -0.6818042993545532, -0.2975587546825409, -0.6626802086830139, -0.41985681653022766, 0.01379603985697031, 0.2151661217212677, -0.35661548376083374, -1.4735838174819946, 0.26024124026298523, 0.23033778369426727, -0.5479825735092163, -1.4176164865493774, 0.06257843226194382, -1.9136673212051392, 0.21084660291671753, -1.0301828384399414, -0.23789843916893005, -0.43798527121543884, 0.12953628599643707, -0.6503553986549377, -0.3664189279079437, 0.5488431453704834, -0.6357375383377075, 0.28610759973526, 0.11385558545589447, 0.09381034225225449, 0.0250777006149292, -0.19168180227279663, -0.02301478385925293, 0.015759678557515144, 0.46754395961761475, -0.10540398210287094, 0.25999632477760315, -0.369352251291275, 0.1946960836648941, -1.6680033206939697, -0.15448249876499176], [-0.8522230386734009, -0.10180782526731491, -0.181846022605896, -0.8084636926651001, 0.13978594541549683, 0.2901775538921356, -0.12500762939453125, 0.6829097867012024, 0.15794414281845093, 0.136226087808609, 0.09204252809286118, -0.9517567753791809, -0.16273623704910278, 0.10863064974546432, 0.2734090983867645, 0.3533742129802704, 0.41101014614105225, -0.23064549267292023, -0.2935878336429596, -1.0283399820327759, -0.34382471442222595, -0.09612112492322922, -0.0438523031771183, 0.37377092242240906, -0.8446972370147705, 0.21678107976913452, 0.25349998474121094, 0.04612281918525696, -0.12129862606525421, -0.41165032982826233, 0.02447933331131935, -0.24440798163414001, 0.13512711226940155, 0.15796653926372528, 0.21858447790145874, -0.637035608291626, 0.37340325117111206, 0.2055436670780182, 0.1232396736741066, -0.16333261132240295, 0.12184621393680573, -0.031658753752708435, 0.07848968356847763, -0.959324836730957, -0.3344087302684784, -0.6180481314659119, -0.503859281539917, 0.8111439347267151, 0.4454186260700226, -1.322041630744934, 0.16255909204483032, 0.19183413684368134, 0.11724995821714401, -2.4077837467193604, -0.6206622123718262, -0.734061062335968, -0.26354464888572693, -0.5072867274284363, -0.34854263067245483, 1.082189679145813, -0.10261482745409012, 0.29992344975471497, -0.36715108156204224, -0.6968405842781067, -0.3041032552719116, 0.16943225264549255, -0.39679422974586487, 0.15389491617679596, -2.817420482635498, -0.11766939610242844, 0.3530914783477783, -0.14794807136058807, 0.0417427159845829, 0.4774244427680969, 0.14284934103488922, 0.14706890285015106, -0.4910140931606293, 0.2645610272884369, 0.5637094974517822, 0.45849987864494324, -0.38329458236694336, 0.9138836860656738, 0.19391685724258423, 0.01533544808626175, -0.16627132892608643, -1.3536691665649414, 0.2588394284248352, 0.19146540760993958, 0.1016765609383583, -0.261470228433609, -0.11361274868249893, -0.3182185888290405, 0.054656658321619034, -0.656513512134552, -0.18046972155570984, 0.01740190014243126, -0.021977709606289864, 0.12824106216430664, 0.007403177209198475, -0.13347062468528748, -1.920624017715454, -0.0261677298694849, -0.3949836790561676, 0.04990258067846298, -0.5912317037582397, -0.038482438772916794, -0.20335862040519714, -0.2990533113479614, -0.3745934069156647, 0.3158448040485382, -0.16102541983127594, -0.3260403871536255, 0.1327369064092636, -0.13814376294612885, 0.19055578112602234, 0.7266323566436768, 0.2723706364631653, 0.03497660160064697, 0.2157195657491684, -0.28976744413375854, -0.31638333201408386, 0.2568361461162567, 0.006357579492032528, -0.814020037651062, -1.2201755046844482, -0.22858989238739014, -1.0142738819122314, 0.026913989335298538], [-0.3757282793521881, 0.08186491578817368, 0.360353022813797, 0.27647456526756287, -0.07548587769269943, 1.5950350761413574, 0.15275584161281586, 0.6851295232772827, 0.07041329890489578, 0.05202196165919304, -1.3070697784423828, 0.025639301165938377, 0.5106773376464844, -0.24701650440692902, -0.6431107521057129, -0.13809439539909363, -0.008127004839479923, 0.029711782932281494, -0.4123819172382355, -0.6012251377105713, 0.2793492078781128, 0.6304184198379517, 0.24319173395633698, -0.3634190857410431, -0.24343650043010712, -0.017310908064246178, -0.009740423411130905, -0.45269975066185, 0.26190292835235596, 0.1469596028327942, -0.7039815187454224, 0.8208630681037903, -0.05834445729851723, -0.4012053906917572, 0.03278983756899834, 0.07657214254140854, 0.1496284008026123, 0.3131805658340454, -0.11935011297464371, 0.3437555134296417, 0.05822951719164848, -1.1963841915130615, 0.3223182260990143, 0.36581283807754517, -0.1959102302789688, 0.10958926379680634, 0.007904553785920143, -0.21155308187007904, -0.13486547768115997, 0.013014907948672771, -0.2675493359565735, -0.8457827568054199, -0.31213515996932983, 0.6906799674034119, -0.6263986825942993, -0.5725894570350647, -0.8437770009040833, -1.3070942163467407, -0.689261794090271, 0.5504540801048279, 0.019340679049491882, 0.22557157278060913, -0.3740110397338867, -0.6092041730880737, 0.1632600724697113, -0.33055150508880615, 0.07774800062179565, 0.18429112434387207, -0.24087275564670563, -0.07387661188840866, 0.5190741419792175, -0.04330192506313324, 0.15965382754802704, 0.19616833329200745, 0.2694411873817444, 1.0327832698822021, -1.0200406312942505, -0.5101432204246521, 0.16567298769950867, 0.8256573677062988, 0.11992315202951431, -0.0916004553437233, 0.277910977602005, -0.04205678030848503, -0.6194318532943726, -0.26105427742004395, -0.14764301478862762, 0.11349238455295563, -0.04726472124457359, -1.0872386693954468, 0.1713520884513855, -0.47891077399253845, -0.07752925157546997, -0.4430369734764099, 0.31373435258865356, 0.058909084647893906, 1.1400450468063354, -0.15053746104240417, 0.049416203051805496, 0.5678509473800659, -0.00573529489338398, -0.5793314576148987, -0.2980082333087921, -0.16965198516845703, 0.10023153573274612, 0.2763682007789612, -0.6664674282073975, 0.457790732383728, 0.23899191617965698, 0.22366513311862946, 0.0244480948895216, 0.17748138308525085, -0.677083432674408, 0.004267035983502865, 0.1838081181049347, -0.5699119567871094, -1.1101068258285522, -0.41116824746131897, -0.8060852885246277, -0.021860692650079727, -0.8374221324920654, -0.05636783689260483, -0.9941903948783875, 0.9129706621170044, -0.13679173588752747, -0.5595327019691467, -0.09841247648000717, 0.09056809544563293], [0.10256005823612213, -0.004455935209989548, 0.1415121704339981, -0.12431104481220245, 0.3432730734348297, 0.17362499237060547, 0.23872977495193481, 0.27715474367141724, -0.08871736377477646, 0.454100638628006, 0.06276456266641617, -0.2252034842967987, 0.04054967686533928, 0.4995790123939514, 0.18065038323402405, 0.487145334482193, -0.2517254650592804, 0.0763416737318039, 0.27930283546447754, -0.47997498512268066, 0.010138978250324726, -0.2532236576080322, 0.49553847312927246, 0.385843425989151, 0.33039137721061707, 0.3066469728946686, 0.05772000178694725, 0.13941152393817902, -0.23854124546051025, -0.0756201446056366, -0.32550370693206787, 0.26114654541015625, -0.03925390541553497, -0.7747121453285217, 0.12592190504074097, -0.4424174427986145, -0.24589061737060547, 0.10337959229946136, -0.5826629996299744, -1.0505727529525757, 0.5678952932357788, -0.5153064131736755, -0.10171975195407867, -0.0604327991604805, 0.01173615362495184, -0.610487163066864, 0.4234480857849121, 0.10526743531227112, -0.11571917682886124, 0.3324996531009674, -0.5451939702033997, 0.28941139578819275, -0.09208334237337112, -0.07145193219184875, 0.38133904337882996, 0.19958338141441345, -0.49321120977401733, 0.3892938196659088, 0.19515489041805267, 0.9004487991333008, 0.3826196491718292, 0.16585682332515717, -0.010053642094135284, -0.12476661801338196, 0.37153685092926025, 0.15187831223011017, -0.11543670296669006, 0.10972084850072861, 0.000775971042457968, -0.20437301695346832, 0.05407135561108589, 0.029579443857073784, 0.18383917212486267, -0.08801344037055969, -0.1988143026828766, -0.21613042056560516, -0.35071536898612976, 0.3768080770969391, 0.4022514820098877, 0.04692964628338814, 0.1479569524526596, -0.016828130930662155, 0.1854626089334488, 0.41858622431755066, 0.03980134055018425, -0.1686086356639862, 0.39946115016937256, 0.13757936656475067, 0.058773476630449295, 0.322287380695343, -0.21044164896011353, -0.1604672074317932, 0.03968635946512222, -0.011426257900893688, -0.854526698589325, -0.4786616563796997, 0.24929028749465942, -0.03375118970870972, 